// Neural Network File Format by Kyle Julian, Stanford 2016
7,30,1,32,
30,1,1,1,32,16,1,1,1,1,32,16,1,
0,
0.0,0.0,0.0,0.0,0.0,0.0,0.0,0.0,0.0,0.0,0.0,0.0,0.0,0.0,0.0,0.0,0.0,0.0,0.0,0.0,0.0,0.0,0.0,0.0,0.0,0.0,0.0,0.0,0.0,0.0,
1.0,1.0,1.0,1.0,1.0,1.0,1.0,1.0,1.0,1.0,1.0,1.0,1.0,1.0,1.0,1.0,1.0,1.0,1.0,1.0,1.0,1.0,1.0,1.0,1.0,1.0,1.0,1.0,1.0,1.0,
0.5,0.5,0.5,0.5,0.5,0.5,0.5,0.5,0.5,0.5,0.5,0.5,0.5,0.5,0.5,0.5,0.5,0.5,0.5,0.5,0.5,0.5,0.5,0.5,0.5,0.5,0.5,0.5,0.5,0.5,0.5,
1.0,1.0,1.0,1.0,1.0,1.0,1.0,1.0,1.0,1.0,1.0,1.0,1.0,1.0,1.0,1.0,1.0,1.0,1.0,1.0,1.0,1.0,1.0,1.0,1.0,1.0,1.0,1.0,1.0,1.0,255.0,
5.70261e-01,-1.01124e-01,-1.64104e-01,1.63693e-01,-1.93600e-01,2.14423e-01,6.22181e-01,3.43579e-01,-2.39935e-02,4.21116e-01,-1.00474e-01,7.57728e-02,8.05231e-01,6.31719e-02,-2.36862e-01,6.99961e-01,2.56454e-01,-9.17272e-02,6.24616e-01,1.43160e-01,7.23326e-01,8.44221e-01,5.04398e-01,-7.56804e-02,9.51822e-01,1.37826e-01,5.71609e-01,1.45782e+00,5.33619e-01,3.26820e-02,
5.36538e-02,1.84429e-01,-1.32186e-01,-1.56361e-02,1.68098e-02,2.24891e-01,-7.10471e-02,-7.30064e-01,-9.29137e-02,-6.26209e-01,-2.46557e-01,3.08436e-01,6.11703e-02,2.09834e-01,1.18900e-01,-2.38808e-02,1.37925e-01,2.58477e-01,2.41337e-01,-3.97198e-01,-6.92011e-02,-2.51546e-01,2.39472e-01,-2.27026e-01,-3.22661e-02,-1.85841e-01,-1.23740e-01,2.06571e-01,1.22311e-02,-2.91431e-01,
-1.07715e-01,-2.98010e-01,1.89053e-01,-3.09821e-01,4.04047e-01,3.48100e-02,6.16865e-02,-6.45403e-01,2.10321e-01,3.45254e-01,1.82623e-01,-5.34883e-02,1.99331e-01,-2.28411e-01,-9.52708e-02,3.07244e-01,-2.58174e-02,-1.76832e-01,-4.01556e-01,2.39300e-01,-1.69778e-01,-7.71345e-02,1.86407e-01,4.55359e-02,1.06398e-01,-3.63303e-02,1.13359e-01,4.50735e-01,-3.41198e-01,-9.07135e-02,
-2.62356e-01,3.27874e-01,2.70936e-02,-4.85532e-01,1.15871e-01,-3.16680e-01,-6.74844e-01,8.38419e-02,5.60830e-02,-3.80584e-01,1.58641e-02,-3.46676e-01,-6.96301e-01,-9.81270e-02,5.50955e-01,-9.33455e-01,-1.26985e-01,-3.31142e-01,-5.68174e-01,2.37427e-01,-3.81838e-02,-6.10154e-01,9.79720e-02,1.56349e-01,-6.86687e-01,-5.44902e-01,1.82249e-01,-6.09994e-01,2.59883e-01,-3.71531e-01,
-1.66002e-01,2.15978e-02,1.01462e-01,5.61631e-01,-6.73556e-02,-1.67503e-01,3.83338e-01,2.72357e-02,-2.26718e-02,2.07046e-02,1.98283e-01,4.64308e-01,-2.47154e-01,-3.41703e-01,-1.68648e-01,-9.33096e-02,1.39052e-02,-2.78208e-01,1.15834e-01,-1.61865e-01,-2.72263e-01,4.39465e-01,3.99582e-01,-1.69911e-01,-7.64834e-02,-4.98442e-01,1.84979e-01,2.48176e-01,7.27120e-03,-2.04659e-01,
1.18611e-01,-2.73046e-01,-2.73824e-01,2.68784e-01,1.13489e-01,9.21457e-02,2.49415e-01,-2.19264e-01,-1.71059e-02,-4.98953e-01,-2.06884e-01,-2.19307e-02,5.10355e-02,4.60598e-01,-2.34557e-01,-2.28808e-02,-5.26352e-02,-2.55547e-02,-4.08585e-01,4.26527e-01,-9.31363e-02,5.02482e-02,-5.15141e-01,2.12402e-01,-1.18546e-01,-4.41963e-01,4.59376e-01,-8.40603e-02,-1.11133e-01,7.36647e-03,
4.49389e-01,-1.95613e-02,-1.68586e-01,3.12016e-01,-8.67824e-02,-3.31527e-01,2.04530e-01,8.10954e-02,1.67580e-01,4.28901e-01,2.68636e-02,5.88073e-01,8.47762e-01,1.30284e-01,2.30528e-01,1.02412e+00,-2.57079e-01,6.18159e-01,8.13745e-01,4.80436e-01,1.81249e-01,1.00308e+00,2.38396e-01,3.10316e-01,9.88846e-01,-1.82727e-01,-1.56714e-01,1.49668e+00,4.19660e-01,2.89148e-01,
-4.12692e-01,-3.83174e-01,1.74375e-01,1.53656e-01,-1.24123e-01,-4.40750e-01,-2.31480e-01,-2.03415e-01,-9.97142e-02,-5.72583e-02,-6.07636e-01,1.24943e-01,2.62827e-02,-4.18758e-02,-1.69437e-01,2.56573e-02,1.64264e-01,-2.97080e-01,4.02534e-02,-7.46516e-02,3.26619e-02,-2.18337e-01,3.98889e-01,1.89733e-01,1.19259e-01,-1.16250e-01,9.32079e-02,-4.59990e-01,-6.66754e-02,5.37575e-01,
-5.22928e-01,-2.22939e-01,-2.44948e-01,-3.58327e-01,8.40896e-02,-1.04542e-02,1.60960e-01,2.35795e-01,1.62707e-01,-4.02131e-01,-2.39836e-01,-1.32749e-01,3.84903e-02,-1.41985e-01,1.44580e-01,4.86550e-01,-3.84547e-01,-3.27623e-01,2.16799e-01,-3.19078e-01,-1.16917e-01,8.44488e-02,-2.84978e-01,-1.15787e-01,-2.98336e-01,-1.26074e-01,1.34991e-01,3.67382e-01,1.72752e-01,1.47146e-01,
-2.57135e-01,1.23498e-01,-4.77714e-01,-2.89604e-02,8.05286e-02,2.01711e-01,4.14513e-02,-2.63307e-01,1.01990e-01,1.32025e-01,-2.60156e-01,-3.15571e-01,1.00229e-01,9.83965e-03,-1.22473e-01,5.57327e-02,4.33855e-03,-3.65184e-01,3.12486e-01,2.03369e-01,2.61224e-01,1.14937e-01,1.82734e-01,-1.21166e-01,2.20899e-02,-2.46121e-01,-2.55547e-01,-4.66772e-01,-1.69781e-01,-4.89143e-01,
-2.49300e-01,2.94755e-01,3.27335e-01,-9.55979e-01,4.95595e-02,4.72332e-01,-7.14951e-01,1.00029e-01,-7.80786e-02,-4.67157e-01,1.63511e-01,4.65492e-01,-4.55291e-01,9.90440e-02,-2.01662e-01,-7.05958e-01,-5.73692e-01,-2.31149e-01,-1.36309e-01,1.85573e-01,1.05055e-01,-5.83907e-01,6.38507e-02,1.29865e-02,-1.07410e-02,-1.74681e-01,3.67889e-01,-2.29927e-01,-3.78335e-01,4.25231e-01,
-2.14273e-02,-4.54505e-03,2.33687e-01,-4.94862e-01,1.95115e-01,-3.87729e-01,-5.42308e-01,1.69251e-01,6.31928e-01,-3.93724e-01,1.75953e-01,2.86771e-01,-6.28095e-01,3.90528e-01,-1.91940e-01,-2.79570e-01,2.65923e-01,-5.19583e-01,-5.58578e-01,1.62292e-02,-2.34018e-01,-1.19712e+00,-3.04976e-01,-4.04035e-01,-6.69687e-01,-7.60571e-02,-2.22489e-01,-1.32042e+00,9.77239e-02,-3.40298e-01,
-2.90234e-01,4.30106e-01,3.28416e-01,-1.78743e-01,3.49237e-01,-2.76154e-01,-2.36474e-01,1.18402e-01,1.21465e-01,-2.63193e-01,-7.21404e-02,-1.71502e-01,5.69972e-02,-5.18729e-02,-5.72401e-01,-1.46832e-01,1.06353e-01,5.12191e-01,1.48004e-01,-1.55973e-02,-5.14062e-02,3.88318e-01,-1.74362e-02,1.35334e-02,2.80568e-01,2.27219e-01,4.93023e-01,3.79545e-01,7.83198e-02,-1.84547e-01,
-1.87190e-01,-2.53522e-01,-4.84341e-01,3.73601e-01,2.61996e-01,-3.27056e-01,3.07705e-02,1.99518e-01,-6.20210e-02,8.12176e-02,6.07498e-02,-8.59595e-03,4.77747e-01,-9.53327e-02,1.47864e-02,-1.95503e-01,-1.89290e-01,-3.95188e-02,-3.07860e-02,-1.19409e-01,-1.08209e-01,-1.99408e-01,-3.81457e-04,8.56270e-02,4.86995e-01,-3.52606e-02,-5.14119e-02,7.87655e-02,-4.23271e-01,-5.62355e-01,
-2.03277e-01,2.09704e-01,9.05477e-02,-1.94354e-01,-5.35990e-01,2.13411e-02,6.77201e-01,7.84048e-02,-1.29047e-01,2.22427e-01,5.08848e-02,-6.97820e-02,3.32452e-01,1.46105e-01,9.59004e-02,3.27159e-01,2.30252e-01,5.52673e-02,3.32999e-01,3.55630e-02,-2.84380e-01,-3.97950e-01,-2.09990e-01,2.52808e-01,1.04361e-01,-5.16895e-01,7.03417e-02,6.55486e-03,-4.44630e-01,-9.89603e-02,
-5.20746e-01,-1.13117e-01,-2.22773e-01,1.41820e-02,-2.89275e-01,3.15370e-01,-7.95864e-01,-1.09159e-01,9.59913e-02,-8.11425e-02,3.29785e-01,7.55121e-03,-4.40077e-01,4.71063e-02,2.72632e-01,-7.48402e-02,2.62444e-01,1.20712e-01,-4.90539e-01,5.36667e-02,2.50811e-01,-4.97495e-01,-2.09799e-01,-4.34431e-01,-4.63057e-01,-1.87618e-01,2.95354e-01,-8.89247e-01,-1.78664e-01,2.30069e-01,
5.05402e-01,-1.65293e-01,9.63782e-02,1.15157e-01,1.17903e-01,5.04864e-01,-7.89631e-02,3.73030e-01,3.16841e-01,1.03184e-01,-2.33943e-01,4.39621e-01,3.66863e-01,-4.99248e-01,3.45775e-01,-6.27353e-01,5.49125e-01,1.06073e-01,-4.71257e-01,2.71193e-02,-3.97766e-01,-6.50366e-01,-1.83385e-01,-1.86826e-01,-6.09439e-01,-8.43994e-02,2.56188e-01,-7.50679e-01,-1.72593e-01,1.17584e-01,
4.63380e-01,-3.17437e-01,1.75480e-01,-1.10169e-01,7.68911e-02,-1.59645e-01,6.71907e-01,-1.46939e-01,-1.22535e-01,6.78468e-02,-1.21562e-01,-4.68527e-02,5.29155e-01,1.26738e-01,6.41077e-01,3.85509e-01,2.28009e-01,1.67002e-01,9.96078e-01,7.49713e-02,2.64740e-01,1.55529e+00,2.49125e-01,2.18929e-01,1.72775e+00,3.79251e-01,2.21187e-01,1.41854e+00,4.58093e-01,3.69289e-01,
6.92995e-02,-1.74348e-01,2.95687e-01,4.88727e-01,-2.26604e-01,1.99011e-01,-2.84873e-01,1.85485e-01,-1.64841e-01,1.96592e-01,-4.59719e-01,-5.16919e-01,2.17607e-01,3.45213e-01,-1.11452e-01,3.40854e-01,1.52824e-02,-4.11936e-01,1.82377e-01,3.41330e-01,-6.41663e-01,-3.15051e-02,1.81049e-01,-1.49257e-01,-2.10629e-01,1.43681e-01,-4.67702e-01,2.58777e-01,-1.04719e-01,-5.41239e-01,
1.06715e-01,5.84477e-02,3.02773e-02,-3.63858e-02,6.25255e-02,-6.86553e-02,-2.39614e-01,-1.24375e-01,-2.75009e-01,6.33671e-01,-4.25708e-01,-6.64913e-02,1.39701e-01,2.38624e-01,-2.72275e-01,-1.32725e-01,1.01683e-01,-2.36603e-02,-1.04369e-01,-5.08077e-01,3.09181e-02,7.11054e-02,-3.80221e-01,6.32433e-03,1.56107e-01,-6.10092e-01,-2.82053e-02,3.52604e-01,2.00637e-01,-1.41061e-02,
1.95307e-01,3.86503e-01,-2.08140e-01,4.55537e-01,-2.48197e-01,-8.04252e-02,1.99218e-01,-1.06540e-01,1.62750e-01,-4.55546e-02,-3.91838e-01,-1.72050e-01,3.34282e-01,-4.33140e-01,-1.26180e-01,1.84639e-02,-4.99932e-01,-7.05044e-02,2.30937e-02,1.15934e-01,-4.26729e-02,-1.03497e-01,-9.13127e-02,-1.90782e-01,5.69258e-01,5.87206e-02,-1.27392e-01,1.79911e-01,1.77546e-01,2.23931e-01,
4.01385e-02,5.34924e-01,1.26996e-01,-1.45957e-01,-2.76222e-01,6.37203e-02,4.57308e-02,1.32476e-01,1.91693e-01,-1.63003e-01,-2.30732e-01,1.28401e-01,-3.47892e-01,1.06766e-02,1.63612e-01,2.03751e-01,2.73613e-02,-8.15256e-02,-9.94620e-01,-2.96306e-01,-4.54232e-02,-1.08653e-01,1.69393e-01,3.16756e-02,5.43965e-02,8.42136e-02,3.96116e-02,-4.83601e-01,-1.10980e-01,-1.96389e-01,
-1.10408e-01,1.16695e-01,1.00648e-03,4.10088e-01,3.03090e-01,5.27776e-01,3.71936e-01,-2.98431e-02,2.71799e-01,5.56752e-01,1.94764e-01,3.65946e-01,5.77117e-01,2.98893e-01,1.54072e-01,2.40562e-01,-1.23890e-01,-1.93735e-01,6.31440e-01,-2.32469e-01,-2.80347e-02,8.02801e-01,-2.30677e-02,4.07536e-01,9.07201e-01,3.93388e-01,1.81210e-02,8.87218e-01,6.59765e-01,2.01211e-01,
-7.25185e-02,-4.02437e-01,3.67318e-01,-6.32643e-02,-5.71853e-02,1.76510e-01,-1.12687e-01,2.17864e-01,-1.73442e-01,-2.09802e-01,3.07325e-01,-2.04874e-01,4.42322e-01,1.44191e-01,-4.24478e-02,2.25764e-02,-4.39922e-01,1.82810e-01,-2.06833e-01,-2.79806e-01,-1.70204e-01,2.22977e-01,1.98192e-01,-3.43168e-01,2.30490e-01,-4.92665e-01,-1.90487e-01,-4.47372e-01,8.38551e-02,-1.64738e-01,
-5.60528e-02,-1.91305e-01,2.69829e-02,2.76392e-01,-2.62441e-01,-1.65397e-01,3.68770e-01,4.11220e-02,4.84497e-01,4.32448e-01,-3.64795e-03,-7.93267e-02,1.89581e-01,5.19690e-01,1.96621e-01,-3.55162e-01,-1.27067e-01,3.16809e-01,-1.76703e-01,-1.96263e-01,-2.12678e-03,-6.56136e-01,1.80886e-01,-3.24474e-01,-4.27063e-01,1.90814e-01,3.74023e-01,-1.51299e-01,-1.57175e-01,3.53984e-02,
5.05680e-01,-2.51243e-02,1.48132e-01,5.24065e-01,4.90678e-01,5.48062e-02,6.97995e-01,3.37089e-01,1.75167e-01,6.33472e-01,-4.20458e-01,2.16866e-01,4.56884e-01,1.57709e-01,2.47423e-01,5.88534e-01,-2.06917e-01,1.21255e-01,5.45352e-01,-9.94148e-02,6.16619e-01,6.50898e-01,1.15236e-02,-1.57228e-01,2.46448e-01,-1.44338e-01,-1.59567e-01,4.67556e-01,-5.87733e-01,-3.42920e-02,
3.96844e-01,3.45704e-01,-1.00294e-01,8.36715e-02,2.63970e-01,-1.10841e-01,6.97757e-02,-2.37586e-01,1.88373e-01,3.48374e-01,1.15253e-02,-4.33341e-01,1.63380e-01,8.11698e-02,6.08804e-02,1.51310e-01,-9.54654e-02,-1.53826e-01,-1.43387e-01,3.91889e-02,-5.52011e-01,-2.84149e-01,1.92929e-01,-6.47325e-01,-5.52000e-01,-1.45561e-01,4.31429e-02,-5.61360e-01,-4.55057e-02,2.45485e-01,
-1.77882e-01,-2.07116e-01,4.88404e-01,2.22450e-01,1.79268e-01,1.20396e-01,1.87260e-01,-1.77737e-01,-2.92605e-01,5.38211e-02,-1.53118e-01,-3.29250e-02,-3.23865e-01,-3.98963e-01,1.48635e-01,2.27851e-01,-1.90674e-01,1.81666e-01,-2.08911e-02,7.91511e-02,2.13750e-01,-6.53660e-01,-3.26160e-01,-2.76424e-01,1.34704e-01,-1.12192e-01,1.74997e-01,-1.88751e-01,3.38168e-01,-2.88740e-01,
6.07800e-01,-1.22512e-01,-3.59657e-01,2.47580e-01,2.73309e-01,1.06953e-01,8.36774e-02,2.10553e-01,-7.81265e-02,1.68334e-01,1.07542e-01,-1.98029e-01,2.26958e-02,7.06269e-02,5.80107e-02,8.26326e-01,-8.86080e-02,1.45599e-01,7.73280e-01,-4.11363e-01,-1.33498e-01,5.13227e-01,4.61505e-01,5.24357e-01,1.06531e+00,9.97405e-02,4.41067e-01,9.81658e-01,1.38774e-01,7.59295e-02,
-6.57629e-01,1.83835e-02,-4.06000e-01,-7.54167e-01,2.77868e-01,1.00880e-01,-3.85249e-01,2.75759e-01,-2.61997e-01,-1.26739e-01,-3.22186e-01,9.97571e-02,-1.16857e+00,1.39624e-01,-2.03260e-01,-7.20055e-01,1.78763e-02,1.91970e-01,-8.20406e-01,3.43524e-01,-6.89544e-01,-8.02172e-01,1.18873e-01,-4.74843e-01,-5.67268e-01,-5.42324e-02,-2.72368e-01,-1.01389e+00,7.25278e-02,-2.01285e-01,
1.46979e-01,-4.31285e-01,4.04968e-02,-1.57541e-01,-5.55158e-01,1.74762e-01,-3.35667e-02,-2.55552e-01,6.14061e-01,2.34877e-01,-2.24472e-01,3.70297e-02,-2.57413e-01,-2.27056e-01,-1.85814e-01,-8.79112e-02,-3.05997e-01,2.66106e-01,2.40636e-01,-1.92134e-02,-4.34956e-02,2.28968e-01,-6.46419e-02,1.66188e-01,3.96119e-02,-6.00219e-02,1.49777e-01,-2.20097e-01,4.98412e-02,-3.64211e-01,
-1.62552e-02,-8.79413e-03,1.55246e-01,-6.51647e-02,2.41940e-01,4.03904e-01,1.39325e-01,2.12790e-01,6.56682e-01,-1.32569e-01,1.85922e-01,-2.58320e-01,1.38539e-02,-1.33844e-01,-1.90619e-01,-2.57986e-02,3.99363e-01,3.58305e-01,-4.43899e-02,3.94526e-02,2.10737e-01,-4.29552e-01,2.26377e-01,2.65648e-01,-1.34387e-01,-4.04393e-01,-3.60526e-01,-1.05668e-01,1.42253e-01,4.79138e-01,
0.00000e+00,
-4.64805e-02,2.03791e-01,2.55087e-01,1.63995e-01,-2.54017e-01,3.80719e-01,-1.23000e-01,-3.07493e-01,4.14617e-02,-8.17056e-03,2.89624e-01,-1.52829e-02,2.06937e-05,2.52552e-01,-2.67329e-01,1.02905e-01,2.05318e-01,1.46061e-01,6.62408e-02,-2.70613e-01,2.71177e-01,2.27950e-01,-1.37231e-01,-2.27701e-01,-1.69323e-02,-5.52269e-01,2.18120e-01,6.04343e-02,4.11754e-01,5.10288e-01,-4.24972e-01,-1.99586e-01,
-4.44272e-01,4.36892e-01,-1.30678e-01,1.22343e-02,3.05448e-02,9.36292e-02,-1.98946e-02,7.41814e-02,-1.09690e-01,4.75349e-03,4.58147e-01,5.62273e-02,-1.07844e-02,-2.01896e-01,-9.85035e-02,3.97685e-01,1.78367e-01,3.28854e-01,3.49579e-01,3.91959e-01,2.01875e-01,2.35270e-01,4.48406e-01,-1.12022e-01,2.13439e-02,4.69165e-01,-1.31793e-01,-9.43877e-02,-1.67070e-01,2.63597e-01,6.23776e-02,-2.78571e-01,
-6.40589e-02,-1.33132e-01,3.20486e-01,-4.60724e-01,-8.41300e-02,-2.17203e-02,3.54341e-01,2.67554e-01,-1.84676e-01,9.00933e-02,-1.45210e-01,-2.53607e-02,-1.25912e-01,7.16409e-02,4.37618e-01,5.40218e-01,1.57250e-01,-2.29370e-01,-1.02263e-01,-2.69004e-01,1.89699e-01,3.28054e-01,-8.07692e-03,-2.27390e-01,1.79364e-01,-2.52717e-01,-2.97241e-01,-3.13027e-01,7.52881e-02,-1.01464e-01,4.11779e-01,-2.19971e-01,
1.55563e-01,6.89902e-02,8.88428e-02,2.27181e-02,-9.12142e-02,2.19156e-02,3.35187e-01,-6.12138e-01,-1.43403e-01,7.39718e-02,-4.99282e-01,-2.28624e-01,-1.80155e-01,1.75725e-01,-1.09771e-01,-1.14186e-01,-5.46423e-01,3.21949e-01,-1.70337e-01,3.87915e-01,4.63360e-01,5.85635e-01,4.20523e-01,-1.36243e-01,-2.12455e-01,1.75503e-01,3.53482e-01,-1.60729e-01,1.29717e-01,-3.03512e-01,2.27420e-01,3.20927e-01,
-2.95440e-01,-1.15571e-01,-2.66428e-01,1.13094e-01,2.84810e-01,-6.88234e-01,-3.22108e-01,1.57329e-01,3.95548e-01,2.10477e-01,4.62065e-01,2.05519e-01,6.79543e-02,-3.19368e-01,-3.86963e-01,-1.41372e-01,3.82571e-01,-3.48277e-01,-1.71744e-01,-3.51136e-01,1.83993e-01,4.14650e-01,4.54936e-02,1.02681e-01,-1.63311e-01,-8.55848e-02,2.86278e-01,-2.74486e-01,-1.36893e-01,7.24649e-01,-3.42295e-02,-9.25212e-02,
2.47280e-02,3.58100e-01,-7.54311e-02,-3.00880e-01,-1.00001e-02,-7.10994e-02,-1.74527e-01,7.75718e-02,-3.77001e-01,-9.18384e-02,6.91363e-02,3.60537e-01,-1.03169e-01,-1.30392e-01,-2.05038e-01,3.82950e-02,-4.01324e-01,-9.76585e-02,-5.20718e-02,-1.95793e-01,3.00148e-02,8.84809e-02,2.68073e-01,5.55555e-01,-3.31165e-01,-5.55755e-01,-3.49403e-01,1.47534e-01,-1.98804e-01,-1.93668e-01,-2.38107e-01,-2.86314e-01,
1.62771e-01,4.12659e-02,1.23750e-01,-1.30153e-02,-4.89131e-01,8.77890e-02,6.61626e-01,3.40358e-01,-5.02606e-03,-1.62119e-01,-4.31144e-02,-3.22998e-01,1.96057e-01,2.45973e-01,-4.42470e-01,-3.45543e-01,-1.48396e-01,1.10482e-01,-2.39928e-01,2.67534e-01,-4.22074e-01,7.85694e-02,6.05008e-02,-1.11363e-01,-1.13259e-01,-3.70709e-01,1.83082e-01,-4.33783e-02,-2.20034e-01,1.93445e-01,3.03872e-01,-2.38771e-01,
-3.21484e-01,-1.30438e-01,-3.16003e-01,4.20370e-01,-2.57731e-01,-2.00738e-01,-1.78770e-01,-3.98869e-01,2.05470e-01,-2.31455e-01,-5.85283e-02,3.23999e-01,1.49858e-01,-1.54932e-01,1.11542e-01,3.75055e-01,1.00418e+00,-2.42033e-01,1.16187e-01,1.23686e-01,8.53468e-02,-1.56597e-01,1.23076e-01,9.11487e-02,-3.11244e-01,-6.04794e-01,-6.98883e-02,6.04424e-02,-4.19511e-01,1.59052e-01,2.66417e-02,1.03562e-01,
1.68536e-01,2.03351e-02,-1.11164e-01,-1.98326e-01,3.36245e-01,2.19850e-01,4.53438e-01,-3.70982e-02,1.17564e-01,8.75835e-04,1.17593e-01,-1.87256e-01,-3.62977e-01,-3.07488e-03,1.29324e-01,-2.72751e-01,8.73315e-02,5.58383e-01,-7.19202e-02,-1.19325e-02,-2.97466e-02,-3.64459e-01,1.19376e-01,2.51461e-01,-4.51128e-01,-2.76071e-01,1.13092e-01,-1.38562e-01,5.37794e-01,3.58769e-02,3.83999e-01,3.73311e-01,
-1.39111e-01,9.72354e-02,-1.23395e-01,-4.25957e-01,9.99692e-02,-1.10452e-01,-9.05796e-02,6.70199e-02,-2.06290e-01,-2.47206e-02,-3.81066e-01,1.23546e-02,1.77297e-01,7.32188e-01,2.46530e-01,-3.96972e-01,1.45456e-01,2.69153e-02,9.42808e-02,-1.31963e-01,-3.15146e-01,1.30738e-02,4.96833e-01,-2.69106e-02,-4.12355e-02,1.43871e-01,1.66621e-01,-4.50793e-01,1.51419e-01,-4.84479e-02,-3.07344e-01,4.21164e-02,
4.57954e-01,2.68282e-01,8.40383e-02,1.16577e-01,4.84594e-01,-4.33262e-01,5.67575e-01,-3.22919e-01,-2.75908e-01,2.89928e-01,-3.11605e-01,-4.36444e-01,4.21799e-01,1.83563e-01,5.26657e-03,-1.89936e-02,-2.69594e-01,5.56164e-01,-3.84045e-01,-2.17394e-03,4.71610e-02,-1.90673e-01,1.62979e-01,-3.38442e-01,-1.05386e-01,6.14975e-02,-1.93712e-01,3.39052e-02,4.43353e-01,8.90379e-02,2.66297e-02,-2.94170e-01,
-1.87547e-01,9.46870e-02,-5.81243e-02,1.95553e-01,5.30880e-02,3.09509e-02,7.56934e-03,2.03665e-01,1.69043e-01,5.17002e-01,-2.54622e-01,-2.20594e-01,-3.77695e-01,3.77091e-01,2.58726e-01,3.86130e-01,-2.32848e-01,4.02579e-02,-4.30975e-01,3.82762e-01,-4.81126e-01,1.03711e-01,5.43899e-03,3.96963e-01,-2.10590e-01,3.74676e-02,1.52089e-01,1.85347e-01,7.31806e-02,1.48225e-01,-5.33662e-02,-1.90629e-01,
-1.39111e-01,1.11702e-01,3.70413e-02,-1.83140e-01,2.83406e-01,-1.60113e-01,7.76700e-03,6.29928e-02,-2.51772e-01,-1.94990e-01,6.94305e-01,3.83094e-01,1.26211e-01,-2.18278e-01,1.98782e-01,1.35106e-01,1.17355e-01,-1.32289e-01,1.40371e-01,7.53405e-01,9.56709e-02,-1.07508e-01,-1.88588e-01,-2.48207e-01,3.07207e-01,-4.42127e-01,4.56833e-01,-1.98674e-01,4.25566e-02,3.72913e-01,-3.19749e-01,3.95334e-01,
1.15804e-01,-3.89467e-02,4.21422e-01,6.93218e-02,-2.23102e-01,-2.53593e-01,2.65393e-01,-1.30474e-01,3.01384e-01,2.08177e-01,3.51678e-01,2.32502e-02,1.87165e-01,4.32929e-02,4.62704e-01,1.40135e-01,-2.36789e-01,4.74369e-01,-1.05270e-01,-1.44519e-01,6.23155e-02,-2.19988e-01,1.27170e-01,-2.98137e-02,-2.75224e-01,-1.64331e-02,4.60241e-01,-2.37712e-01,-1.01455e-01,-5.01663e-01,-3.35402e-01,-1.20783e-01,
1.35787e-01,-4.83294e-01,-1.60069e-01,-1.13826e-01,4.50757e-01,3.64802e-01,2.25265e-01,2.15960e-02,-2.99748e-01,3.56831e-01,-2.16197e-01,3.63107e-02,1.95811e-01,-2.23365e-01,4.49792e-02,8.75666e-02,-1.65267e-01,2.48102e-01,-2.80906e-03,-1.85854e-01,-4.39207e-02,1.15943e-01,2.73539e-01,-1.24880e-01,-4.54110e-02,-2.20792e-01,3.85415e-01,3.59241e-01,-3.71141e-01,1.12558e-01,6.97385e-02,8.63404e-02,
6.16756e-02,5.30976e-01,-3.02364e-01,-1.70675e-01,1.61454e-01,-2.87538e-01,6.46112e-02,4.55335e-02,2.46140e-01,9.22606e-02,-5.99269e-02,1.39289e-01,-6.22842e-01,1.02994e-02,-1.10115e-01,-5.93467e-02,4.29934e-01,8.00150e-02,1.31658e-01,-1.33437e-01,-2.85336e-01,2.31382e-01,-2.93169e-01,-2.60722e-01,3.10732e-01,-2.56459e-01,1.52384e-01,3.73644e-01,-1.78967e-01,-5.26644e-01,-1.47194e-01,-8.94273e-02,
1.00000e+00,
5.53904e-02,9.31016e-03,6.27965e-03,-1.86722e-01,4.32572e-01,-1.85153e-02,-8.64653e-02,1.49297e-01,-1.50071e-01,-1.44228e-02,-3.84519e-01,1.17340e-03,2.79132e-01,-3.15150e-02,-6.38861e-03,-1.94848e-01,
1.00000e+00,
5.70261e-01,-1.01124e-01,-1.64104e-01,1.63693e-01,-1.93600e-01,2.14423e-01,6.22181e-01,3.43579e-01,-2.39935e-02,4.21116e-01,-1.00474e-01,7.57728e-02,8.05231e-01,6.31719e-02,-2.36862e-01,6.99961e-01,2.56454e-01,-9.17272e-02,6.24616e-01,1.43160e-01,7.23326e-01,8.44221e-01,5.04398e-01,-7.56804e-02,9.51822e-01,1.37826e-01,5.71609e-01,1.45782e+00,5.33619e-01,3.26820e-02,
5.36538e-02,1.84429e-01,-1.32186e-01,-1.56361e-02,1.68098e-02,2.24891e-01,-7.10471e-02,-7.30064e-01,-9.29137e-02,-6.26209e-01,-2.46557e-01,3.08436e-01,6.11703e-02,2.09834e-01,1.18900e-01,-2.38808e-02,1.37925e-01,2.58477e-01,2.41337e-01,-3.97198e-01,-6.92011e-02,-2.51546e-01,2.39472e-01,-2.27026e-01,-3.22661e-02,-1.85841e-01,-1.23740e-01,2.06571e-01,1.22311e-02,-2.91431e-01,
-1.07715e-01,-2.98010e-01,1.89053e-01,-3.09821e-01,4.04047e-01,3.48100e-02,6.16865e-02,-6.45403e-01,2.10321e-01,3.45254e-01,1.82623e-01,-5.34883e-02,1.99331e-01,-2.28411e-01,-9.52708e-02,3.07244e-01,-2.58174e-02,-1.76832e-01,-4.01556e-01,2.39300e-01,-1.69778e-01,-7.71345e-02,1.86407e-01,4.55359e-02,1.06398e-01,-3.63303e-02,1.13359e-01,4.50735e-01,-3.41198e-01,-9.07135e-02,
-2.62356e-01,3.27874e-01,2.70936e-02,-4.85532e-01,1.15871e-01,-3.16680e-01,-6.74844e-01,8.38419e-02,5.60830e-02,-3.80584e-01,1.58641e-02,-3.46676e-01,-6.96301e-01,-9.81270e-02,5.50955e-01,-9.33455e-01,-1.26985e-01,-3.31142e-01,-5.68174e-01,2.37427e-01,-3.81838e-02,-6.10154e-01,9.79720e-02,1.56349e-01,-6.86687e-01,-5.44902e-01,1.82249e-01,-6.09994e-01,2.59883e-01,-3.71531e-01,
-1.66002e-01,2.15978e-02,1.01462e-01,5.61631e-01,-6.73556e-02,-1.67503e-01,3.83338e-01,2.72357e-02,-2.26718e-02,2.07046e-02,1.98283e-01,4.64308e-01,-2.47154e-01,-3.41703e-01,-1.68648e-01,-9.33096e-02,1.39052e-02,-2.78208e-01,1.15834e-01,-1.61865e-01,-2.72263e-01,4.39465e-01,3.99582e-01,-1.69911e-01,-7.64834e-02,-4.98442e-01,1.84979e-01,2.48176e-01,7.27120e-03,-2.04659e-01,
1.18611e-01,-2.73046e-01,-2.73824e-01,2.68784e-01,1.13489e-01,9.21457e-02,2.49415e-01,-2.19264e-01,-1.71059e-02,-4.98953e-01,-2.06884e-01,-2.19307e-02,5.10355e-02,4.60598e-01,-2.34557e-01,-2.28808e-02,-5.26352e-02,-2.55547e-02,-4.08585e-01,4.26527e-01,-9.31363e-02,5.02482e-02,-5.15141e-01,2.12402e-01,-1.18546e-01,-4.41963e-01,4.59376e-01,-8.40603e-02,-1.11133e-01,7.36647e-03,
4.49389e-01,-1.95613e-02,-1.68586e-01,3.12016e-01,-8.67824e-02,-3.31527e-01,2.04530e-01,8.10954e-02,1.67580e-01,4.28901e-01,2.68636e-02,5.88073e-01,8.47762e-01,1.30284e-01,2.30528e-01,1.02412e+00,-2.57079e-01,6.18159e-01,8.13745e-01,4.80436e-01,1.81249e-01,1.00308e+00,2.38396e-01,3.10316e-01,9.88846e-01,-1.82727e-01,-1.56714e-01,1.49668e+00,4.19660e-01,2.89148e-01,
-4.12692e-01,-3.83174e-01,1.74375e-01,1.53656e-01,-1.24123e-01,-4.40750e-01,-2.31480e-01,-2.03415e-01,-9.97142e-02,-5.72583e-02,-6.07636e-01,1.24943e-01,2.62827e-02,-4.18758e-02,-1.69437e-01,2.56573e-02,1.64264e-01,-2.97080e-01,4.02534e-02,-7.46516e-02,3.26619e-02,-2.18337e-01,3.98889e-01,1.89733e-01,1.19259e-01,-1.16250e-01,9.32079e-02,-4.59990e-01,-6.66754e-02,5.37575e-01,
-5.22928e-01,-2.22939e-01,-2.44948e-01,-3.58327e-01,8.40896e-02,-1.04542e-02,1.60960e-01,2.35795e-01,1.62707e-01,-4.02131e-01,-2.39836e-01,-1.32749e-01,3.84903e-02,-1.41985e-01,1.44580e-01,4.86550e-01,-3.84547e-01,-3.27623e-01,2.16799e-01,-3.19078e-01,-1.16917e-01,8.44488e-02,-2.84978e-01,-1.15787e-01,-2.98336e-01,-1.26074e-01,1.34991e-01,3.67382e-01,1.72752e-01,1.47146e-01,
-2.57135e-01,1.23498e-01,-4.77714e-01,-2.89604e-02,8.05286e-02,2.01711e-01,4.14513e-02,-2.63307e-01,1.01990e-01,1.32025e-01,-2.60156e-01,-3.15571e-01,1.00229e-01,9.83965e-03,-1.22473e-01,5.57327e-02,4.33855e-03,-3.65184e-01,3.12486e-01,2.03369e-01,2.61224e-01,1.14937e-01,1.82734e-01,-1.21166e-01,2.20899e-02,-2.46121e-01,-2.55547e-01,-4.66772e-01,-1.69781e-01,-4.89143e-01,
-2.49300e-01,2.94755e-01,3.27335e-01,-9.55979e-01,4.95595e-02,4.72332e-01,-7.14951e-01,1.00029e-01,-7.80786e-02,-4.67157e-01,1.63511e-01,4.65492e-01,-4.55291e-01,9.90440e-02,-2.01662e-01,-7.05958e-01,-5.73692e-01,-2.31149e-01,-1.36309e-01,1.85573e-01,1.05055e-01,-5.83907e-01,6.38507e-02,1.29865e-02,-1.07410e-02,-1.74681e-01,3.67889e-01,-2.29927e-01,-3.78335e-01,4.25231e-01,
-2.14273e-02,-4.54505e-03,2.33687e-01,-4.94862e-01,1.95115e-01,-3.87729e-01,-5.42308e-01,1.69251e-01,6.31928e-01,-3.93724e-01,1.75953e-01,2.86771e-01,-6.28095e-01,3.90528e-01,-1.91940e-01,-2.79570e-01,2.65923e-01,-5.19583e-01,-5.58578e-01,1.62292e-02,-2.34018e-01,-1.19712e+00,-3.04976e-01,-4.04035e-01,-6.69687e-01,-7.60571e-02,-2.22489e-01,-1.32042e+00,9.77239e-02,-3.40298e-01,
-2.90234e-01,4.30106e-01,3.28416e-01,-1.78743e-01,3.49237e-01,-2.76154e-01,-2.36474e-01,1.18402e-01,1.21465e-01,-2.63193e-01,-7.21404e-02,-1.71502e-01,5.69972e-02,-5.18729e-02,-5.72401e-01,-1.46832e-01,1.06353e-01,5.12191e-01,1.48004e-01,-1.55973e-02,-5.14062e-02,3.88318e-01,-1.74362e-02,1.35334e-02,2.80568e-01,2.27219e-01,4.93023e-01,3.79545e-01,7.83198e-02,-1.84547e-01,
-1.87190e-01,-2.53522e-01,-4.84341e-01,3.73601e-01,2.61996e-01,-3.27056e-01,3.07705e-02,1.99518e-01,-6.20210e-02,8.12176e-02,6.07498e-02,-8.59595e-03,4.77747e-01,-9.53327e-02,1.47864e-02,-1.95503e-01,-1.89290e-01,-3.95188e-02,-3.07860e-02,-1.19409e-01,-1.08209e-01,-1.99408e-01,-3.81457e-04,8.56270e-02,4.86995e-01,-3.52606e-02,-5.14119e-02,7.87655e-02,-4.23271e-01,-5.62355e-01,
-2.03277e-01,2.09704e-01,9.05477e-02,-1.94354e-01,-5.35990e-01,2.13411e-02,6.77201e-01,7.84048e-02,-1.29047e-01,2.22427e-01,5.08848e-02,-6.97820e-02,3.32452e-01,1.46105e-01,9.59004e-02,3.27159e-01,2.30252e-01,5.52673e-02,3.32999e-01,3.55630e-02,-2.84380e-01,-3.97950e-01,-2.09990e-01,2.52808e-01,1.04361e-01,-5.16895e-01,7.03417e-02,6.55486e-03,-4.44630e-01,-9.89603e-02,
-5.20746e-01,-1.13117e-01,-2.22773e-01,1.41820e-02,-2.89275e-01,3.15370e-01,-7.95864e-01,-1.09159e-01,9.59913e-02,-8.11425e-02,3.29785e-01,7.55121e-03,-4.40077e-01,4.71063e-02,2.72632e-01,-7.48402e-02,2.62444e-01,1.20712e-01,-4.90539e-01,5.36667e-02,2.50811e-01,-4.97495e-01,-2.09799e-01,-4.34431e-01,-4.63057e-01,-1.87618e-01,2.95354e-01,-8.89247e-01,-1.78664e-01,2.30069e-01,
5.05402e-01,-1.65293e-01,9.63782e-02,1.15157e-01,1.17903e-01,5.04864e-01,-7.89631e-02,3.73030e-01,3.16841e-01,1.03184e-01,-2.33943e-01,4.39621e-01,3.66863e-01,-4.99248e-01,3.45775e-01,-6.27353e-01,5.49125e-01,1.06073e-01,-4.71257e-01,2.71193e-02,-3.97766e-01,-6.50366e-01,-1.83385e-01,-1.86826e-01,-6.09439e-01,-8.43994e-02,2.56188e-01,-7.50679e-01,-1.72593e-01,1.17584e-01,
4.63380e-01,-3.17437e-01,1.75480e-01,-1.10169e-01,7.68911e-02,-1.59645e-01,6.71907e-01,-1.46939e-01,-1.22535e-01,6.78468e-02,-1.21562e-01,-4.68527e-02,5.29155e-01,1.26738e-01,6.41077e-01,3.85509e-01,2.28009e-01,1.67002e-01,9.96078e-01,7.49713e-02,2.64740e-01,1.55529e+00,2.49125e-01,2.18929e-01,1.72775e+00,3.79251e-01,2.21187e-01,1.41854e+00,4.58093e-01,3.69289e-01,
6.92995e-02,-1.74348e-01,2.95687e-01,4.88727e-01,-2.26604e-01,1.99011e-01,-2.84873e-01,1.85485e-01,-1.64841e-01,1.96592e-01,-4.59719e-01,-5.16919e-01,2.17607e-01,3.45213e-01,-1.11452e-01,3.40854e-01,1.52824e-02,-4.11936e-01,1.82377e-01,3.41330e-01,-6.41663e-01,-3.15051e-02,1.81049e-01,-1.49257e-01,-2.10629e-01,1.43681e-01,-4.67702e-01,2.58777e-01,-1.04719e-01,-5.41239e-01,
1.06715e-01,5.84477e-02,3.02773e-02,-3.63858e-02,6.25255e-02,-6.86553e-02,-2.39614e-01,-1.24375e-01,-2.75009e-01,6.33671e-01,-4.25708e-01,-6.64913e-02,1.39701e-01,2.38624e-01,-2.72275e-01,-1.32725e-01,1.01683e-01,-2.36603e-02,-1.04369e-01,-5.08077e-01,3.09181e-02,7.11054e-02,-3.80221e-01,6.32433e-03,1.56107e-01,-6.10092e-01,-2.82053e-02,3.52604e-01,2.00637e-01,-1.41061e-02,
1.95307e-01,3.86503e-01,-2.08140e-01,4.55537e-01,-2.48197e-01,-8.04252e-02,1.99218e-01,-1.06540e-01,1.62750e-01,-4.55546e-02,-3.91838e-01,-1.72050e-01,3.34282e-01,-4.33140e-01,-1.26180e-01,1.84639e-02,-4.99932e-01,-7.05044e-02,2.30937e-02,1.15934e-01,-4.26729e-02,-1.03497e-01,-9.13127e-02,-1.90782e-01,5.69258e-01,5.87206e-02,-1.27392e-01,1.79911e-01,1.77546e-01,2.23931e-01,
4.01385e-02,5.34924e-01,1.26996e-01,-1.45957e-01,-2.76222e-01,6.37203e-02,4.57308e-02,1.32476e-01,1.91693e-01,-1.63003e-01,-2.30732e-01,1.28401e-01,-3.47892e-01,1.06766e-02,1.63612e-01,2.03751e-01,2.73613e-02,-8.15256e-02,-9.94620e-01,-2.96306e-01,-4.54232e-02,-1.08653e-01,1.69393e-01,3.16756e-02,5.43965e-02,8.42136e-02,3.96116e-02,-4.83601e-01,-1.10980e-01,-1.96389e-01,
-1.10408e-01,1.16695e-01,1.00648e-03,4.10088e-01,3.03090e-01,5.27776e-01,3.71936e-01,-2.98431e-02,2.71799e-01,5.56752e-01,1.94764e-01,3.65946e-01,5.77117e-01,2.98893e-01,1.54072e-01,2.40562e-01,-1.23890e-01,-1.93735e-01,6.31440e-01,-2.32469e-01,-2.80347e-02,8.02801e-01,-2.30677e-02,4.07536e-01,9.07201e-01,3.93388e-01,1.81210e-02,8.87218e-01,6.59765e-01,2.01211e-01,
-7.25185e-02,-4.02437e-01,3.67318e-01,-6.32643e-02,-5.71853e-02,1.76510e-01,-1.12687e-01,2.17864e-01,-1.73442e-01,-2.09802e-01,3.07325e-01,-2.04874e-01,4.42322e-01,1.44191e-01,-4.24478e-02,2.25764e-02,-4.39922e-01,1.82810e-01,-2.06833e-01,-2.79806e-01,-1.70204e-01,2.22977e-01,1.98192e-01,-3.43168e-01,2.30490e-01,-4.92665e-01,-1.90487e-01,-4.47372e-01,8.38551e-02,-1.64738e-01,
-5.60528e-02,-1.91305e-01,2.69829e-02,2.76392e-01,-2.62441e-01,-1.65397e-01,3.68770e-01,4.11220e-02,4.84497e-01,4.32448e-01,-3.64795e-03,-7.93267e-02,1.89581e-01,5.19690e-01,1.96621e-01,-3.55162e-01,-1.27067e-01,3.16809e-01,-1.76703e-01,-1.96263e-01,-2.12678e-03,-6.56136e-01,1.80886e-01,-3.24474e-01,-4.27063e-01,1.90814e-01,3.74023e-01,-1.51299e-01,-1.57175e-01,3.53984e-02,
5.05680e-01,-2.51243e-02,1.48132e-01,5.24065e-01,4.90678e-01,5.48062e-02,6.97995e-01,3.37089e-01,1.75167e-01,6.33472e-01,-4.20458e-01,2.16866e-01,4.56884e-01,1.57709e-01,2.47423e-01,5.88534e-01,-2.06917e-01,1.21255e-01,5.45352e-01,-9.94148e-02,6.16619e-01,6.50898e-01,1.15236e-02,-1.57228e-01,2.46448e-01,-1.44338e-01,-1.59567e-01,4.67556e-01,-5.87733e-01,-3.42920e-02,
3.96844e-01,3.45704e-01,-1.00294e-01,8.36715e-02,2.63970e-01,-1.10841e-01,6.97757e-02,-2.37586e-01,1.88373e-01,3.48374e-01,1.15253e-02,-4.33341e-01,1.63380e-01,8.11698e-02,6.08804e-02,1.51310e-01,-9.54654e-02,-1.53826e-01,-1.43387e-01,3.91889e-02,-5.52011e-01,-2.84149e-01,1.92929e-01,-6.47325e-01,-5.52000e-01,-1.45561e-01,4.31429e-02,-5.61360e-01,-4.55057e-02,2.45485e-01,
-1.77882e-01,-2.07116e-01,4.88404e-01,2.22450e-01,1.79268e-01,1.20396e-01,1.87260e-01,-1.77737e-01,-2.92605e-01,5.38211e-02,-1.53118e-01,-3.29250e-02,-3.23865e-01,-3.98963e-01,1.48635e-01,2.27851e-01,-1.90674e-01,1.81666e-01,-2.08911e-02,7.91511e-02,2.13750e-01,-6.53660e-01,-3.26160e-01,-2.76424e-01,1.34704e-01,-1.12192e-01,1.74997e-01,-1.88751e-01,3.38168e-01,-2.88740e-01,
6.07800e-01,-1.22512e-01,-3.59657e-01,2.47580e-01,2.73309e-01,1.06953e-01,8.36774e-02,2.10553e-01,-7.81265e-02,1.68334e-01,1.07542e-01,-1.98029e-01,2.26958e-02,7.06269e-02,5.80107e-02,8.26326e-01,-8.86080e-02,1.45599e-01,7.73280e-01,-4.11363e-01,-1.33498e-01,5.13227e-01,4.61505e-01,5.24357e-01,1.06531e+00,9.97405e-02,4.41067e-01,9.81658e-01,1.38774e-01,7.59295e-02,
-6.57629e-01,1.83835e-02,-4.06000e-01,-7.54167e-01,2.77868e-01,1.00880e-01,-3.85249e-01,2.75759e-01,-2.61997e-01,-1.26739e-01,-3.22186e-01,9.97571e-02,-1.16857e+00,1.39624e-01,-2.03260e-01,-7.20055e-01,1.78763e-02,1.91970e-01,-8.20406e-01,3.43524e-01,-6.89544e-01,-8.02172e-01,1.18873e-01,-4.74843e-01,-5.67268e-01,-5.42324e-02,-2.72368e-01,-1.01389e+00,7.25278e-02,-2.01285e-01,
1.46979e-01,-4.31285e-01,4.04968e-02,-1.57541e-01,-5.55158e-01,1.74762e-01,-3.35667e-02,-2.55552e-01,6.14061e-01,2.34877e-01,-2.24472e-01,3.70297e-02,-2.57413e-01,-2.27056e-01,-1.85814e-01,-8.79112e-02,-3.05997e-01,2.66106e-01,2.40636e-01,-1.92134e-02,-4.34956e-02,2.28968e-01,-6.46419e-02,1.66188e-01,3.96119e-02,-6.00219e-02,1.49777e-01,-2.20097e-01,4.98412e-02,-3.64211e-01,
-1.62552e-02,-8.79413e-03,1.55246e-01,-6.51647e-02,2.41940e-01,4.03904e-01,1.39325e-01,2.12790e-01,6.56682e-01,-1.32569e-01,1.85922e-01,-2.58320e-01,1.38539e-02,-1.33844e-01,-1.90619e-01,-2.57986e-02,3.99363e-01,3.58305e-01,-4.43899e-02,3.94526e-02,2.10737e-01,-4.29552e-01,2.26377e-01,2.65648e-01,-1.34387e-01,-4.04393e-01,-3.60526e-01,-1.05668e-01,1.42253e-01,4.79138e-01,
-5.45829e-01,
-4.81605e-02,
0.00000e+00,
4.82179e-01,
-5.07625e-02,
-1.91355e-01,
-4.44541e-01,
-4.58933e-02,
0.00000e+00,
-1.12182e-01,
1.93443e-02,
5.63199e-01,
2.81093e-02,
-3.14659e-01,
-5.98532e-02,
3.61437e-01,
1.28669e-01,
-3.02868e-01,
1.12924e-02,
0.00000e+00,
3.26632e-04,
-1.96837e-01,
-2.90387e-01,
-2.29305e-02,
-2.21844e-02,
-6.25186e-01,
-2.28491e-01,
-7.69813e-02,
-2.94001e-01,
5.37864e-01,
-1.72379e-03,
-6.03608e-02,
-4.64805e-02,2.03791e-01,2.55087e-01,1.63995e-01,-2.54017e-01,3.80719e-01,-1.23000e-01,-3.07493e-01,4.14617e-02,-8.17056e-03,2.89624e-01,-1.52829e-02,2.06937e-05,2.52552e-01,-2.67329e-01,1.02905e-01,2.05318e-01,1.46061e-01,6.62408e-02,-2.70613e-01,2.71177e-01,2.27950e-01,-1.37231e-01,-2.27701e-01,-1.69323e-02,-5.52269e-01,2.18120e-01,6.04343e-02,4.11754e-01,5.10288e-01,-4.24972e-01,-1.99586e-01,
-4.44272e-01,4.36892e-01,-1.30678e-01,1.22343e-02,3.05448e-02,9.36292e-02,-1.98946e-02,7.41814e-02,-1.09690e-01,4.75349e-03,4.58147e-01,5.62273e-02,-1.07844e-02,-2.01896e-01,-9.85035e-02,3.97685e-01,1.78367e-01,3.28854e-01,3.49579e-01,3.91959e-01,2.01875e-01,2.35270e-01,4.48406e-01,-1.12022e-01,2.13439e-02,4.69165e-01,-1.31793e-01,-9.43877e-02,-1.67070e-01,2.63597e-01,6.23776e-02,-2.78571e-01,
-6.40589e-02,-1.33132e-01,3.20486e-01,-4.60724e-01,-8.41300e-02,-2.17203e-02,3.54341e-01,2.67554e-01,-1.84676e-01,9.00933e-02,-1.45210e-01,-2.53607e-02,-1.25912e-01,7.16409e-02,4.37618e-01,5.40218e-01,1.57250e-01,-2.29370e-01,-1.02263e-01,-2.69004e-01,1.89699e-01,3.28054e-01,-8.07692e-03,-2.27390e-01,1.79364e-01,-2.52717e-01,-2.97241e-01,-3.13027e-01,7.52881e-02,-1.01464e-01,4.11779e-01,-2.19971e-01,
1.55563e-01,6.89902e-02,8.88428e-02,2.27181e-02,-9.12142e-02,2.19156e-02,3.35187e-01,-6.12138e-01,-1.43403e-01,7.39718e-02,-4.99282e-01,-2.28624e-01,-1.80155e-01,1.75725e-01,-1.09771e-01,-1.14186e-01,-5.46423e-01,3.21949e-01,-1.70337e-01,3.87915e-01,4.63360e-01,5.85635e-01,4.20523e-01,-1.36243e-01,-2.12455e-01,1.75503e-01,3.53482e-01,-1.60729e-01,1.29717e-01,-3.03512e-01,2.27420e-01,3.20927e-01,
-2.95440e-01,-1.15571e-01,-2.66428e-01,1.13094e-01,2.84810e-01,-6.88234e-01,-3.22108e-01,1.57329e-01,3.95548e-01,2.10477e-01,4.62065e-01,2.05519e-01,6.79543e-02,-3.19368e-01,-3.86963e-01,-1.41372e-01,3.82571e-01,-3.48277e-01,-1.71744e-01,-3.51136e-01,1.83993e-01,4.14650e-01,4.54936e-02,1.02681e-01,-1.63311e-01,-8.55848e-02,2.86278e-01,-2.74486e-01,-1.36893e-01,7.24649e-01,-3.42295e-02,-9.25212e-02,
2.47280e-02,3.58100e-01,-7.54311e-02,-3.00880e-01,-1.00001e-02,-7.10994e-02,-1.74527e-01,7.75718e-02,-3.77001e-01,-9.18384e-02,6.91363e-02,3.60537e-01,-1.03169e-01,-1.30392e-01,-2.05038e-01,3.82950e-02,-4.01324e-01,-9.76585e-02,-5.20718e-02,-1.95793e-01,3.00148e-02,8.84809e-02,2.68073e-01,5.55555e-01,-3.31165e-01,-5.55755e-01,-3.49403e-01,1.47534e-01,-1.98804e-01,-1.93668e-01,-2.38107e-01,-2.86314e-01,
1.62771e-01,4.12659e-02,1.23750e-01,-1.30153e-02,-4.89131e-01,8.77890e-02,6.61626e-01,3.40358e-01,-5.02606e-03,-1.62119e-01,-4.31144e-02,-3.22998e-01,1.96057e-01,2.45973e-01,-4.42470e-01,-3.45543e-01,-1.48396e-01,1.10482e-01,-2.39928e-01,2.67534e-01,-4.22074e-01,7.85694e-02,6.05008e-02,-1.11363e-01,-1.13259e-01,-3.70709e-01,1.83082e-01,-4.33783e-02,-2.20034e-01,1.93445e-01,3.03872e-01,-2.38771e-01,
-3.21484e-01,-1.30438e-01,-3.16003e-01,4.20370e-01,-2.57731e-01,-2.00738e-01,-1.78770e-01,-3.98869e-01,2.05470e-01,-2.31455e-01,-5.85283e-02,3.23999e-01,1.49858e-01,-1.54932e-01,1.11542e-01,3.75055e-01,1.00418e+00,-2.42033e-01,1.16187e-01,1.23686e-01,8.53468e-02,-1.56597e-01,1.23076e-01,9.11487e-02,-3.11244e-01,-6.04794e-01,-6.98883e-02,6.04424e-02,-4.19511e-01,1.59052e-01,2.66417e-02,1.03562e-01,
1.68536e-01,2.03351e-02,-1.11164e-01,-1.98326e-01,3.36245e-01,2.19850e-01,4.53438e-01,-3.70982e-02,1.17564e-01,8.75835e-04,1.17593e-01,-1.87256e-01,-3.62977e-01,-3.07488e-03,1.29324e-01,-2.72751e-01,8.73315e-02,5.58383e-01,-7.19202e-02,-1.19325e-02,-2.97466e-02,-3.64459e-01,1.19376e-01,2.51461e-01,-4.51128e-01,-2.76071e-01,1.13092e-01,-1.38562e-01,5.37794e-01,3.58769e-02,3.83999e-01,3.73311e-01,
-1.39111e-01,9.72354e-02,-1.23395e-01,-4.25957e-01,9.99692e-02,-1.10452e-01,-9.05796e-02,6.70199e-02,-2.06290e-01,-2.47206e-02,-3.81066e-01,1.23546e-02,1.77297e-01,7.32188e-01,2.46530e-01,-3.96972e-01,1.45456e-01,2.69153e-02,9.42808e-02,-1.31963e-01,-3.15146e-01,1.30738e-02,4.96833e-01,-2.69106e-02,-4.12355e-02,1.43871e-01,1.66621e-01,-4.50793e-01,1.51419e-01,-4.84479e-02,-3.07344e-01,4.21164e-02,
4.57954e-01,2.68282e-01,8.40383e-02,1.16577e-01,4.84594e-01,-4.33262e-01,5.67575e-01,-3.22919e-01,-2.75908e-01,2.89928e-01,-3.11605e-01,-4.36444e-01,4.21799e-01,1.83563e-01,5.26657e-03,-1.89936e-02,-2.69594e-01,5.56164e-01,-3.84045e-01,-2.17394e-03,4.71610e-02,-1.90673e-01,1.62979e-01,-3.38442e-01,-1.05386e-01,6.14975e-02,-1.93712e-01,3.39052e-02,4.43353e-01,8.90379e-02,2.66297e-02,-2.94170e-01,
-1.87547e-01,9.46870e-02,-5.81243e-02,1.95553e-01,5.30880e-02,3.09509e-02,7.56934e-03,2.03665e-01,1.69043e-01,5.17002e-01,-2.54622e-01,-2.20594e-01,-3.77695e-01,3.77091e-01,2.58726e-01,3.86130e-01,-2.32848e-01,4.02579e-02,-4.30975e-01,3.82762e-01,-4.81126e-01,1.03711e-01,5.43899e-03,3.96963e-01,-2.10590e-01,3.74676e-02,1.52089e-01,1.85347e-01,7.31806e-02,1.48225e-01,-5.33662e-02,-1.90629e-01,
-1.39111e-01,1.11702e-01,3.70413e-02,-1.83140e-01,2.83406e-01,-1.60113e-01,7.76700e-03,6.29928e-02,-2.51772e-01,-1.94990e-01,6.94305e-01,3.83094e-01,1.26211e-01,-2.18278e-01,1.98782e-01,1.35106e-01,1.17355e-01,-1.32289e-01,1.40371e-01,7.53405e-01,9.56709e-02,-1.07508e-01,-1.88588e-01,-2.48207e-01,3.07207e-01,-4.42127e-01,4.56833e-01,-1.98674e-01,4.25566e-02,3.72913e-01,-3.19749e-01,3.95334e-01,
1.15804e-01,-3.89467e-02,4.21422e-01,6.93218e-02,-2.23102e-01,-2.53593e-01,2.65393e-01,-1.30474e-01,3.01384e-01,2.08177e-01,3.51678e-01,2.32502e-02,1.87165e-01,4.32929e-02,4.62704e-01,1.40135e-01,-2.36789e-01,4.74369e-01,-1.05270e-01,-1.44519e-01,6.23155e-02,-2.19988e-01,1.27170e-01,-2.98137e-02,-2.75224e-01,-1.64331e-02,4.60241e-01,-2.37712e-01,-1.01455e-01,-5.01663e-01,-3.35402e-01,-1.20783e-01,
1.35787e-01,-4.83294e-01,-1.60069e-01,-1.13826e-01,4.50757e-01,3.64802e-01,2.25265e-01,2.15960e-02,-2.99748e-01,3.56831e-01,-2.16197e-01,3.63107e-02,1.95811e-01,-2.23365e-01,4.49792e-02,8.75666e-02,-1.65267e-01,2.48102e-01,-2.80906e-03,-1.85854e-01,-4.39207e-02,1.15943e-01,2.73539e-01,-1.24880e-01,-4.54110e-02,-2.20792e-01,3.85415e-01,3.59241e-01,-3.71141e-01,1.12558e-01,6.97385e-02,8.63404e-02,
6.16756e-02,5.30976e-01,-3.02364e-01,-1.70675e-01,1.61454e-01,-2.87538e-01,6.46112e-02,4.55335e-02,2.46140e-01,9.22606e-02,-5.99269e-02,1.39289e-01,-6.22842e-01,1.02994e-02,-1.10115e-01,-5.93467e-02,4.29934e-01,8.00150e-02,1.31658e-01,-1.33437e-01,-2.85336e-01,2.31382e-01,-2.93169e-01,-2.60722e-01,3.10732e-01,-2.56459e-01,1.52384e-01,3.73644e-01,-1.78967e-01,-5.26644e-01,-1.47194e-01,-8.94273e-02,
3.48838e-01,
-7.25883e-02,
-2.00961e-02,
-2.04285e-01,
2.06545e-01,
-7.66764e-03,
1.37110e-02,
6.21442e-01,
-2.88899e-02,
-3.56601e-01,
-1.51390e-01,
-7.33547e-03,
5.97405e-02,
-2.78196e-01,
-4.18198e-01,
-8.20203e-02,
5.53904e-02,9.31016e-03,6.27965e-03,-1.86722e-01,4.32572e-01,-1.85153e-02,-8.64653e-02,1.49297e-01,-1.50071e-01,-1.44228e-02,-3.84519e-01,1.17340e-03,2.79132e-01,-3.15150e-02,-6.38861e-03,-1.94848e-01,
3.54691e-01,
7.51444e-01,
0.00000e+00,
