// Neural Network File Format by Kyle Julian, Stanford 2016
2,2480,6,6,
2480,6,6,
0,
0.0,0.0,0.0,0.0,0.0,0.0,0.0,0.0,0.0,0.0,0.0,0.0,0.0,0.0,0.0,0.0,0.0,0.0,0.0,0.0,0.0,0.0,0.0,0.0,0.0,0.0,0.0,0.0,0.0,0.0,0.0,0.0,0.0,0.0,0.0,0.0,0.0,0.0,0.0,0.0,0.0,0.0,0.0,0.0,0.0,0.0,0.0,0.0,0.0,0.0,0.0,0.0,0.0,0.0,0.0,0.0,0.0,0.0,0.0,0.0,0.0,0.0,0.0,0.0,0.0,0.0,0.0,0.0,0.0,0.0,0.0,0.0,0.0,0.0,0.0,0.0,0.0,0.0,0.0,0.0,0.0,0.0,0.0,0.0,0.0,0.0,0.0,0.0,0.0,0.0,0.0,0.0,0.0,0.0,0.0,0.0,0.0,0.0,0.0,0.0,0.0,0.0,0.0,0.0,0.0,0.0,0.0,0.0,0.0,0.0,0.0,0.0,0.0,0.0,0.0,0.0,0.0,0.0,0.0,0.0,0.0,0.0,0.0,0.0,0.0,0.0,0.0,0.0,0.0,0.0,0.0,0.0,0.0,0.0,0.0,0.0,0.0,0.0,0.0,0.0,0.0,0.0,0.0,0.0,0.0,0.0,0.0,0.0,0.0,0.0,0.0,0.0,0.0,0.0,0.0,0.0,0.0,0.0,0.0,0.0,0.0,0.0,0.0,0.0,0.0,0.0,0.0,0.0,0.0,0.0,0.0,0.0,0.0,0.0,0.0,0.0,0.0,0.0,0.0,0.0,0.0,0.0,0.0,0.0,0.0,0.0,0.0,0.0,0.0,0.0,0.0,0.0,0.0,0.0,0.0,0.0,0.0,0.0,0.0,0.0,0.0,0.0,0.0,0.0,0.0,0.0,0.0,0.0,0.0,0.0,0.0,0.0,0.0,0.0,0.0,0.0,0.0,0.0,0.0,0.0,0.0,0.0,0.0,0.0,0.0,0.0,0.0,0.0,0.0,0.0,0.0,0.0,0.0,0.0,0.0,0.0,0.0,0.0,0.0,0.0,0.0,0.0,0.0,0.0,0.0,0.0,0.0,0.0,0.0,0.0,0.0,0.0,0.0,0.0,0.0,0.0,0.0,0.0,0.0,0.0,0.0,0.0,0.0,0.0,0.0,0.0,0.0,0.0,0.0,0.0,0.0,0.0,0.0,0.0,0.0,0.0,0.0,0.0,0.0,0.0,0.0,0.0,0.0,0.0,0.0,0.0,0.0,0.0,0.0,0.0,0.0,0.0,0.0,0.0,0.0,0.0,0.0,0.0,0.0,0.0,0.0,0.0,0.0,0.0,0.0,0.0,0.0,0.0,0.0,0.0,0.0,0.0,0.0,0.0,0.0,0.0,0.0,0.0,0.0,0.0,0.0,0.0,0.0,0.0,0.0,0.0,0.0,0.0,0.0,0.0,0.0,0.0,0.0,0.0,0.0,0.0,0.0,0.0,0.0,0.0,0.0,0.0,0.0,0.0,0.0,0.0,0.0,0.0,0.0,0.0,0.0,0.0,0.0,0.0,0.0,0.0,0.0,0.0,0.0,0.0,0.0,0.0,0.0,0.0,0.0,0.0,0.0,0.0,0.0,0.0,0.0,0.0,0.0,0.0,0.0,0.0,0.0,0.0,0.0,0.0,0.0,0.0,0.0,0.0,0.0,0.0,0.0,0.0,0.0,0.0,0.0,0.0,0.0,0.0,0.0,0.0,0.0,0.0,0.0,0.0,0.0,0.0,0.0,0.0,0.0,0.0,0.0,0.0,0.0,0.0,0.0,0.0,0.0,0.0,0.0,0.0,0.0,0.0,0.0,0.0,0.0,0.0,0.0,0.0,0.0,0.0,0.0,0.0,0.0,0.0,0.0,0.0,0.0,0.0,0.0,0.0,0.0,0.0,0.0,0.0,0.0,0.0,0.0,0.0,0.0,0.0,0.0,0.0,0.0,0.0,0.0,0.0,0.0,0.0,0.0,0.0,0.0,0.0,0.0,0.0,0.0,0.0,0.0,0.0,0.0,0.0,0.0,0.0,0.0,0.0,0.0,0.0,0.0,0.0,0.0,0.0,0.0,0.0,0.0,0.0,0.0,0.0,0.0,0.0,0.0,0.0,0.0,0.0,0.0,0.0,0.0,0.0,0.0,0.0,0.0,0.0,0.0,0.0,0.0,0.0,0.0,0.0,0.0,0.0,0.0,0.0,0.0,0.0,0.0,0.0,0.0,0.0,0.0,0.0,0.0,0.0,0.0,0.0,0.0,0.0,0.0,0.0,0.0,0.0,0.0,0.0,0.0,0.0,0.0,0.0,0.0,0.0,0.0,0.0,0.0,0.0,0.0,0.0,0.0,0.0,0.0,0.0,0.0,0.0,0.0,0.0,0.0,0.0,0.0,0.0,0.0,0.0,0.0,0.0,0.0,0.0,0.0,0.0,0.0,0.0,0.0,0.0,0.0,0.0,0.0,0.0,0.0,0.0,0.0,0.0,0.0,0.0,0.0,0.0,0.0,0.0,0.0,0.0,0.0,0.0,0.0,0.0,0.0,0.0,0.0,0.0,0.0,0.0,0.0,0.0,0.0,0.0,0.0,0.0,0.0,0.0,0.0,0.0,0.0,0.0,0.0,0.0,0.0,0.0,0.0,0.0,0.0,0.0,0.0,0.0,0.0,0.0,0.0,0.0,0.0,0.0,0.0,0.0,0.0,0.0,0.0,0.0,0.0,0.0,0.0,0.0,0.0,0.0,0.0,0.0,0.0,0.0,0.0,0.0,0.0,0.0,0.0,0.0,0.0,0.0,0.0,0.0,0.0,0.0,0.0,0.0,0.0,0.0,0.0,0.0,0.0,0.0,0.0,0.0,0.0,0.0,0.0,0.0,0.0,0.0,0.0,0.0,0.0,0.0,0.0,0.0,0.0,0.0,0.0,0.0,0.0,0.0,0.0,0.0,0.0,0.0,0.0,0.0,0.0,0.0,0.0,0.0,0.0,0.0,0.0,0.0,0.0,0.0,0.0,0.0,0.0,0.0,0.0,0.0,0.0,0.0,0.0,0.0,0.0,0.0,0.0,0.0,0.0,0.0,0.0,0.0,0.0,0.0,0.0,0.0,0.0,0.0,0.0,0.0,0.0,0.0,0.0,0.0,0.0,0.0,0.0,0.0,0.0,0.0,0.0,0.0,0.0,0.0,0.0,0.0,0.0,0.0,0.0,0.0,0.0,0.0,0.0,0.0,0.0,0.0,0.0,0.0,0.0,0.0,0.0,0.0,0.0,0.0,0.0,0.0,0.0,0.0,0.0,0.0,0.0,0.0,0.0,0.0,0.0,0.0,0.0,0.0,0.0,0.0,0.0,0.0,0.0,0.0,0.0,0.0,0.0,0.0,0.0,0.0,0.0,0.0,0.0,0.0,0.0,0.0,0.0,0.0,0.0,0.0,0.0,0.0,0.0,0.0,0.0,0.0,0.0,0.0,0.0,0.0,0.0,0.0,0.0,0.0,0.0,0.0,0.0,0.0,0.0,0.0,0.0,0.0,0.0,0.0,0.0,0.0,0.0,0.0,0.0,0.0,0.0,0.0,0.0,0.0,0.0,0.0,0.0,0.0,0.0,0.0,0.0,0.0,0.0,0.0,0.0,0.0,0.0,0.0,0.0,0.0,0.0,0.0,0.0,0.0,0.0,0.0,0.0,0.0,0.0,0.0,0.0,0.0,0.0,0.0,0.0,0.0,0.0,0.0,0.0,0.0,0.0,0.0,0.0,0.0,0.0,0.0,0.0,0.0,0.0,0.0,0.0,0.0,0.0,0.0,0.0,0.0,0.0,0.0,0.0,0.0,0.0,0.0,0.0,0.0,0.0,0.0,0.0,0.0,0.0,0.0,0.0,0.0,0.0,0.0,0.0,0.0,0.0,0.0,0.0,0.0,0.0,0.0,0.0,0.0,0.0,0.0,0.0,0.0,0.0,0.0,0.0,0.0,0.0,0.0,0.0,0.0,0.0,0.0,0.0,0.0,0.0,0.0,0.0,0.0,0.0,0.0,0.0,0.0,0.0,0.0,0.0,0.0,0.0,0.0,0.0,0.0,0.0,0.0,0.0,0.0,0.0,0.0,0.0,0.0,0.0,0.0,0.0,0.0,0.0,0.0,0.0,0.0,0.0,0.0,0.0,0.0,0.0,0.0,0.0,0.0,0.0,0.0,0.0,0.0,0.0,0.0,0.0,0.0,0.0,0.0,0.0,0.0,0.0,0.0,0.0,0.0,0.0,0.0,0.0,0.0,0.0,0.0,0.0,0.0,0.0,0.0,0.0,0.0,0.0,0.0,0.0,0.0,0.0,0.0,0.0,0.0,0.0,0.0,0.0,0.0,0.0,0.0,0.0,0.0,0.0,0.0,0.0,0.0,0.0,0.0,0.0,0.0,0.0,0.0,0.0,0.0,0.0,0.0,0.0,0.0,0.0,0.0,0.0,0.0,0.0,0.0,0.0,0.0,0.0,0.0,0.0,0.0,0.0,0.0,0.0,0.0,0.0,0.0,0.0,0.0,0.0,0.0,0.0,0.0,0.0,0.0,0.0,0.0,0.0,0.0,0.0,0.0,0.0,0.0,0.0,0.0,0.0,0.0,0.0,0.0,0.0,0.0,0.0,0.0,0.0,0.0,0.0,0.0,0.0,0.0,0.0,0.0,0.0,0.0,0.0,0.0,0.0,0.0,0.0,0.0,0.0,0.0,0.0,0.0,0.0,0.0,0.0,0.0,0.0,0.0,0.0,0.0,0.0,0.0,0.0,0.0,0.0,0.0,0.0,0.0,0.0,0.0,0.0,0.0,0.0,0.0,0.0,0.0,0.0,0.0,0.0,0.0,0.0,0.0,0.0,0.0,0.0,0.0,0.0,0.0,0.0,0.0,0.0,0.0,0.0,0.0,0.0,0.0,0.0,0.0,0.0,0.0,0.0,0.0,0.0,0.0,0.0,0.0,0.0,0.0,0.0,0.0,0.0,0.0,0.0,0.0,0.0,0.0,0.0,0.0,0.0,0.0,0.0,0.0,0.0,0.0,0.0,0.0,0.0,0.0,0.0,0.0,0.0,0.0,0.0,0.0,0.0,0.0,0.0,0.0,0.0,0.0,0.0,0.0,0.0,0.0,0.0,0.0,0.0,0.0,0.0,0.0,0.0,0.0,0.0,0.0,0.0,0.0,0.0,0.0,0.0,0.0,0.0,0.0,0.0,0.0,0.0,0.0,0.0,0.0,0.0,0.0,0.0,0.0,0.0,0.0,0.0,0.0,0.0,0.0,0.0,0.0,0.0,0.0,0.0,0.0,0.0,0.0,0.0,0.0,0.0,0.0,0.0,0.0,0.0,0.0,0.0,0.0,0.0,0.0,0.0,0.0,0.0,0.0,0.0,0.0,0.0,0.0,0.0,0.0,0.0,0.0,0.0,0.0,0.0,0.0,0.0,0.0,0.0,0.0,0.0,0.0,0.0,0.0,0.0,0.0,0.0,0.0,0.0,0.0,0.0,0.0,0.0,0.0,0.0,0.0,0.0,0.0,0.0,0.0,0.0,0.0,0.0,0.0,0.0,0.0,0.0,0.0,0.0,0.0,0.0,0.0,0.0,0.0,0.0,0.0,0.0,0.0,0.0,0.0,0.0,0.0,0.0,0.0,0.0,0.0,0.0,0.0,0.0,0.0,0.0,0.0,0.0,0.0,0.0,0.0,0.0,0.0,0.0,0.0,0.0,0.0,0.0,0.0,0.0,0.0,0.0,0.0,0.0,0.0,0.0,0.0,0.0,0.0,0.0,0.0,0.0,0.0,0.0,0.0,0.0,0.0,0.0,0.0,0.0,0.0,0.0,0.0,0.0,0.0,0.0,0.0,0.0,0.0,0.0,0.0,0.0,0.0,0.0,0.0,0.0,0.0,0.0,0.0,0.0,0.0,0.0,0.0,0.0,0.0,0.0,0.0,0.0,0.0,0.0,0.0,0.0,0.0,0.0,0.0,0.0,0.0,0.0,0.0,0.0,0.0,0.0,0.0,0.0,0.0,0.0,0.0,0.0,0.0,0.0,0.0,0.0,0.0,0.0,0.0,0.0,0.0,0.0,0.0,0.0,0.0,0.0,0.0,0.0,0.0,0.0,0.0,0.0,0.0,0.0,0.0,0.0,0.0,0.0,0.0,0.0,0.0,0.0,0.0,0.0,0.0,0.0,0.0,0.0,0.0,0.0,0.0,0.0,0.0,0.0,0.0,0.0,0.0,0.0,0.0,0.0,0.0,0.0,0.0,0.0,0.0,0.0,0.0,0.0,0.0,0.0,0.0,0.0,0.0,0.0,0.0,0.0,0.0,0.0,0.0,0.0,0.0,0.0,0.0,0.0,0.0,0.0,0.0,0.0,0.0,0.0,0.0,0.0,0.0,0.0,0.0,0.0,0.0,0.0,0.0,0.0,0.0,0.0,0.0,0.0,0.0,0.0,0.0,0.0,0.0,0.0,0.0,0.0,0.0,0.0,0.0,0.0,0.0,0.0,0.0,0.0,0.0,0.0,0.0,0.0,0.0,0.0,0.0,0.0,0.0,0.0,0.0,0.0,0.0,0.0,0.0,0.0,0.0,0.0,0.0,0.0,0.0,0.0,0.0,0.0,0.0,0.0,0.0,0.0,0.0,0.0,0.0,0.0,0.0,0.0,0.0,0.0,0.0,0.0,0.0,0.0,0.0,0.0,0.0,0.0,0.0,0.0,0.0,0.0,0.0,0.0,0.0,0.0,0.0,0.0,0.0,0.0,0.0,0.0,0.0,0.0,0.0,0.0,0.0,0.0,0.0,0.0,0.0,0.0,0.0,0.0,0.0,0.0,0.0,0.0,0.0,0.0,0.0,0.0,0.0,0.0,0.0,0.0,0.0,0.0,0.0,0.0,0.0,0.0,0.0,0.0,0.0,0.0,0.0,0.0,0.0,0.0,0.0,0.0,0.0,0.0,0.0,0.0,0.0,0.0,0.0,0.0,0.0,0.0,0.0,0.0,0.0,0.0,0.0,0.0,0.0,0.0,0.0,0.0,0.0,0.0,0.0,0.0,0.0,0.0,0.0,0.0,0.0,0.0,0.0,0.0,0.0,0.0,0.0,0.0,0.0,0.0,0.0,0.0,0.0,0.0,0.0,0.0,0.0,0.0,0.0,0.0,0.0,0.0,0.0,0.0,0.0,0.0,0.0,0.0,0.0,0.0,0.0,0.0,0.0,0.0,0.0,0.0,0.0,0.0,0.0,0.0,0.0,0.0,0.0,0.0,0.0,0.0,0.0,0.0,0.0,0.0,0.0,0.0,0.0,0.0,0.0,0.0,0.0,0.0,0.0,0.0,0.0,0.0,0.0,0.0,0.0,0.0,0.0,0.0,0.0,0.0,0.0,0.0,0.0,0.0,0.0,0.0,0.0,0.0,0.0,0.0,0.0,0.0,0.0,0.0,0.0,0.0,0.0,0.0,0.0,0.0,0.0,0.0,0.0,0.0,0.0,0.0,0.0,0.0,0.0,0.0,0.0,0.0,0.0,0.0,0.0,0.0,0.0,0.0,0.0,0.0,0.0,0.0,0.0,0.0,0.0,0.0,0.0,0.0,0.0,0.0,0.0,0.0,0.0,0.0,0.0,0.0,0.0,0.0,0.0,0.0,0.0,0.0,0.0,0.0,0.0,0.0,0.0,0.0,0.0,0.0,0.0,0.0,0.0,0.0,0.0,0.0,0.0,0.0,0.0,0.0,0.0,0.0,0.0,0.0,0.0,0.0,0.0,0.0,0.0,0.0,0.0,0.0,0.0,0.0,0.0,0.0,0.0,0.0,0.0,0.0,0.0,0.0,0.0,0.0,0.0,0.0,0.0,0.0,0.0,0.0,0.0,0.0,0.0,0.0,0.0,0.0,0.0,0.0,0.0,0.0,0.0,0.0,0.0,0.0,0.0,0.0,0.0,0.0,0.0,0.0,0.0,0.0,0.0,0.0,0.0,0.0,0.0,0.0,0.0,0.0,0.0,0.0,0.0,0.0,0.0,0.0,0.0,0.0,0.0,0.0,0.0,0.0,0.0,0.0,0.0,0.0,0.0,0.0,0.0,0.0,0.0,0.0,0.0,0.0,0.0,0.0,0.0,0.0,0.0,0.0,0.0,0.0,0.0,0.0,0.0,0.0,0.0,0.0,0.0,0.0,0.0,0.0,0.0,0.0,0.0,0.0,0.0,0.0,0.0,0.0,0.0,0.0,0.0,0.0,0.0,0.0,0.0,0.0,0.0,0.0,0.0,0.0,0.0,0.0,0.0,0.0,0.0,0.0,0.0,0.0,0.0,0.0,0.0,0.0,0.0,0.0,0.0,0.0,0.0,0.0,0.0,0.0,0.0,0.0,0.0,0.0,0.0,0.0,0.0,0.0,0.0,0.0,0.0,0.0,0.0,0.0,0.0,0.0,0.0,0.0,0.0,0.0,0.0,0.0,0.0,0.0,0.0,0.0,0.0,0.0,0.0,0.0,0.0,0.0,0.0,0.0,0.0,0.0,0.0,0.0,0.0,0.0,0.0,0.0,0.0,0.0,0.0,0.0,0.0,0.0,0.0,0.0,0.0,0.0,0.0,0.0,0.0,0.0,0.0,0.0,0.0,0.0,0.0,0.0,0.0,0.0,0.0,0.0,0.0,0.0,0.0,0.0,0.0,0.0,0.0,0.0,0.0,0.0,0.0,0.0,0.0,0.0,0.0,0.0,0.0,0.0,0.0,0.0,0.0,0.0,0.0,0.0,0.0,0.0,0.0,0.0,0.0,0.0,0.0,0.0,0.0,0.0,0.0,0.0,0.0,0.0,0.0,0.0,0.0,0.0,0.0,0.0,0.0,0.0,0.0,0.0,0.0,0.0,0.0,0.0,0.0,0.0,0.0,0.0,0.0,0.0,0.0,0.0,0.0,0.0,0.0,0.0,0.0,0.0,0.0,0.0,0.0,0.0,0.0,0.0,0.0,0.0,0.0,0.0,0.0,0.0,0.0,0.0,0.0,0.0,0.0,0.0,0.0,0.0,0.0,0.0,0.0,0.0,0.0,0.0,0.0,0.0,0.0,0.0,0.0,0.0,0.0,0.0,0.0,0.0,0.0,0.0,0.0,0.0,0.0,0.0,0.0,0.0,0.0,0.0,0.0,0.0,0.0,0.0,0.0,0.0,0.0,0.0,0.0,0.0,0.0,0.0,0.0,0.0,0.0,0.0,0.0,0.0,0.0,0.0,0.0,0.0,0.0,0.0,0.0,0.0,0.0,0.0,0.0,0.0,0.0,0.0,0.0,0.0,0.0,0.0,0.0,0.0,0.0,0.0,0.0,0.0,0.0,0.0,0.0,0.0,0.0,0.0,0.0,0.0,0.0,0.0,0.0,0.0,0.0,0.0,0.0,0.0,0.0,0.0,0.0,0.0,0.0,0.0,0.0,0.0,0.0,0.0,0.0,0.0,0.0,0.0,0.0,0.0,0.0,0.0,0.0,0.0,0.0,0.0,0.0,0.0,0.0,0.0,0.0,0.0,0.0,0.0,0.0,0.0,0.0,0.0,0.0,0.0,0.0,0.0,0.0,0.0,0.0,0.0,0.0,0.0,0.0,0.0,0.0,0.0,0.0,0.0,0.0,0.0,0.0,0.0,0.0,0.0,0.0,0.0,0.0,0.0,0.0,0.0,0.0,0.0,0.0,0.0,0.0,0.0,0.0,0.0,0.0,0.0,0.0,0.0,0.0,0.0,0.0,0.0,0.0,0.0,0.0,0.0,0.0,0.0,0.0,0.0,0.0,0.0,0.0,0.0,0.0,0.0,0.0,0.0,0.0,0.0,0.0,0.0,0.0,0.0,0.0,0.0,0.0,0.0,0.0,0.0,0.0,0.0,0.0,0.0,0.0,0.0,0.0,0.0,0.0,0.0,0.0,0.0,0.0,0.0,0.0,0.0,0.0,0.0,0.0,0.0,0.0,0.0,0.0,0.0,0.0,0.0,0.0,0.0,0.0,0.0,0.0,0.0,0.0,0.0,0.0,0.0,0.0,0.0,0.0,0.0,0.0,0.0,0.0,0.0,0.0,0.0,0.0,0.0,0.0,0.0,0.0,0.0,0.0,0.0,0.0,0.0,0.0,0.0,0.0,0.0,0.0,0.0,0.0,0.0,0.0,0.0,0.0,0.0,0.0,0.0,0.0,0.0,0.0,0.0,0.0,0.0,0.0,0.0,0.0,0.0,0.0,0.0,0.0,0.0,0.0,0.0,0.0,0.0,0.0,0.0,0.0,0.0,0.0,0.0,0.0,0.0,0.0,0.0,0.0,0.0,0.0,0.0,0.0,0.0,0.0,0.0,0.0,0.0,0.0,0.0,0.0,0.0,0.0,0.0,0.0,0.0,0.0,0.0,0.0,0.0,0.0,0.0,0.0,0.0,0.0,0.0,0.0,0.0,0.0,0.0,0.0,0.0,0.0,0.0,0.0,0.0,0.0,0.0,0.0,0.0,0.0,0.0,0.0,0.0,0.0,0.0,0.0,0.0,0.0,0.0,0.0,0.0,0.0,0.0,0.0,0.0,0.0,0.0,0.0,0.0,0.0,0.0,0.0,0.0,0.0,0.0,0.0,0.0,0.0,0.0,0.0,0.0,0.0,0.0,0.0,0.0,0.0,0.0,0.0,0.0,0.0,0.0,0.0,0.0,0.0,0.0,0.0,0.0,0.0,0.0,0.0,0.0,0.0,0.0,0.0,0.0,0.0,0.0,0.0,0.0,0.0,0.0,0.0,0.0,0.0,0.0,0.0,0.0,0.0,0.0,0.0,0.0,0.0,0.0,0.0,0.0,0.0,0.0,0.0,0.0,0.0,0.0,0.0,0.0,0.0,0.0,0.0,0.0,0.0,0.0,0.0,0.0,0.0,0.0,0.0,
1.0,1.0,1.0,1.0,1.0,1.0,1.0,1.0,1.0,1.0,1.0,1.0,1.0,1.0,1.0,1.0,1.0,1.0,1.0,1.0,1.0,1.0,1.0,1.0,1.0,1.0,1.0,1.0,1.0,1.0,1.0,1.0,1.0,1.0,1.0,1.0,1.0,1.0,1.0,1.0,1.0,1.0,1.0,1.0,1.0,1.0,1.0,1.0,1.0,1.0,1.0,1.0,1.0,1.0,1.0,1.0,1.0,1.0,1.0,1.0,1.0,1.0,1.0,1.0,1.0,1.0,1.0,1.0,1.0,1.0,1.0,1.0,1.0,1.0,1.0,1.0,1.0,1.0,1.0,1.0,1.0,1.0,1.0,1.0,1.0,1.0,1.0,1.0,1.0,1.0,1.0,1.0,1.0,1.0,1.0,1.0,1.0,1.0,1.0,1.0,1.0,1.0,1.0,1.0,1.0,1.0,1.0,1.0,1.0,1.0,1.0,1.0,1.0,1.0,1.0,1.0,1.0,1.0,1.0,1.0,1.0,1.0,1.0,1.0,1.0,1.0,1.0,1.0,1.0,1.0,1.0,1.0,1.0,1.0,1.0,1.0,1.0,1.0,1.0,1.0,1.0,1.0,1.0,1.0,1.0,1.0,1.0,1.0,1.0,1.0,1.0,1.0,1.0,1.0,1.0,1.0,1.0,1.0,1.0,1.0,1.0,1.0,1.0,1.0,1.0,1.0,1.0,1.0,1.0,1.0,1.0,1.0,1.0,1.0,1.0,1.0,1.0,1.0,1.0,1.0,1.0,1.0,1.0,1.0,1.0,1.0,1.0,1.0,1.0,1.0,1.0,1.0,1.0,1.0,1.0,1.0,1.0,1.0,1.0,1.0,1.0,1.0,1.0,1.0,1.0,1.0,1.0,1.0,1.0,1.0,1.0,1.0,1.0,1.0,1.0,1.0,1.0,1.0,1.0,1.0,1.0,1.0,1.0,1.0,1.0,1.0,1.0,1.0,1.0,1.0,1.0,1.0,1.0,1.0,1.0,1.0,1.0,1.0,1.0,1.0,1.0,1.0,1.0,1.0,1.0,1.0,1.0,1.0,1.0,1.0,1.0,1.0,1.0,1.0,1.0,1.0,1.0,1.0,1.0,1.0,1.0,1.0,1.0,1.0,1.0,1.0,1.0,1.0,1.0,1.0,1.0,1.0,1.0,1.0,1.0,1.0,1.0,1.0,1.0,1.0,1.0,1.0,1.0,1.0,1.0,1.0,1.0,1.0,1.0,1.0,1.0,1.0,1.0,1.0,1.0,1.0,1.0,1.0,1.0,1.0,1.0,1.0,1.0,1.0,1.0,1.0,1.0,1.0,1.0,1.0,1.0,1.0,1.0,1.0,1.0,1.0,1.0,1.0,1.0,1.0,1.0,1.0,1.0,1.0,1.0,1.0,1.0,1.0,1.0,1.0,1.0,1.0,1.0,1.0,1.0,1.0,1.0,1.0,1.0,1.0,1.0,1.0,1.0,1.0,1.0,1.0,1.0,1.0,1.0,1.0,1.0,1.0,1.0,1.0,1.0,1.0,1.0,1.0,1.0,1.0,1.0,1.0,1.0,1.0,1.0,1.0,1.0,1.0,1.0,1.0,1.0,1.0,1.0,1.0,1.0,1.0,1.0,1.0,1.0,1.0,1.0,1.0,1.0,1.0,1.0,1.0,1.0,1.0,1.0,1.0,1.0,1.0,1.0,1.0,1.0,1.0,1.0,1.0,1.0,1.0,1.0,1.0,1.0,1.0,1.0,1.0,1.0,1.0,1.0,1.0,1.0,1.0,1.0,1.0,1.0,1.0,1.0,1.0,1.0,1.0,1.0,1.0,1.0,1.0,1.0,1.0,1.0,1.0,1.0,1.0,1.0,1.0,1.0,1.0,1.0,1.0,1.0,1.0,1.0,1.0,1.0,1.0,1.0,1.0,1.0,1.0,1.0,1.0,1.0,1.0,1.0,1.0,1.0,1.0,1.0,1.0,1.0,1.0,1.0,1.0,1.0,1.0,1.0,1.0,1.0,1.0,1.0,1.0,1.0,1.0,1.0,1.0,1.0,1.0,1.0,1.0,1.0,1.0,1.0,1.0,1.0,1.0,1.0,1.0,1.0,1.0,1.0,1.0,1.0,1.0,1.0,1.0,1.0,1.0,1.0,1.0,1.0,1.0,1.0,1.0,1.0,1.0,1.0,1.0,1.0,1.0,1.0,1.0,1.0,1.0,1.0,1.0,1.0,1.0,1.0,1.0,1.0,1.0,1.0,1.0,1.0,1.0,1.0,1.0,1.0,1.0,1.0,1.0,1.0,1.0,1.0,1.0,1.0,1.0,1.0,1.0,1.0,1.0,1.0,1.0,1.0,1.0,1.0,1.0,1.0,1.0,1.0,1.0,1.0,1.0,1.0,1.0,1.0,1.0,1.0,1.0,1.0,1.0,1.0,1.0,1.0,1.0,1.0,1.0,1.0,1.0,1.0,1.0,1.0,1.0,1.0,1.0,1.0,1.0,1.0,1.0,1.0,1.0,1.0,1.0,1.0,1.0,1.0,1.0,1.0,1.0,1.0,1.0,1.0,1.0,1.0,1.0,1.0,1.0,1.0,1.0,1.0,1.0,1.0,1.0,1.0,1.0,1.0,1.0,1.0,1.0,1.0,1.0,1.0,1.0,1.0,1.0,1.0,1.0,1.0,1.0,1.0,1.0,1.0,1.0,1.0,1.0,1.0,1.0,1.0,1.0,1.0,1.0,1.0,1.0,1.0,1.0,1.0,1.0,1.0,1.0,1.0,1.0,1.0,1.0,1.0,1.0,1.0,1.0,1.0,1.0,1.0,1.0,1.0,1.0,1.0,1.0,1.0,1.0,1.0,1.0,1.0,1.0,1.0,1.0,1.0,1.0,1.0,1.0,1.0,1.0,1.0,1.0,1.0,1.0,1.0,1.0,1.0,1.0,1.0,1.0,1.0,1.0,1.0,1.0,1.0,1.0,1.0,1.0,1.0,1.0,1.0,1.0,1.0,1.0,1.0,1.0,1.0,1.0,1.0,1.0,1.0,1.0,1.0,1.0,1.0,1.0,1.0,1.0,1.0,1.0,1.0,1.0,1.0,1.0,1.0,1.0,1.0,1.0,1.0,1.0,1.0,1.0,1.0,1.0,1.0,1.0,1.0,1.0,1.0,1.0,1.0,1.0,1.0,1.0,1.0,1.0,1.0,1.0,1.0,1.0,1.0,1.0,1.0,1.0,1.0,1.0,1.0,1.0,1.0,1.0,1.0,1.0,1.0,1.0,1.0,1.0,1.0,1.0,1.0,1.0,1.0,1.0,1.0,1.0,1.0,1.0,1.0,1.0,1.0,1.0,1.0,1.0,1.0,1.0,1.0,1.0,1.0,1.0,1.0,1.0,1.0,1.0,1.0,1.0,1.0,1.0,1.0,1.0,1.0,1.0,1.0,1.0,1.0,1.0,1.0,1.0,1.0,1.0,1.0,1.0,1.0,1.0,1.0,1.0,1.0,1.0,1.0,1.0,1.0,1.0,1.0,1.0,1.0,1.0,1.0,1.0,1.0,1.0,1.0,1.0,1.0,1.0,1.0,1.0,1.0,1.0,1.0,1.0,1.0,1.0,1.0,1.0,1.0,1.0,1.0,1.0,1.0,1.0,1.0,1.0,1.0,1.0,1.0,1.0,1.0,1.0,1.0,1.0,1.0,1.0,1.0,1.0,1.0,1.0,1.0,1.0,1.0,1.0,1.0,1.0,1.0,1.0,1.0,1.0,1.0,1.0,1.0,1.0,1.0,1.0,1.0,1.0,1.0,1.0,1.0,1.0,1.0,1.0,1.0,1.0,1.0,1.0,1.0,1.0,1.0,1.0,1.0,1.0,1.0,1.0,1.0,1.0,1.0,1.0,1.0,1.0,1.0,1.0,1.0,1.0,1.0,1.0,1.0,1.0,1.0,1.0,1.0,1.0,1.0,1.0,1.0,1.0,1.0,1.0,1.0,1.0,1.0,1.0,1.0,1.0,1.0,1.0,1.0,1.0,1.0,1.0,1.0,1.0,1.0,1.0,1.0,1.0,1.0,1.0,1.0,1.0,1.0,1.0,1.0,1.0,1.0,1.0,1.0,1.0,1.0,1.0,1.0,1.0,1.0,1.0,1.0,1.0,1.0,1.0,1.0,1.0,1.0,1.0,1.0,1.0,1.0,1.0,1.0,1.0,1.0,1.0,1.0,1.0,1.0,1.0,1.0,1.0,1.0,1.0,1.0,1.0,1.0,1.0,1.0,1.0,1.0,1.0,1.0,1.0,1.0,1.0,1.0,1.0,1.0,1.0,1.0,1.0,1.0,1.0,1.0,1.0,1.0,1.0,1.0,1.0,1.0,1.0,1.0,1.0,1.0,1.0,1.0,1.0,1.0,1.0,1.0,1.0,1.0,1.0,1.0,1.0,1.0,1.0,1.0,1.0,1.0,1.0,1.0,1.0,1.0,1.0,1.0,1.0,1.0,1.0,1.0,1.0,1.0,1.0,1.0,1.0,1.0,1.0,1.0,1.0,1.0,1.0,1.0,1.0,1.0,1.0,1.0,1.0,1.0,1.0,1.0,1.0,1.0,1.0,1.0,1.0,1.0,1.0,1.0,1.0,1.0,1.0,1.0,1.0,1.0,1.0,1.0,1.0,1.0,1.0,1.0,1.0,1.0,1.0,1.0,1.0,1.0,1.0,1.0,1.0,1.0,1.0,1.0,1.0,1.0,1.0,1.0,1.0,1.0,1.0,1.0,1.0,1.0,1.0,1.0,1.0,1.0,1.0,1.0,1.0,1.0,1.0,1.0,1.0,1.0,1.0,1.0,1.0,1.0,1.0,1.0,1.0,1.0,1.0,1.0,1.0,1.0,1.0,1.0,1.0,1.0,1.0,1.0,1.0,1.0,1.0,1.0,1.0,1.0,1.0,1.0,1.0,1.0,1.0,1.0,1.0,1.0,1.0,1.0,1.0,1.0,1.0,1.0,1.0,1.0,1.0,1.0,1.0,1.0,1.0,1.0,1.0,1.0,1.0,1.0,1.0,1.0,1.0,1.0,1.0,1.0,1.0,1.0,1.0,1.0,1.0,1.0,1.0,1.0,1.0,1.0,1.0,1.0,1.0,1.0,1.0,1.0,1.0,1.0,1.0,1.0,1.0,1.0,1.0,1.0,1.0,1.0,1.0,1.0,1.0,1.0,1.0,1.0,1.0,1.0,1.0,1.0,1.0,1.0,1.0,1.0,1.0,1.0,1.0,1.0,1.0,1.0,1.0,1.0,1.0,1.0,1.0,1.0,1.0,1.0,1.0,1.0,1.0,1.0,1.0,1.0,1.0,1.0,1.0,1.0,1.0,1.0,1.0,1.0,1.0,1.0,1.0,1.0,1.0,1.0,1.0,1.0,1.0,1.0,1.0,1.0,1.0,1.0,1.0,1.0,1.0,1.0,1.0,1.0,1.0,1.0,1.0,1.0,1.0,1.0,1.0,1.0,1.0,1.0,1.0,1.0,1.0,1.0,1.0,1.0,1.0,1.0,1.0,1.0,1.0,1.0,1.0,1.0,1.0,1.0,1.0,1.0,1.0,1.0,1.0,1.0,1.0,1.0,1.0,1.0,1.0,1.0,1.0,1.0,1.0,1.0,1.0,1.0,1.0,1.0,1.0,1.0,1.0,1.0,1.0,1.0,1.0,1.0,1.0,1.0,1.0,1.0,1.0,1.0,1.0,1.0,1.0,1.0,1.0,1.0,1.0,1.0,1.0,1.0,1.0,1.0,1.0,1.0,1.0,1.0,1.0,1.0,1.0,1.0,1.0,1.0,1.0,1.0,1.0,1.0,1.0,1.0,1.0,1.0,1.0,1.0,1.0,1.0,1.0,1.0,1.0,1.0,1.0,1.0,1.0,1.0,1.0,1.0,1.0,1.0,1.0,1.0,1.0,1.0,1.0,1.0,1.0,1.0,1.0,1.0,1.0,1.0,1.0,1.0,1.0,1.0,1.0,1.0,1.0,1.0,1.0,1.0,1.0,1.0,1.0,1.0,1.0,1.0,1.0,1.0,1.0,1.0,1.0,1.0,1.0,1.0,1.0,1.0,1.0,1.0,1.0,1.0,1.0,1.0,1.0,1.0,1.0,1.0,1.0,1.0,1.0,1.0,1.0,1.0,1.0,1.0,1.0,1.0,1.0,1.0,1.0,1.0,1.0,1.0,1.0,1.0,1.0,1.0,1.0,1.0,1.0,1.0,1.0,1.0,1.0,1.0,1.0,1.0,1.0,1.0,1.0,1.0,1.0,1.0,1.0,1.0,1.0,1.0,1.0,1.0,1.0,1.0,1.0,1.0,1.0,1.0,1.0,1.0,1.0,1.0,1.0,1.0,1.0,1.0,1.0,1.0,1.0,1.0,1.0,1.0,1.0,1.0,1.0,1.0,1.0,1.0,1.0,1.0,1.0,1.0,1.0,1.0,1.0,1.0,1.0,1.0,1.0,1.0,1.0,1.0,1.0,1.0,1.0,1.0,1.0,1.0,1.0,1.0,1.0,1.0,1.0,1.0,1.0,1.0,1.0,1.0,1.0,1.0,1.0,1.0,1.0,1.0,1.0,1.0,1.0,1.0,1.0,1.0,1.0,1.0,1.0,1.0,1.0,1.0,1.0,1.0,1.0,1.0,1.0,1.0,1.0,1.0,1.0,1.0,1.0,1.0,1.0,1.0,1.0,1.0,1.0,1.0,1.0,1.0,1.0,1.0,1.0,1.0,1.0,1.0,1.0,1.0,1.0,1.0,1.0,1.0,1.0,1.0,1.0,1.0,1.0,1.0,1.0,1.0,1.0,1.0,1.0,1.0,1.0,1.0,1.0,1.0,1.0,1.0,1.0,1.0,1.0,1.0,1.0,1.0,1.0,1.0,1.0,1.0,1.0,1.0,1.0,1.0,1.0,1.0,1.0,1.0,1.0,1.0,1.0,1.0,1.0,1.0,1.0,1.0,1.0,1.0,1.0,1.0,1.0,1.0,1.0,1.0,1.0,1.0,1.0,1.0,1.0,1.0,1.0,1.0,1.0,1.0,1.0,1.0,1.0,1.0,1.0,1.0,1.0,1.0,1.0,1.0,1.0,1.0,1.0,1.0,1.0,1.0,1.0,1.0,1.0,1.0,1.0,1.0,1.0,1.0,1.0,1.0,1.0,1.0,1.0,1.0,1.0,1.0,1.0,1.0,1.0,1.0,1.0,1.0,1.0,1.0,1.0,1.0,1.0,1.0,1.0,1.0,1.0,1.0,1.0,1.0,1.0,1.0,1.0,1.0,1.0,1.0,1.0,1.0,1.0,1.0,1.0,1.0,1.0,1.0,1.0,1.0,1.0,1.0,1.0,1.0,1.0,1.0,1.0,1.0,1.0,1.0,1.0,1.0,1.0,1.0,1.0,1.0,1.0,1.0,1.0,1.0,1.0,1.0,1.0,1.0,1.0,1.0,1.0,1.0,1.0,1.0,1.0,1.0,1.0,1.0,1.0,1.0,1.0,1.0,1.0,1.0,1.0,1.0,1.0,1.0,1.0,1.0,1.0,1.0,1.0,1.0,1.0,1.0,1.0,1.0,1.0,1.0,1.0,1.0,1.0,1.0,1.0,1.0,1.0,1.0,1.0,1.0,1.0,1.0,1.0,1.0,1.0,1.0,1.0,1.0,1.0,1.0,1.0,1.0,1.0,1.0,1.0,1.0,1.0,1.0,1.0,1.0,1.0,1.0,1.0,1.0,1.0,1.0,1.0,1.0,1.0,1.0,1.0,1.0,1.0,1.0,1.0,1.0,1.0,1.0,1.0,1.0,1.0,1.0,1.0,1.0,1.0,1.0,1.0,1.0,1.0,1.0,1.0,1.0,1.0,1.0,1.0,1.0,1.0,1.0,1.0,1.0,1.0,1.0,1.0,1.0,1.0,1.0,1.0,1.0,1.0,1.0,1.0,1.0,1.0,1.0,1.0,1.0,1.0,1.0,1.0,1.0,1.0,1.0,1.0,1.0,1.0,1.0,1.0,1.0,1.0,1.0,1.0,1.0,1.0,1.0,1.0,1.0,1.0,1.0,1.0,1.0,1.0,1.0,1.0,1.0,1.0,1.0,1.0,1.0,1.0,1.0,1.0,1.0,1.0,1.0,1.0,1.0,1.0,1.0,1.0,1.0,1.0,1.0,1.0,1.0,1.0,1.0,1.0,1.0,1.0,1.0,1.0,1.0,1.0,1.0,1.0,1.0,1.0,1.0,1.0,1.0,1.0,1.0,1.0,1.0,1.0,1.0,1.0,1.0,1.0,1.0,1.0,1.0,1.0,1.0,1.0,1.0,1.0,1.0,1.0,1.0,1.0,1.0,1.0,1.0,1.0,1.0,1.0,1.0,1.0,1.0,1.0,1.0,1.0,1.0,1.0,1.0,1.0,1.0,1.0,1.0,1.0,1.0,1.0,1.0,1.0,1.0,1.0,1.0,1.0,1.0,1.0,1.0,1.0,1.0,1.0,1.0,1.0,1.0,1.0,1.0,1.0,1.0,1.0,1.0,1.0,1.0,1.0,1.0,1.0,1.0,1.0,1.0,1.0,1.0,1.0,1.0,1.0,1.0,1.0,1.0,1.0,1.0,1.0,1.0,1.0,1.0,1.0,1.0,1.0,1.0,1.0,1.0,1.0,1.0,1.0,1.0,1.0,1.0,1.0,1.0,1.0,1.0,1.0,1.0,1.0,1.0,1.0,1.0,1.0,1.0,1.0,1.0,1.0,1.0,1.0,1.0,1.0,1.0,1.0,1.0,1.0,1.0,1.0,1.0,1.0,1.0,1.0,1.0,1.0,1.0,1.0,1.0,1.0,1.0,1.0,1.0,1.0,1.0,1.0,1.0,1.0,1.0,1.0,1.0,1.0,1.0,1.0,1.0,1.0,1.0,1.0,1.0,1.0,1.0,1.0,1.0,1.0,1.0,1.0,1.0,1.0,1.0,1.0,1.0,1.0,1.0,1.0,1.0,1.0,1.0,1.0,1.0,1.0,1.0,1.0,1.0,1.0,1.0,1.0,1.0,1.0,1.0,1.0,1.0,1.0,1.0,1.0,1.0,1.0,1.0,1.0,1.0,1.0,1.0,1.0,1.0,1.0,1.0,1.0,1.0,1.0,1.0,1.0,1.0,1.0,1.0,1.0,1.0,1.0,1.0,1.0,1.0,1.0,1.0,1.0,1.0,1.0,1.0,1.0,1.0,1.0,1.0,1.0,1.0,1.0,1.0,1.0,1.0,1.0,1.0,1.0,1.0,1.0,1.0,1.0,1.0,1.0,1.0,1.0,1.0,1.0,1.0,1.0,1.0,1.0,1.0,1.0,1.0,1.0,1.0,1.0,1.0,1.0,1.0,1.0,1.0,1.0,1.0,1.0,1.0,1.0,1.0,1.0,1.0,1.0,1.0,1.0,1.0,1.0,1.0,1.0,1.0,1.0,1.0,1.0,1.0,1.0,1.0,1.0,1.0,1.0,1.0,1.0,1.0,1.0,1.0,1.0,1.0,1.0,1.0,1.0,1.0,1.0,1.0,1.0,1.0,1.0,1.0,1.0,1.0,1.0,1.0,1.0,1.0,1.0,1.0,1.0,1.0,1.0,1.0,1.0,1.0,1.0,1.0,1.0,1.0,1.0,1.0,1.0,1.0,1.0,1.0,1.0,1.0,1.0,1.0,1.0,1.0,1.0,1.0,1.0,1.0,1.0,1.0,1.0,1.0,1.0,1.0,1.0,1.0,1.0,1.0,1.0,1.0,1.0,1.0,1.0,1.0,1.0,1.0,1.0,1.0,1.0,1.0,1.0,1.0,1.0,1.0,1.0,1.0,1.0,1.0,1.0,1.0,1.0,1.0,1.0,1.0,1.0,1.0,1.0,1.0,1.0,1.0,1.0,1.0,1.0,1.0,1.0,1.0,1.0,1.0,1.0,1.0,1.0,1.0,1.0,1.0,1.0,1.0,1.0,1.0,1.0,1.0,1.0,1.0,1.0,1.0,1.0,1.0,1.0,1.0,1.0,1.0,1.0,1.0,1.0,1.0,1.0,1.0,1.0,1.0,1.0,1.0,1.0,1.0,1.0,1.0,1.0,1.0,1.0,1.0,1.0,1.0,1.0,1.0,1.0,1.0,1.0,1.0,1.0,1.0,1.0,1.0,1.0,1.0,1.0,1.0,1.0,1.0,1.0,1.0,1.0,1.0,1.0,1.0,1.0,1.0,1.0,1.0,1.0,1.0,1.0,1.0,1.0,1.0,1.0,1.0,1.0,1.0,1.0,1.0,1.0,1.0,1.0,1.0,1.0,1.0,1.0,1.0,1.0,1.0,1.0,1.0,1.0,1.0,1.0,1.0,1.0,1.0,1.0,1.0,1.0,1.0,1.0,1.0,1.0,1.0,1.0,1.0,1.0,1.0,1.0,1.0,1.0,1.0,1.0,1.0,1.0,1.0,1.0,1.0,1.0,1.0,1.0,1.0,1.0,1.0,1.0,1.0,1.0,1.0,1.0,1.0,1.0,1.0,1.0,1.0,1.0,1.0,1.0,1.0,1.0,1.0,1.0,1.0,1.0,1.0,1.0,1.0,1.0,1.0,1.0,1.0,1.0,1.0,1.0,1.0,1.0,1.0,1.0,1.0,1.0,1.0,1.0,1.0,1.0,1.0,1.0,1.0,1.0,1.0,1.0,1.0,1.0,1.0,1.0,1.0,1.0,1.0,1.0,1.0,1.0,1.0,1.0,1.0,1.0,1.0,1.0,1.0,1.0,1.0,1.0,1.0,1.0,1.0,1.0,1.0,1.0,1.0,1.0,1.0,1.0,1.0,1.0,1.0,1.0,1.0,1.0,1.0,1.0,1.0,1.0,1.0,1.0,1.0,1.0,1.0,1.0,
0.0,0.0,0.0,0.0,0.0,0.0,0.0,0.0,0.0,0.0,0.0,0.0,0.0,0.0,0.0,0.0,0.0,0.0,0.0,0.0,0.0,0.0,0.0,0.0,0.0,0.0,0.0,0.0,0.0,0.0,0.0,0.0,0.0,0.0,0.0,0.0,0.0,0.0,0.0,0.0,0.0,0.0,0.0,0.0,0.0,0.0,0.0,0.0,0.0,0.0,0.0,0.0,0.0,0.0,0.0,0.0,0.0,0.0,0.0,0.0,0.0,0.0,0.0,0.0,0.0,0.0,0.0,0.0,0.0,0.0,0.0,0.0,0.0,0.0,0.0,0.0,0.0,0.0,0.0,0.0,0.0,0.0,0.0,0.0,0.0,0.0,0.0,0.0,0.0,0.0,0.0,0.0,0.0,0.0,0.0,0.0,0.0,0.0,0.0,0.0,0.0,0.0,0.0,0.0,0.0,0.0,0.0,0.0,0.0,0.0,0.0,0.0,0.0,0.0,0.0,0.0,0.0,0.0,0.0,0.0,0.0,0.0,0.0,0.0,0.0,0.0,0.0,0.0,0.0,0.0,0.0,0.0,0.0,0.0,0.0,0.0,0.0,0.0,0.0,0.0,0.0,0.0,0.0,0.0,0.0,0.0,0.0,0.0,0.0,0.0,0.0,0.0,0.0,0.0,0.0,0.0,0.0,0.0,0.0,0.0,0.0,0.0,0.0,0.0,0.0,0.0,0.0,0.0,0.0,0.0,0.0,0.0,0.0,0.0,0.0,0.0,0.0,0.0,0.0,0.0,0.0,0.0,0.0,0.0,0.0,0.0,0.0,0.0,0.0,0.0,0.0,0.0,0.0,0.0,0.0,0.0,0.0,0.0,0.0,0.0,0.0,0.0,0.0,0.0,0.0,0.0,0.0,0.0,0.0,0.0,0.0,0.0,0.0,0.0,0.0,0.0,0.0,0.0,0.0,0.0,0.0,0.0,0.0,0.0,0.0,0.0,0.0,0.0,0.0,0.0,0.0,0.0,0.0,0.0,0.0,0.0,0.0,0.0,0.0,0.0,0.0,0.0,0.0,0.0,0.0,0.0,0.0,0.0,0.0,0.0,0.0,0.0,0.0,0.0,0.0,0.0,0.0,0.0,0.0,0.0,0.0,0.0,0.0,0.0,0.0,0.0,0.0,0.0,0.0,0.0,0.0,0.0,0.0,0.0,0.0,0.0,0.0,0.0,0.0,0.0,0.0,0.0,0.0,0.0,0.0,0.0,0.0,0.0,0.0,0.0,0.0,0.0,0.0,0.0,0.0,0.0,0.0,0.0,0.0,0.0,0.0,0.0,0.0,0.0,0.0,0.0,0.0,0.0,0.0,0.0,0.0,0.0,0.0,0.0,0.0,0.0,0.0,0.0,0.0,0.0,0.0,0.0,0.0,0.0,0.0,0.0,0.0,0.0,0.0,0.0,0.0,0.0,0.0,0.0,0.0,0.0,0.0,0.0,0.0,0.0,0.0,0.0,0.0,0.0,0.0,0.0,0.0,0.0,0.0,0.0,0.0,0.0,0.0,0.0,0.0,0.0,0.0,0.0,0.0,0.0,0.0,0.0,0.0,0.0,0.0,0.0,0.0,0.0,0.0,0.0,0.0,0.0,0.0,0.0,0.0,0.0,0.0,0.0,0.0,0.0,0.0,0.0,0.0,0.0,0.0,0.0,0.0,0.0,0.0,0.0,0.0,0.0,0.0,0.0,0.0,0.0,0.0,0.0,0.0,0.0,0.0,0.0,0.0,0.0,0.0,0.0,0.0,0.0,0.0,0.0,0.0,0.0,0.0,0.0,0.0,0.0,0.0,0.0,0.0,0.0,0.0,0.0,0.0,0.0,0.0,0.0,0.0,0.0,0.0,0.0,0.0,0.0,0.0,0.0,0.0,0.0,0.0,0.0,0.0,0.0,0.0,0.0,0.0,0.0,0.0,0.0,0.0,0.0,0.0,0.0,0.0,0.0,0.0,0.0,0.0,0.0,0.0,0.0,0.0,0.0,0.0,0.0,0.0,0.0,0.0,0.0,0.0,0.0,0.0,0.0,0.0,0.0,0.0,0.0,0.0,0.0,0.0,0.0,0.0,0.0,0.0,0.0,0.0,0.0,0.0,0.0,0.0,0.0,0.0,0.0,0.0,0.0,0.0,0.0,0.0,0.0,0.0,0.0,0.0,0.0,0.0,0.0,0.0,0.0,0.0,0.0,0.0,0.0,0.0,0.0,0.0,0.0,0.0,0.0,0.0,0.0,0.0,0.0,0.0,0.0,0.0,0.0,0.0,0.0,0.0,0.0,0.0,0.0,0.0,0.0,0.0,0.0,0.0,0.0,0.0,0.0,0.0,0.0,0.0,0.0,0.0,0.0,0.0,0.0,0.0,0.0,0.0,0.0,0.0,0.0,0.0,0.0,0.0,0.0,0.0,0.0,0.0,0.0,0.0,0.0,0.0,0.0,0.0,0.0,0.0,0.0,0.0,0.0,0.0,0.0,0.0,0.0,0.0,0.0,0.0,0.0,0.0,0.0,0.0,0.0,0.0,0.0,0.0,0.0,0.0,0.0,0.0,0.0,0.0,0.0,0.0,0.0,0.0,0.0,0.0,0.0,0.0,0.0,0.0,0.0,0.0,0.0,0.0,0.0,0.0,0.0,0.0,0.0,0.0,0.0,0.0,0.0,0.0,0.0,0.0,0.0,0.0,0.0,0.0,0.0,0.0,0.0,0.0,0.0,0.0,0.0,0.0,0.0,0.0,0.0,0.0,0.0,0.0,0.0,0.0,0.0,0.0,0.0,0.0,0.0,0.0,0.0,0.0,0.0,0.0,0.0,0.0,0.0,0.0,0.0,0.0,0.0,0.0,0.0,0.0,0.0,0.0,0.0,0.0,0.0,0.0,0.0,0.0,0.0,0.0,0.0,0.0,0.0,0.0,0.0,0.0,0.0,0.0,0.0,0.0,0.0,0.0,0.0,0.0,0.0,0.0,0.0,0.0,0.0,0.0,0.0,0.0,0.0,0.0,0.0,0.0,0.0,0.0,0.0,0.0,0.0,0.0,0.0,0.0,0.0,0.0,0.0,0.0,0.0,0.0,0.0,0.0,0.0,0.0,0.0,0.0,0.0,0.0,0.0,0.0,0.0,0.0,0.0,0.0,0.0,0.0,0.0,0.0,0.0,0.0,0.0,0.0,0.0,0.0,0.0,0.0,0.0,0.0,0.0,0.0,0.0,0.0,0.0,0.0,0.0,0.0,0.0,0.0,0.0,0.0,0.0,0.0,0.0,0.0,0.0,0.0,0.0,0.0,0.0,0.0,0.0,0.0,0.0,0.0,0.0,0.0,0.0,0.0,0.0,0.0,0.0,0.0,0.0,0.0,0.0,0.0,0.0,0.0,0.0,0.0,0.0,0.0,0.0,0.0,0.0,0.0,0.0,0.0,0.0,0.0,0.0,0.0,0.0,0.0,0.0,0.0,0.0,0.0,0.0,0.0,0.0,0.0,0.0,0.0,0.0,0.0,0.0,0.0,0.0,0.0,0.0,0.0,0.0,0.0,0.0,0.0,0.0,0.0,0.0,0.0,0.0,0.0,0.0,0.0,0.0,0.0,0.0,0.0,0.0,0.0,0.0,0.0,0.0,0.0,0.0,0.0,0.0,0.0,0.0,0.0,0.0,0.0,0.0,0.0,0.0,0.0,0.0,0.0,0.0,0.0,0.0,0.0,0.0,0.0,0.0,0.0,0.0,0.0,0.0,0.0,0.0,0.0,0.0,0.0,0.0,0.0,0.0,0.0,0.0,0.0,0.0,0.0,0.0,0.0,0.0,0.0,0.0,0.0,0.0,0.0,0.0,0.0,0.0,0.0,0.0,0.0,0.0,0.0,0.0,0.0,0.0,0.0,0.0,0.0,0.0,0.0,0.0,0.0,0.0,0.0,0.0,0.0,0.0,0.0,0.0,0.0,0.0,0.0,0.0,0.0,0.0,0.0,0.0,0.0,0.0,0.0,0.0,0.0,0.0,0.0,0.0,0.0,0.0,0.0,0.0,0.0,0.0,0.0,0.0,0.0,0.0,0.0,0.0,0.0,0.0,0.0,0.0,0.0,0.0,0.0,0.0,0.0,0.0,0.0,0.0,0.0,0.0,0.0,0.0,0.0,0.0,0.0,0.0,0.0,0.0,0.0,0.0,0.0,0.0,0.0,0.0,0.0,0.0,0.0,0.0,0.0,0.0,0.0,0.0,0.0,0.0,0.0,0.0,0.0,0.0,0.0,0.0,0.0,0.0,0.0,0.0,0.0,0.0,0.0,0.0,0.0,0.0,0.0,0.0,0.0,0.0,0.0,0.0,0.0,0.0,0.0,0.0,0.0,0.0,0.0,0.0,0.0,0.0,0.0,0.0,0.0,0.0,0.0,0.0,0.0,0.0,0.0,0.0,0.0,0.0,0.0,0.0,0.0,0.0,0.0,0.0,0.0,0.0,0.0,0.0,0.0,0.0,0.0,0.0,0.0,0.0,0.0,0.0,0.0,0.0,0.0,0.0,0.0,0.0,0.0,0.0,0.0,0.0,0.0,0.0,0.0,0.0,0.0,0.0,0.0,0.0,0.0,0.0,0.0,0.0,0.0,0.0,0.0,0.0,0.0,0.0,0.0,0.0,0.0,0.0,0.0,0.0,0.0,0.0,0.0,0.0,0.0,0.0,0.0,0.0,0.0,0.0,0.0,0.0,0.0,0.0,0.0,0.0,0.0,0.0,0.0,0.0,0.0,0.0,0.0,0.0,0.0,0.0,0.0,0.0,0.0,0.0,0.0,0.0,0.0,0.0,0.0,0.0,0.0,0.0,0.0,0.0,0.0,0.0,0.0,0.0,0.0,0.0,0.0,0.0,0.0,0.0,0.0,0.0,0.0,0.0,0.0,0.0,0.0,0.0,0.0,0.0,0.0,0.0,0.0,0.0,0.0,0.0,0.0,0.0,0.0,0.0,0.0,0.0,0.0,0.0,0.0,0.0,0.0,0.0,0.0,0.0,0.0,0.0,0.0,0.0,0.0,0.0,0.0,0.0,0.0,0.0,0.0,0.0,0.0,0.0,0.0,0.0,0.0,0.0,0.0,0.0,0.0,0.0,0.0,0.0,0.0,0.0,0.0,0.0,0.0,0.0,0.0,0.0,0.0,0.0,0.0,0.0,0.0,0.0,0.0,0.0,0.0,0.0,0.0,0.0,0.0,0.0,0.0,0.0,0.0,0.0,0.0,0.0,0.0,0.0,0.0,0.0,0.0,0.0,0.0,0.0,0.0,0.0,0.0,0.0,0.0,0.0,0.0,0.0,0.0,0.0,0.0,0.0,0.0,0.0,0.0,0.0,0.0,0.0,0.0,0.0,0.0,0.0,0.0,0.0,0.0,0.0,0.0,0.0,0.0,0.0,0.0,0.0,0.0,0.0,0.0,0.0,0.0,0.0,0.0,0.0,0.0,0.0,0.0,0.0,0.0,0.0,0.0,0.0,0.0,0.0,0.0,0.0,0.0,0.0,0.0,0.0,0.0,0.0,0.0,0.0,0.0,0.0,0.0,0.0,0.0,0.0,0.0,0.0,0.0,0.0,0.0,0.0,0.0,0.0,0.0,0.0,0.0,0.0,0.0,0.0,0.0,0.0,0.0,0.0,0.0,0.0,0.0,0.0,0.0,0.0,0.0,0.0,0.0,0.0,0.0,0.0,0.0,0.0,0.0,0.0,0.0,0.0,0.0,0.0,0.0,0.0,0.0,0.0,0.0,0.0,0.0,0.0,0.0,0.0,0.0,0.0,0.0,0.0,0.0,0.0,0.0,0.0,0.0,0.0,0.0,0.0,0.0,0.0,0.0,0.0,0.0,0.0,0.0,0.0,0.0,0.0,0.0,0.0,0.0,0.0,0.0,0.0,0.0,0.0,0.0,0.0,0.0,0.0,0.0,0.0,0.0,0.0,0.0,0.0,0.0,0.0,0.0,0.0,0.0,0.0,0.0,0.0,0.0,0.0,0.0,0.0,0.0,0.0,0.0,0.0,0.0,0.0,0.0,0.0,0.0,0.0,0.0,0.0,0.0,0.0,0.0,0.0,0.0,0.0,0.0,0.0,0.0,0.0,0.0,0.0,0.0,0.0,0.0,0.0,0.0,0.0,0.0,0.0,0.0,0.0,0.0,0.0,0.0,0.0,0.0,0.0,0.0,0.0,0.0,0.0,0.0,0.0,0.0,0.0,0.0,0.0,0.0,0.0,0.0,0.0,0.0,0.0,0.0,0.0,0.0,0.0,0.0,0.0,0.0,0.0,0.0,0.0,0.0,0.0,0.0,0.0,0.0,0.0,0.0,0.0,0.0,0.0,0.0,0.0,0.0,0.0,0.0,0.0,0.0,0.0,0.0,0.0,0.0,0.0,0.0,0.0,0.0,0.0,0.0,0.0,0.0,0.0,0.0,0.0,0.0,0.0,0.0,0.0,0.0,0.0,0.0,0.0,0.0,0.0,0.0,0.0,0.0,0.0,0.0,0.0,0.0,0.0,0.0,0.0,0.0,0.0,0.0,0.0,0.0,0.0,0.0,0.0,0.0,0.0,0.0,0.0,0.0,0.0,0.0,0.0,0.0,0.0,0.0,0.0,0.0,0.0,0.0,0.0,0.0,0.0,0.0,0.0,0.0,0.0,0.0,0.0,0.0,0.0,0.0,0.0,0.0,0.0,0.0,0.0,0.0,0.0,0.0,0.0,0.0,0.0,0.0,0.0,0.0,0.0,0.0,0.0,0.0,0.0,0.0,0.0,0.0,0.0,0.0,0.0,0.0,0.0,0.0,0.0,0.0,0.0,0.0,0.0,0.0,0.0,0.0,0.0,0.0,0.0,0.0,0.0,0.0,0.0,0.0,0.0,0.0,0.0,0.0,0.0,0.0,0.0,0.0,0.0,0.0,0.0,0.0,0.0,0.0,0.0,0.0,0.0,0.0,0.0,0.0,0.0,0.0,0.0,0.0,0.0,0.0,0.0,0.0,0.0,0.0,0.0,0.0,0.0,0.0,0.0,0.0,0.0,0.0,0.0,0.0,0.0,0.0,0.0,0.0,0.0,0.0,0.0,0.0,0.0,0.0,0.0,0.0,0.0,0.0,0.0,0.0,0.0,0.0,0.0,0.0,0.0,0.0,0.0,0.0,0.0,0.0,0.0,0.0,0.0,0.0,0.0,0.0,0.0,0.0,0.0,0.0,0.0,0.0,0.0,0.0,0.0,0.0,0.0,0.0,0.0,0.0,0.0,0.0,0.0,0.0,0.0,0.0,0.0,0.0,0.0,0.0,0.0,0.0,0.0,0.0,0.0,0.0,0.0,0.0,0.0,0.0,0.0,0.0,0.0,0.0,0.0,0.0,0.0,0.0,0.0,0.0,0.0,0.0,0.0,0.0,0.0,0.0,0.0,0.0,0.0,0.0,0.0,0.0,0.0,0.0,0.0,0.0,0.0,0.0,0.0,0.0,0.0,0.0,0.0,0.0,0.0,0.0,0.0,0.0,0.0,0.0,0.0,0.0,0.0,0.0,0.0,0.0,0.0,0.0,0.0,0.0,0.0,0.0,0.0,0.0,0.0,0.0,0.0,0.0,0.0,0.0,0.0,0.0,0.0,0.0,0.0,0.0,0.0,0.0,0.0,0.0,0.0,0.0,0.0,0.0,0.0,0.0,0.0,0.0,0.0,0.0,0.0,0.0,0.0,0.0,0.0,0.0,0.0,0.0,0.0,0.0,0.0,0.0,0.0,0.0,0.0,0.0,0.0,0.0,0.0,0.0,0.0,0.0,0.0,0.0,0.0,0.0,0.0,0.0,0.0,0.0,0.0,0.0,0.0,0.0,0.0,0.0,0.0,0.0,0.0,0.0,0.0,0.0,0.0,0.0,0.0,0.0,0.0,0.0,0.0,0.0,0.0,0.0,0.0,0.0,0.0,0.0,0.0,0.0,0.0,0.0,0.0,0.0,0.0,0.0,0.0,0.0,0.0,0.0,0.0,0.0,0.0,0.0,0.0,0.0,0.0,0.0,0.0,0.0,0.0,0.0,0.0,0.0,0.0,0.0,0.0,0.0,0.0,0.0,0.0,0.0,0.0,0.0,0.0,0.0,0.0,0.0,0.0,0.0,0.0,0.0,0.0,0.0,0.0,0.0,0.0,0.0,0.0,0.0,0.0,0.0,0.0,0.0,0.0,0.0,0.0,0.0,0.0,0.0,0.0,0.0,0.0,0.0,0.0,0.0,0.0,0.0,0.0,0.0,0.0,0.0,0.0,0.0,0.0,0.0,0.0,0.0,0.0,0.0,0.0,0.0,0.0,0.0,0.0,0.0,0.0,0.0,0.0,0.0,0.0,0.0,0.0,0.0,0.0,0.0,0.0,0.0,0.0,0.0,0.0,0.0,0.0,0.0,0.0,0.0,0.0,0.0,0.0,0.0,0.0,0.0,0.0,0.0,0.0,0.0,0.0,0.0,0.0,0.0,0.0,0.0,0.0,0.0,0.0,0.0,0.0,0.0,0.0,0.0,0.0,0.0,0.0,0.0,0.0,0.0,0.0,0.0,0.0,0.0,0.0,0.0,0.0,0.0,0.0,0.0,0.0,0.0,0.0,0.0,0.0,0.0,0.0,0.0,0.0,0.0,0.0,0.0,0.0,0.0,0.0,0.0,0.0,0.0,0.0,0.0,0.0,0.0,0.0,0.0,0.0,0.0,0.0,0.0,0.0,0.0,0.0,0.0,0.0,0.0,0.0,0.0,0.0,0.0,0.0,0.0,0.0,0.0,0.0,0.0,0.0,0.0,0.0,0.0,0.0,0.0,0.0,0.0,0.0,0.0,0.0,0.0,0.0,0.0,0.0,0.0,0.0,0.0,0.0,0.0,0.0,0.0,0.0,0.0,0.0,0.0,0.0,0.0,0.0,0.0,0.0,0.0,0.0,0.0,0.0,0.0,0.0,0.0,0.0,0.0,0.0,0.0,0.0,0.0,0.0,0.0,0.0,0.0,0.0,0.0,0.0,0.0,0.0,0.0,0.0,0.0,0.0,0.0,0.0,0.0,0.0,0.0,0.0,0.0,0.0,0.0,0.0,0.0,0.0,0.0,0.0,0.0,0.0,0.0,0.0,0.0,0.0,0.0,0.0,0.0,0.0,0.0,0.0,0.0,0.0,0.0,0.0,0.0,0.0,0.0,0.0,0.0,0.0,0.0,0.0,0.0,0.0,0.0,0.0,0.0,0.0,0.0,0.0,0.0,0.0,0.0,0.0,0.0,0.0,0.0,0.0,0.0,0.0,0.0,0.0,0.0,0.0,0.0,0.0,0.0,0.0,0.0,0.0,0.0,0.0,0.0,0.0,0.0,0.0,0.0,0.0,0.0,0.0,0.0,0.0,0.0,0.0,0.0,0.0,0.0,0.0,0.0,0.0,0.0,0.0,0.0,0.0,0.0,0.0,0.0,0.0,0.0,0.0,0.0,0.0,0.0,0.0,0.0,0.0,0.0,0.0,0.0,0.0,0.0,0.0,0.0,0.0,0.0,0.0,0.0,0.0,0.0,0.0,0.0,0.0,0.0,0.0,0.0,0.0,0.0,0.0,0.0,0.0,0.0,0.0,0.0,0.0,0.0,0.0,0.0,0.0,0.0,0.0,0.0,0.0,0.0,0.0,0.0,0.0,0.0,0.0,0.0,0.0,0.0,0.0,0.0,0.0,0.0,0.0,0.0,0.0,0.0,0.0,0.0,0.0,0.0,0.0,0.0,0.0,0.0,0.0,0.0,0.0,0.0,0.0,0.0,0.0,0.0,0.0,0.0,0.0,0.0,0.0,0.0,0.0,0.0,0.0,0.0,0.0,0.0,0.0,0.0,0.0,0.0,0.0,0.0,0.0,0.0,0.0,0.0,0.0,0.0,0.0,0.0,0.0,0.0,0.0,0.0,0.0,0.0,0.0,0.0,0.0,0.0,0.0,0.0,0.0,0.0,0.0,0.0,0.0,0.0,0.0,0.0,0.0,0.0,0.0,0.0,0.0,0.0,0.0,0.0,0.0,0.0,0.0,0.0,0.0,0.0,0.0,0.0,0.0,0.0,0.0,0.0,0.0,0.0,0.0,0.0,0.0,0.0,0.0,0.0,0.0,0.0,0.0,0.0,0.0,0.0,0.0,0.0,0.0,0.0,0.0,0.0,0.0,0.0,0.0,0.0,0.0,0.0,0.0,0.0,0.0,0.0,0.0,0.0,0.0,0.0,0.0,0.0,0.0,0.0,0.0,0.0,0.0,0.0,0.0,0.0,0.0,0.0,0.0,0.0,0.0,0.0,0.0,0.0,0.0,0.0,0.0,0.0,0.0,0.0,0.0,0.0,0.0,0.0,0.0,0.0,0.0,0.0,0.0,0.0,0.0,0.0,0.0,0.0,0.0,0.0,0.0,0.0,0.0,0.0,0.0,0.0,0.0,0.0,0.0,0.0,0.0,0.0,0.0,0.0,0.0,0.0,0.0,0.0,0.0,0.0,0.0,0.0,0.0,0.0,0.0,0.0,0.0,0.0,0.0,0.0,0.0,0.0,0.0,0.0,0.0,0.0,0.0,0.0,0.0,0.0,0.0,0.0,0.0,0.0,0.0,0.0,0.0,0.0,0.0,0.0,0.0,0.0,0.0,0.0,0.0,0.0,0.0,0.0,0.0,0.0,0.0,0.0,0.0,0.0,0.0,0.0,0.0,0.0,0.0,0.0,0.0,0.0,0.0,0.0,0.0,0.0,0.0,0.0,0.0,0.0,0.0,0.0,0.0,0.0,0.0,0.0,0.0,0.0,0.0,0.0,0.0,0.0,0.0,0.0,0.0,0.0,0.0,0.0,0.0,0.0,0.0,0.0,0.0,0.0,0.0,0.0,0.0,0.0,0.0,0.0,0.0,0.0,0.0,2.5,
1.0,1.0,1.0,1.0,1.0,1.0,1.0,1.0,1.0,1.0,1.0,1.0,1.0,1.0,1.0,1.0,1.0,1.0,1.0,1.0,1.0,1.0,1.0,1.0,1.0,1.0,1.0,1.0,1.0,1.0,1.0,1.0,1.0,1.0,1.0,1.0,1.0,1.0,1.0,1.0,1.0,1.0,1.0,1.0,1.0,1.0,1.0,1.0,1.0,1.0,1.0,1.0,1.0,1.0,1.0,1.0,1.0,1.0,1.0,1.0,1.0,1.0,1.0,1.0,1.0,1.0,1.0,1.0,1.0,1.0,1.0,1.0,1.0,1.0,1.0,1.0,1.0,1.0,1.0,1.0,1.0,1.0,1.0,1.0,1.0,1.0,1.0,1.0,1.0,1.0,1.0,1.0,1.0,1.0,1.0,1.0,1.0,1.0,1.0,1.0,1.0,1.0,1.0,1.0,1.0,1.0,1.0,1.0,1.0,1.0,1.0,1.0,1.0,1.0,1.0,1.0,1.0,1.0,1.0,1.0,1.0,1.0,1.0,1.0,1.0,1.0,1.0,1.0,1.0,1.0,1.0,1.0,1.0,1.0,1.0,1.0,1.0,1.0,1.0,1.0,1.0,1.0,1.0,1.0,1.0,1.0,1.0,1.0,1.0,1.0,1.0,1.0,1.0,1.0,1.0,1.0,1.0,1.0,1.0,1.0,1.0,1.0,1.0,1.0,1.0,1.0,1.0,1.0,1.0,1.0,1.0,1.0,1.0,1.0,1.0,1.0,1.0,1.0,1.0,1.0,1.0,1.0,1.0,1.0,1.0,1.0,1.0,1.0,1.0,1.0,1.0,1.0,1.0,1.0,1.0,1.0,1.0,1.0,1.0,1.0,1.0,1.0,1.0,1.0,1.0,1.0,1.0,1.0,1.0,1.0,1.0,1.0,1.0,1.0,1.0,1.0,1.0,1.0,1.0,1.0,1.0,1.0,1.0,1.0,1.0,1.0,1.0,1.0,1.0,1.0,1.0,1.0,1.0,1.0,1.0,1.0,1.0,1.0,1.0,1.0,1.0,1.0,1.0,1.0,1.0,1.0,1.0,1.0,1.0,1.0,1.0,1.0,1.0,1.0,1.0,1.0,1.0,1.0,1.0,1.0,1.0,1.0,1.0,1.0,1.0,1.0,1.0,1.0,1.0,1.0,1.0,1.0,1.0,1.0,1.0,1.0,1.0,1.0,1.0,1.0,1.0,1.0,1.0,1.0,1.0,1.0,1.0,1.0,1.0,1.0,1.0,1.0,1.0,1.0,1.0,1.0,1.0,1.0,1.0,1.0,1.0,1.0,1.0,1.0,1.0,1.0,1.0,1.0,1.0,1.0,1.0,1.0,1.0,1.0,1.0,1.0,1.0,1.0,1.0,1.0,1.0,1.0,1.0,1.0,1.0,1.0,1.0,1.0,1.0,1.0,1.0,1.0,1.0,1.0,1.0,1.0,1.0,1.0,1.0,1.0,1.0,1.0,1.0,1.0,1.0,1.0,1.0,1.0,1.0,1.0,1.0,1.0,1.0,1.0,1.0,1.0,1.0,1.0,1.0,1.0,1.0,1.0,1.0,1.0,1.0,1.0,1.0,1.0,1.0,1.0,1.0,1.0,1.0,1.0,1.0,1.0,1.0,1.0,1.0,1.0,1.0,1.0,1.0,1.0,1.0,1.0,1.0,1.0,1.0,1.0,1.0,1.0,1.0,1.0,1.0,1.0,1.0,1.0,1.0,1.0,1.0,1.0,1.0,1.0,1.0,1.0,1.0,1.0,1.0,1.0,1.0,1.0,1.0,1.0,1.0,1.0,1.0,1.0,1.0,1.0,1.0,1.0,1.0,1.0,1.0,1.0,1.0,1.0,1.0,1.0,1.0,1.0,1.0,1.0,1.0,1.0,1.0,1.0,1.0,1.0,1.0,1.0,1.0,1.0,1.0,1.0,1.0,1.0,1.0,1.0,1.0,1.0,1.0,1.0,1.0,1.0,1.0,1.0,1.0,1.0,1.0,1.0,1.0,1.0,1.0,1.0,1.0,1.0,1.0,1.0,1.0,1.0,1.0,1.0,1.0,1.0,1.0,1.0,1.0,1.0,1.0,1.0,1.0,1.0,1.0,1.0,1.0,1.0,1.0,1.0,1.0,1.0,1.0,1.0,1.0,1.0,1.0,1.0,1.0,1.0,1.0,1.0,1.0,1.0,1.0,1.0,1.0,1.0,1.0,1.0,1.0,1.0,1.0,1.0,1.0,1.0,1.0,1.0,1.0,1.0,1.0,1.0,1.0,1.0,1.0,1.0,1.0,1.0,1.0,1.0,1.0,1.0,1.0,1.0,1.0,1.0,1.0,1.0,1.0,1.0,1.0,1.0,1.0,1.0,1.0,1.0,1.0,1.0,1.0,1.0,1.0,1.0,1.0,1.0,1.0,1.0,1.0,1.0,1.0,1.0,1.0,1.0,1.0,1.0,1.0,1.0,1.0,1.0,1.0,1.0,1.0,1.0,1.0,1.0,1.0,1.0,1.0,1.0,1.0,1.0,1.0,1.0,1.0,1.0,1.0,1.0,1.0,1.0,1.0,1.0,1.0,1.0,1.0,1.0,1.0,1.0,1.0,1.0,1.0,1.0,1.0,1.0,1.0,1.0,1.0,1.0,1.0,1.0,1.0,1.0,1.0,1.0,1.0,1.0,1.0,1.0,1.0,1.0,1.0,1.0,1.0,1.0,1.0,1.0,1.0,1.0,1.0,1.0,1.0,1.0,1.0,1.0,1.0,1.0,1.0,1.0,1.0,1.0,1.0,1.0,1.0,1.0,1.0,1.0,1.0,1.0,1.0,1.0,1.0,1.0,1.0,1.0,1.0,1.0,1.0,1.0,1.0,1.0,1.0,1.0,1.0,1.0,1.0,1.0,1.0,1.0,1.0,1.0,1.0,1.0,1.0,1.0,1.0,1.0,1.0,1.0,1.0,1.0,1.0,1.0,1.0,1.0,1.0,1.0,1.0,1.0,1.0,1.0,1.0,1.0,1.0,1.0,1.0,1.0,1.0,1.0,1.0,1.0,1.0,1.0,1.0,1.0,1.0,1.0,1.0,1.0,1.0,1.0,1.0,1.0,1.0,1.0,1.0,1.0,1.0,1.0,1.0,1.0,1.0,1.0,1.0,1.0,1.0,1.0,1.0,1.0,1.0,1.0,1.0,1.0,1.0,1.0,1.0,1.0,1.0,1.0,1.0,1.0,1.0,1.0,1.0,1.0,1.0,1.0,1.0,1.0,1.0,1.0,1.0,1.0,1.0,1.0,1.0,1.0,1.0,1.0,1.0,1.0,1.0,1.0,1.0,1.0,1.0,1.0,1.0,1.0,1.0,1.0,1.0,1.0,1.0,1.0,1.0,1.0,1.0,1.0,1.0,1.0,1.0,1.0,1.0,1.0,1.0,1.0,1.0,1.0,1.0,1.0,1.0,1.0,1.0,1.0,1.0,1.0,1.0,1.0,1.0,1.0,1.0,1.0,1.0,1.0,1.0,1.0,1.0,1.0,1.0,1.0,1.0,1.0,1.0,1.0,1.0,1.0,1.0,1.0,1.0,1.0,1.0,1.0,1.0,1.0,1.0,1.0,1.0,1.0,1.0,1.0,1.0,1.0,1.0,1.0,1.0,1.0,1.0,1.0,1.0,1.0,1.0,1.0,1.0,1.0,1.0,1.0,1.0,1.0,1.0,1.0,1.0,1.0,1.0,1.0,1.0,1.0,1.0,1.0,1.0,1.0,1.0,1.0,1.0,1.0,1.0,1.0,1.0,1.0,1.0,1.0,1.0,1.0,1.0,1.0,1.0,1.0,1.0,1.0,1.0,1.0,1.0,1.0,1.0,1.0,1.0,1.0,1.0,1.0,1.0,1.0,1.0,1.0,1.0,1.0,1.0,1.0,1.0,1.0,1.0,1.0,1.0,1.0,1.0,1.0,1.0,1.0,1.0,1.0,1.0,1.0,1.0,1.0,1.0,1.0,1.0,1.0,1.0,1.0,1.0,1.0,1.0,1.0,1.0,1.0,1.0,1.0,1.0,1.0,1.0,1.0,1.0,1.0,1.0,1.0,1.0,1.0,1.0,1.0,1.0,1.0,1.0,1.0,1.0,1.0,1.0,1.0,1.0,1.0,1.0,1.0,1.0,1.0,1.0,1.0,1.0,1.0,1.0,1.0,1.0,1.0,1.0,1.0,1.0,1.0,1.0,1.0,1.0,1.0,1.0,1.0,1.0,1.0,1.0,1.0,1.0,1.0,1.0,1.0,1.0,1.0,1.0,1.0,1.0,1.0,1.0,1.0,1.0,1.0,1.0,1.0,1.0,1.0,1.0,1.0,1.0,1.0,1.0,1.0,1.0,1.0,1.0,1.0,1.0,1.0,1.0,1.0,1.0,1.0,1.0,1.0,1.0,1.0,1.0,1.0,1.0,1.0,1.0,1.0,1.0,1.0,1.0,1.0,1.0,1.0,1.0,1.0,1.0,1.0,1.0,1.0,1.0,1.0,1.0,1.0,1.0,1.0,1.0,1.0,1.0,1.0,1.0,1.0,1.0,1.0,1.0,1.0,1.0,1.0,1.0,1.0,1.0,1.0,1.0,1.0,1.0,1.0,1.0,1.0,1.0,1.0,1.0,1.0,1.0,1.0,1.0,1.0,1.0,1.0,1.0,1.0,1.0,1.0,1.0,1.0,1.0,1.0,1.0,1.0,1.0,1.0,1.0,1.0,1.0,1.0,1.0,1.0,1.0,1.0,1.0,1.0,1.0,1.0,1.0,1.0,1.0,1.0,1.0,1.0,1.0,1.0,1.0,1.0,1.0,1.0,1.0,1.0,1.0,1.0,1.0,1.0,1.0,1.0,1.0,1.0,1.0,1.0,1.0,1.0,1.0,1.0,1.0,1.0,1.0,1.0,1.0,1.0,1.0,1.0,1.0,1.0,1.0,1.0,1.0,1.0,1.0,1.0,1.0,1.0,1.0,1.0,1.0,1.0,1.0,1.0,1.0,1.0,1.0,1.0,1.0,1.0,1.0,1.0,1.0,1.0,1.0,1.0,1.0,1.0,1.0,1.0,1.0,1.0,1.0,1.0,1.0,1.0,1.0,1.0,1.0,1.0,1.0,1.0,1.0,1.0,1.0,1.0,1.0,1.0,1.0,1.0,1.0,1.0,1.0,1.0,1.0,1.0,1.0,1.0,1.0,1.0,1.0,1.0,1.0,1.0,1.0,1.0,1.0,1.0,1.0,1.0,1.0,1.0,1.0,1.0,1.0,1.0,1.0,1.0,1.0,1.0,1.0,1.0,1.0,1.0,1.0,1.0,1.0,1.0,1.0,1.0,1.0,1.0,1.0,1.0,1.0,1.0,1.0,1.0,1.0,1.0,1.0,1.0,1.0,1.0,1.0,1.0,1.0,1.0,1.0,1.0,1.0,1.0,1.0,1.0,1.0,1.0,1.0,1.0,1.0,1.0,1.0,1.0,1.0,1.0,1.0,1.0,1.0,1.0,1.0,1.0,1.0,1.0,1.0,1.0,1.0,1.0,1.0,1.0,1.0,1.0,1.0,1.0,1.0,1.0,1.0,1.0,1.0,1.0,1.0,1.0,1.0,1.0,1.0,1.0,1.0,1.0,1.0,1.0,1.0,1.0,1.0,1.0,1.0,1.0,1.0,1.0,1.0,1.0,1.0,1.0,1.0,1.0,1.0,1.0,1.0,1.0,1.0,1.0,1.0,1.0,1.0,1.0,1.0,1.0,1.0,1.0,1.0,1.0,1.0,1.0,1.0,1.0,1.0,1.0,1.0,1.0,1.0,1.0,1.0,1.0,1.0,1.0,1.0,1.0,1.0,1.0,1.0,1.0,1.0,1.0,1.0,1.0,1.0,1.0,1.0,1.0,1.0,1.0,1.0,1.0,1.0,1.0,1.0,1.0,1.0,1.0,1.0,1.0,1.0,1.0,1.0,1.0,1.0,1.0,1.0,1.0,1.0,1.0,1.0,1.0,1.0,1.0,1.0,1.0,1.0,1.0,1.0,1.0,1.0,1.0,1.0,1.0,1.0,1.0,1.0,1.0,1.0,1.0,1.0,1.0,1.0,1.0,1.0,1.0,1.0,1.0,1.0,1.0,1.0,1.0,1.0,1.0,1.0,1.0,1.0,1.0,1.0,1.0,1.0,1.0,1.0,1.0,1.0,1.0,1.0,1.0,1.0,1.0,1.0,1.0,1.0,1.0,1.0,1.0,1.0,1.0,1.0,1.0,1.0,1.0,1.0,1.0,1.0,1.0,1.0,1.0,1.0,1.0,1.0,1.0,1.0,1.0,1.0,1.0,1.0,1.0,1.0,1.0,1.0,1.0,1.0,1.0,1.0,1.0,1.0,1.0,1.0,1.0,1.0,1.0,1.0,1.0,1.0,1.0,1.0,1.0,1.0,1.0,1.0,1.0,1.0,1.0,1.0,1.0,1.0,1.0,1.0,1.0,1.0,1.0,1.0,1.0,1.0,1.0,1.0,1.0,1.0,1.0,1.0,1.0,1.0,1.0,1.0,1.0,1.0,1.0,1.0,1.0,1.0,1.0,1.0,1.0,1.0,1.0,1.0,1.0,1.0,1.0,1.0,1.0,1.0,1.0,1.0,1.0,1.0,1.0,1.0,1.0,1.0,1.0,1.0,1.0,1.0,1.0,1.0,1.0,1.0,1.0,1.0,1.0,1.0,1.0,1.0,1.0,1.0,1.0,1.0,1.0,1.0,1.0,1.0,1.0,1.0,1.0,1.0,1.0,1.0,1.0,1.0,1.0,1.0,1.0,1.0,1.0,1.0,1.0,1.0,1.0,1.0,1.0,1.0,1.0,1.0,1.0,1.0,1.0,1.0,1.0,1.0,1.0,1.0,1.0,1.0,1.0,1.0,1.0,1.0,1.0,1.0,1.0,1.0,1.0,1.0,1.0,1.0,1.0,1.0,1.0,1.0,1.0,1.0,1.0,1.0,1.0,1.0,1.0,1.0,1.0,1.0,1.0,1.0,1.0,1.0,1.0,1.0,1.0,1.0,1.0,1.0,1.0,1.0,1.0,1.0,1.0,1.0,1.0,1.0,1.0,1.0,1.0,1.0,1.0,1.0,1.0,1.0,1.0,1.0,1.0,1.0,1.0,1.0,1.0,1.0,1.0,1.0,1.0,1.0,1.0,1.0,1.0,1.0,1.0,1.0,1.0,1.0,1.0,1.0,1.0,1.0,1.0,1.0,1.0,1.0,1.0,1.0,1.0,1.0,1.0,1.0,1.0,1.0,1.0,1.0,1.0,1.0,1.0,1.0,1.0,1.0,1.0,1.0,1.0,1.0,1.0,1.0,1.0,1.0,1.0,1.0,1.0,1.0,1.0,1.0,1.0,1.0,1.0,1.0,1.0,1.0,1.0,1.0,1.0,1.0,1.0,1.0,1.0,1.0,1.0,1.0,1.0,1.0,1.0,1.0,1.0,1.0,1.0,1.0,1.0,1.0,1.0,1.0,1.0,1.0,1.0,1.0,1.0,1.0,1.0,1.0,1.0,1.0,1.0,1.0,1.0,1.0,1.0,1.0,1.0,1.0,1.0,1.0,1.0,1.0,1.0,1.0,1.0,1.0,1.0,1.0,1.0,1.0,1.0,1.0,1.0,1.0,1.0,1.0,1.0,1.0,1.0,1.0,1.0,1.0,1.0,1.0,1.0,1.0,1.0,1.0,1.0,1.0,1.0,1.0,1.0,1.0,1.0,1.0,1.0,1.0,1.0,1.0,1.0,1.0,1.0,1.0,1.0,1.0,1.0,1.0,1.0,1.0,1.0,1.0,1.0,1.0,1.0,1.0,1.0,1.0,1.0,1.0,1.0,1.0,1.0,1.0,1.0,1.0,1.0,1.0,1.0,1.0,1.0,1.0,1.0,1.0,1.0,1.0,1.0,1.0,1.0,1.0,1.0,1.0,1.0,1.0,1.0,1.0,1.0,1.0,1.0,1.0,1.0,1.0,1.0,1.0,1.0,1.0,1.0,1.0,1.0,1.0,1.0,1.0,1.0,1.0,1.0,1.0,1.0,1.0,1.0,1.0,1.0,1.0,1.0,1.0,1.0,1.0,1.0,1.0,1.0,1.0,1.0,1.0,1.0,1.0,1.0,1.0,1.0,1.0,1.0,1.0,1.0,1.0,1.0,1.0,1.0,1.0,1.0,1.0,1.0,1.0,1.0,1.0,1.0,1.0,1.0,1.0,1.0,1.0,1.0,1.0,1.0,1.0,1.0,1.0,1.0,1.0,1.0,1.0,1.0,1.0,1.0,1.0,1.0,1.0,1.0,1.0,1.0,1.0,1.0,1.0,1.0,1.0,1.0,1.0,1.0,1.0,1.0,1.0,1.0,1.0,1.0,1.0,1.0,1.0,1.0,1.0,1.0,1.0,1.0,1.0,1.0,1.0,1.0,1.0,1.0,1.0,1.0,1.0,1.0,1.0,1.0,1.0,1.0,1.0,1.0,1.0,1.0,1.0,1.0,1.0,1.0,1.0,1.0,1.0,1.0,1.0,1.0,1.0,1.0,1.0,1.0,1.0,1.0,1.0,1.0,1.0,1.0,1.0,1.0,1.0,1.0,1.0,1.0,1.0,1.0,1.0,1.0,1.0,1.0,1.0,1.0,1.0,1.0,1.0,1.0,1.0,1.0,1.0,1.0,1.0,1.0,1.0,1.0,1.0,1.0,1.0,1.0,1.0,1.0,1.0,1.0,1.0,1.0,1.0,1.0,1.0,1.0,1.0,1.0,1.0,1.0,1.0,1.0,1.0,1.0,1.0,1.0,1.0,1.0,1.0,1.0,1.0,1.0,1.0,1.0,1.0,1.0,1.0,1.0,1.0,1.0,1.0,1.0,1.0,1.0,1.0,1.0,1.0,1.0,1.0,1.0,1.0,1.0,1.0,1.0,1.0,1.0,1.0,1.0,1.0,1.0,1.0,1.0,1.0,1.0,1.0,1.0,1.0,1.0,1.0,1.0,1.0,1.0,1.0,1.0,1.0,1.0,1.0,1.0,1.0,1.0,1.0,1.0,1.0,1.0,1.0,1.0,1.0,1.0,1.0,1.0,1.0,1.0,1.0,1.0,1.0,1.0,1.0,1.0,1.0,1.0,1.0,1.0,1.0,1.0,1.0,1.0,1.0,1.0,1.0,1.0,1.0,1.0,1.0,1.0,1.0,1.0,1.0,1.0,1.0,1.0,1.0,1.0,1.0,1.0,1.0,1.0,1.0,1.0,1.0,1.0,1.0,1.0,1.0,1.0,1.0,1.0,1.0,1.0,1.0,1.0,1.0,1.0,1.0,1.0,1.0,1.0,1.0,1.0,1.0,1.0,1.0,1.0,1.0,1.0,1.0,1.0,1.0,1.0,1.0,1.0,1.0,1.0,1.0,1.0,1.0,1.0,1.0,1.0,1.0,1.0,1.0,1.0,1.0,1.0,1.0,1.0,1.0,1.0,1.0,1.0,1.0,1.0,1.0,1.0,1.0,1.0,1.0,1.0,1.0,1.0,1.0,1.0,1.0,1.0,1.0,1.0,1.0,1.0,1.0,1.0,1.0,1.0,1.0,1.0,1.0,1.0,1.0,1.0,1.0,1.0,1.0,1.0,1.0,1.0,1.0,1.0,1.0,1.0,1.0,1.0,1.0,1.0,1.0,1.0,1.0,1.0,1.0,1.0,1.0,1.0,1.0,1.0,1.0,1.0,1.0,1.0,1.0,1.0,1.0,1.0,1.0,1.0,1.0,1.0,1.0,1.0,1.0,1.0,1.0,1.0,1.0,1.0,1.0,1.0,1.0,1.0,1.0,1.0,1.0,1.0,1.0,1.0,1.0,1.0,1.0,1.0,1.0,1.0,1.0,1.0,1.0,1.0,1.0,1.0,1.0,1.0,1.0,1.0,1.0,1.0,1.0,1.0,1.0,1.0,1.0,1.0,1.0,1.0,1.0,1.0,1.0,1.0,1.0,1.0,1.0,1.0,1.0,1.0,1.0,1.0,1.0,1.0,1.0,1.0,1.0,1.0,1.0,1.0,1.0,1.0,1.0,1.0,1.0,1.0,1.0,1.0,1.0,1.0,1.0,1.0,1.0,1.0,1.0,1.0,1.0,1.0,1.0,1.0,1.0,1.0,1.0,1.0,1.0,1.0,1.0,1.0,1.0,1.0,1.0,1.0,1.0,1.0,1.0,1.0,1.0,1.0,1.0,1.0,1.0,1.0,1.0,1.0,1.0,1.0,1.0,1.0,1.0,1.0,1.0,1.0,1.0,1.0,1.0,1.0,1.0,1.0,1.0,1.0,1.0,1.0,1.0,1.0,1.0,1.0,1.0,1.0,1.0,1.0,1.0,1.0,1.0,1.0,1.0,1.0,1.0,1.0,1.0,1.0,1.0,1.0,1.0,1.0,1.0,1.0,1.0,1.0,1.0,1.0,1.0,1.0,1.0,1.0,1.0,1.0,1.0,1.0,1.0,1.0,1.0,1.0,1.0,1.0,1.0,1.0,1.0,1.0,1.0,1.0,1.0,1.0,1.0,1.0,1.0,1.0,1.0,1.0,1.0,1.0,1.0,1.0,1.0,1.0,1.0,1.0,1.0,1.0,1.0,1.0,1.0,1.0,1.0,1.0,1.0,1.0,1.0,1.0,1.0,1.0,1.0,1.0,1.0,1.0,1.0,1.0,1.0,1.0,1.0,1.0,1.0,1.0,1.0,1.0,1.0,1.0,1.0,1.0,1.0,1.0,1.0,1.0,1.0,1.0,1.0,1.0,1.0,1.0,1.0,1.0,1.0,1.0,1.0,1.0,1.0,1.0,1.0,1.0,1.0,1.0,1.0,1.0,1.0,1.0,1.0,1.0,1.0,1.0,1.0,1.0,1.0,1.0,5.0,
-2.24560e-03,-8.05800e-02,-1.57466e-01,-1.54402e-01,-1.52410e-01,-2.03958e-01,-1.46063e-01,-2.01932e-01,-4.64352e-02,-4.86935e-02,-3.41508e-01,-4.05120e-01,-3.02552e-01,-3.02552e-01,-3.02552e-01,-3.52570e-01,-3.37547e-01,-1.65557e-01,-2.15839e-01,-1.88475e-01,8.82656e-01,4.04748e-01,3.59032e-01,3.59032e-01,3.59032e-01,1.10480e-01,3.91358e-02,-1.29442e-01,1.70291e-01,2.18047e-01,8.17504e-01,4.19580e-01,4.40839e-01,4.40839e-01,4.40839e-01,2.28661e-01,6.60694e-02,2.99468e-02,-2.91025e-01,2.62855e-01,-6.73853e-01,-4.47951e-01,-4.21224e-01,-4.21224e-01,-4.21224e-01,-1.66750e-01,-1.76318e-01,-1.98916e-01,5.79865e-02,2.75968e-01,-1.70734e-01,-5.99157e-02,1.79106e-02,1.79106e-02,1.79106e-02,-1.18074e-01,-1.08235e-01,-4.48812e-02,1.29277e-01,3.04341e-01,-2.24560e-03,-1.49071e-02,-1.15613e-01,-1.17188e-01,-1.17796e-01,-1.63131e-01,-7.59613e-02,-3.03722e-01,-4.95722e-02,1.20955e-01,-3.41508e-01,-2.33375e-01,-2.62667e-01,-2.62667e-01,-2.62667e-01,-1.84115e-01,-1.54227e-01,-1.11083e-01,-1.50894e-01,-3.34802e-02,8.82656e-01,3.78904e-01,4.05415e-01,4.05415e-01,4.05415e-01,7.13156e-02,1.50521e-01,5.17285e-02,-1.70195e-01,-2.20747e-01,8.17504e-01,4.70298e-01,3.05927e-01,3.05927e-01,3.05927e-01,1.74776e-01,6.53998e-02,-3.28948e-03,-1.76541e-01,-3.36674e-01,-6.73853e-01,-2.68506e-01,-3.71763e-01,-3.71763e-01,-3.71763e-01,-1.11490e-01,-3.54399e-02,1.05994e-01,4.61438e-02,9.47897e-02,-1.70734e-01,-1.87673e-01,-2.63000e-01,-2.63000e-01,-2.63000e-01,-1.58266e-01,-7.35104e-02,-1.61815e-01,-2.00758e-03,8.28855e-02,3.52878e-01,3.26384e-01,1.68762e-01,2.35307e-01,-2.20835e-01,-9.01323e-02,3.65685e-02,3.62867e-02,3.95624e-02,2.64462e-02,6.12379e-02,-1.12034e-01,-2.27166e-02,-4.81014e-02,2.57613e-03,-1.25570e-01,-2.08686e-02,-2.08686e-02,-2.08686e-02,-1.42204e-01,-1.70675e-01,6.53363e-02,-1.43450e-01,-2.13945e-01,1.21814e-01,-6.33758e-02,-3.18118e-02,-3.18118e-02,-3.18118e-02,-1.68295e-01,-1.25663e-01,-2.10951e-01,1.86628e-01,2.66725e-01,2.06048e-01,-4.03829e-03,3.92152e-02,3.92152e-02,3.92152e-02,-1.01485e-01,-3.01522e-01,-3.11175e-01,-5.73430e-01,-2.87478e-01,-4.66891e-02,-4.84033e-02,-8.48264e-02,-8.48264e-02,-8.48264e-02,7.13880e-02,-2.69636e-03,-1.17903e-01,-8.60730e-02,8.46503e-02,8.84569e-02,7.66364e-02,3.42458e-02,3.42458e-02,3.42458e-02,-2.64364e-02,-5.55565e-02,-5.24319e-02,7.26251e-02,1.65058e-01,-2.20835e-01,-3.40014e-01,-4.66198e-01,-4.68192e-01,-4.67990e-01,-4.31879e-01,-4.47699e-01,-3.89900e-01,-6.41204e-02,1.42505e-01,2.57613e-03,-7.84285e-02,-1.44670e-01,-1.44670e-01,-1.44670e-01,-7.49147e-02,-4.98443e-02,-8.68326e-02,-1.57179e-01,-5.40136e-02,1.21814e-01,-1.04380e-01,3.26484e-02,3.26484e-02,3.26484e-02,-1.78768e-01,2.57063e-02,2.90569e-02,-1.43145e-01,-1.51075e-01,2.06048e-01,1.29426e-01,4.77010e-02,4.77010e-02,4.77010e-02,-2.60593e-02,-4.32362e-02,-3.12562e-02,-1.42231e-01,-2.80965e-01,-4.66891e-02,1.27972e-01,-4.65679e-02,-4.65679e-02,-4.65679e-02,5.89985e-02,-1.75237e-02,-3.86149e-02,2.69459e-02,8.61767e-02,8.84569e-02,8.49738e-02,-6.91968e-02,-6.91968e-02,-6.91968e-02,-1.92698e-02,-1.88467e-03,-1.28129e-01,6.83293e-03,1.08926e-01,1.26572e-01,1.54133e-01,-3.45491e-02,2.35307e-01,5.26001e-02,-7.64101e-02,1.01625e-01,1.03380e-01,1.03526e-01,5.54076e-02,-1.13190e-02,1.17494e-01,3.16699e-01,1.65518e-01,4.21954e-02,-1.07625e-01,-1.89061e-02,-1.89061e-02,-1.89061e-02,-1.64640e-01,-1.87908e-01,3.67480e-02,-1.42984e-01,-2.30967e-01,-3.31789e-02,-6.49671e-02,-1.05894e-01,-1.05894e-01,-1.05894e-01,-1.10718e-01,-8.63443e-02,-1.76220e-01,2.45163e-01,3.09101e-01,1.56304e-02,-1.38902e-01,-7.72918e-02,-7.72918e-02,-7.72918e-02,-1.77322e-01,-4.39197e-01,-4.61528e-01,-5.65624e-01,-2.03262e-01,1.15822e-01,4.61526e-02,1.78008e-02,1.78008e-02,1.78008e-02,1.08915e-01,2.00111e-02,-9.04873e-02,-2.41388e-02,5.44123e-02,1.91850e-01,1.44077e-01,8.15010e-02,8.15010e-02,8.15010e-02,6.91013e-03,6.67191e-03,-6.91761e-03,4.46051e-02,1.21456e-01,5.26001e-02,4.34531e-02,-3.58156e-02,-3.99246e-02,-3.98267e-02,-8.72526e-02,-7.19885e-02,6.06207e-02,8.85600e-02,1.79856e-01,4.21954e-02,-1.20731e-01,-1.03797e-01,-1.03797e-01,-1.03797e-01,-5.38785e-02,-3.14889e-02,-6.02007e-02,-1.28605e-01,-8.26387e-02,-3.31789e-02,-1.49544e-01,-7.86048e-02,-7.86048e-02,-7.86048e-02,-2.50287e-01,-3.50806e-02,-3.55507e-02,-1.33444e-01,-1.75330e-01,1.56304e-02,3.93514e-02,-5.38387e-02,-5.38387e-02,-5.38387e-02,-3.95050e-03,-1.10873e-02,-1.01423e-02,-1.17520e-01,-2.12641e-01,1.15822e-01,1.42173e-01,4.88425e-03,4.88425e-03,4.88425e-03,1.02086e-01,2.49837e-02,-1.76719e-02,5.89943e-02,1.15018e-01,1.91850e-01,1.68279e-01,-3.78955e-03,-3.78955e-03,-3.78955e-03,3.12361e-02,2.94283e-02,9.75775e-03,-4.90599e-02,7.84968e-02,4.75346e-02,4.63642e-02,1.18106e-01,2.35307e-01,-5.71792e-02,-1.26544e-01,-3.44451e-02,-3.41045e-02,-3.64125e-02,-1.19554e-01,-1.53778e-01,-2.06294e-01,-1.72648e-01,-4.31526e-01,1.25771e-01,-1.14129e-01,-7.70662e-03,-7.70662e-03,-7.70662e-03,-1.62614e-01,-1.51261e-01,9.72692e-02,-1.46508e-01,-1.59651e-01,-7.33044e-02,-6.46464e-02,-9.49723e-02,-9.49723e-02,-9.49723e-02,-1.22909e-01,-7.02497e-02,-1.27824e-01,3.45461e-01,4.15518e-01,-4.13249e-02,-4.88356e-02,-3.98235e-02,-3.98235e-02,-3.98235e-02,-1.63815e-01,-1.46984e-01,8.65087e-02,3.81300e-02,2.07529e-02,4.68094e-03,3.96692e-03,2.99828e-02,2.99828e-02,2.99828e-02,9.86986e-02,4.04161e-02,-1.25013e-01,-6.86637e-02,-1.61336e-01,1.16768e-01,1.13634e-01,1.06124e-01,1.06124e-01,1.06124e-01,-2.85067e-02,-9.17394e-03,1.98840e-02,3.30609e-02,1.16945e-01,-5.71792e-02,-6.42787e-02,-3.79282e-02,-4.00790e-02,-3.99717e-02,-4.67694e-02,1.08228e-02,1.40011e-01,9.11282e-02,4.60176e-03,1.25771e-01,1.73289e-02,3.70748e-02,3.70748e-02,3.70748e-02,6.72884e-02,9.40228e-02,8.39809e-02,-1.71880e-02,-8.54475e-03,-7.33044e-02,-6.27118e-02,-1.05949e-01,-1.05949e-01,-1.05949e-01,-2.21480e-01,-8.64244e-03,-7.17658e-03,-5.28175e-02,-8.69999e-02,-4.13249e-02,-8.67121e-02,-1.19348e-01,-1.19348e-01,-1.19348e-01,-4.45225e-02,-3.11119e-02,-3.48035e-02,-6.40934e-02,-1.25387e-01,4.68094e-03,-3.43372e-02,-1.16635e-01,-1.16635e-01,-1.16635e-01,-9.62925e-02,-4.59693e-02,-3.38448e-02,5.79585e-03,5.68818e-02,1.16768e-01,9.52935e-02,-7.14719e-02,-7.14719e-02,-7.14719e-02,-3.73484e-02,-7.76544e-02,-6.34472e-02,-1.08416e-01,6.34583e-02,7.24663e-02,3.47215e-02,5.18863e-02,2.35307e-01,1.44443e-01,-7.88300e-02,-3.74646e-02,-3.88634e-02,-4.34503e-02,-1.23149e-01,-2.07568e-01,-8.93647e-02,-2.28227e-01,-3.15364e-01,1.25771e-01,-1.14129e-01,-7.70662e-03,-7.70662e-03,-7.70662e-03,-1.62614e-01,-1.51261e-01,9.72692e-02,-1.46508e-01,-1.59651e-01,-7.33044e-02,-6.46464e-02,-9.49723e-02,-9.49723e-02,-9.49723e-02,-1.22909e-01,-7.02497e-02,-1.27824e-01,3.45461e-01,4.15518e-01,-4.13249e-02,-4.88356e-02,-3.98235e-02,-3.98235e-02,-3.98235e-02,-1.63815e-01,-1.46984e-01,8.65087e-02,3.81300e-02,2.07529e-02,4.68094e-03,3.96692e-03,2.99828e-02,2.99828e-02,2.99828e-02,9.86986e-02,4.04161e-02,-1.25013e-01,-6.86637e-02,-1.61336e-01,1.16768e-01,1.13634e-01,1.06124e-01,1.06124e-01,1.06124e-01,-2.85067e-02,-9.17394e-03,1.98840e-02,3.30609e-02,1.16945e-01,1.44443e-01,1.08780e-01,4.04170e-02,4.29649e-02,4.30902e-02,1.18690e-02,-2.63530e-03,4.07576e-02,-4.31903e-02,-9.80069e-02,1.25771e-01,1.73289e-02,3.70748e-02,3.70748e-02,3.70748e-02,6.72884e-02,9.40228e-02,8.39809e-02,-1.71880e-02,-8.54475e-03,-7.33044e-02,-6.27118e-02,-1.05949e-01,-1.05949e-01,-1.05949e-01,-2.21480e-01,-8.64244e-03,-7.17658e-03,-5.28175e-02,-8.69999e-02,-4.13249e-02,-8.67121e-02,-1.19348e-01,-1.19348e-01,-1.19348e-01,-4.45225e-02,-3.11119e-02,-3.48035e-02,-6.40934e-02,-1.25387e-01,4.68094e-03,-3.43372e-02,-1.16635e-01,-1.16635e-01,-1.16635e-01,-9.62925e-02,-4.59693e-02,-3.38448e-02,5.79585e-03,5.68818e-02,1.16768e-01,9.52935e-02,-7.14719e-02,-7.14719e-02,-7.14719e-02,-3.73484e-02,-7.76544e-02,-6.34472e-02,-1.08416e-01,6.34583e-02,9.38301e-02,8.26108e-02,-6.02577e-03,2.35307e-01,5.93571e-02,1.68048e-02,-3.58922e-02,-4.14655e-02,-4.48108e-02,-1.75432e-01,-2.07659e-01,-4.18450e-02,-2.78051e-02,-2.35261e-01,1.25771e-01,-1.14129e-01,-7.70662e-03,-7.70662e-03,-7.70662e-03,-1.62614e-01,-1.51261e-01,9.72692e-02,-1.46508e-01,-1.59651e-01,-7.33044e-02,-6.46464e-02,-9.49723e-02,-9.49723e-02,-9.49723e-02,-1.22909e-01,-7.02497e-02,-1.27824e-01,3.45461e-01,4.15518e-01,-4.13249e-02,-4.88356e-02,-3.98235e-02,-3.98235e-02,-3.98235e-02,-1.63815e-01,-1.46984e-01,8.65087e-02,3.81300e-02,2.07529e-02,4.68094e-03,3.96692e-03,2.99828e-02,2.99828e-02,2.99828e-02,9.86986e-02,4.04161e-02,-1.25013e-01,-6.86637e-02,-1.61336e-01,1.16768e-01,1.13634e-01,1.06124e-01,1.06124e-01,1.06124e-01,-2.85067e-02,-9.17394e-03,1.98840e-02,3.30609e-02,1.16945e-01,5.93571e-02,9.45688e-03,1.33987e-02,1.57614e-02,1.57433e-02,2.92109e-02,7.84242e-02,7.41651e-02,6.23809e-02,-2.26076e-01,1.25771e-01,1.73289e-02,3.70748e-02,3.70748e-02,3.70748e-02,6.72884e-02,9.40228e-02,8.39809e-02,-1.71880e-02,-8.54475e-03,-7.33044e-02,-6.27118e-02,-1.05949e-01,-1.05949e-01,-1.05949e-01,-2.21480e-01,-8.64244e-03,-7.17658e-03,-5.28175e-02,-8.69999e-02,-4.13249e-02,-8.67121e-02,-1.19348e-01,-1.19348e-01,-1.19348e-01,-4.45225e-02,-3.11119e-02,-3.48035e-02,-6.40934e-02,-1.25387e-01,4.68094e-03,-3.43372e-02,-1.16635e-01,-1.16635e-01,-1.16635e-01,-9.62925e-02,-4.59693e-02,-3.38448e-02,5.79585e-03,5.68818e-02,1.16768e-01,9.52935e-02,-7.14719e-02,-7.14719e-02,-7.14719e-02,-3.73484e-02,-7.76544e-02,-6.34472e-02,-1.08416e-01,6.34583e-02,-4.00128e-03,4.22703e-03,1.17327e-03,2.35307e-01,5.31537e-02,-3.00378e-02,-7.03032e-02,-7.76062e-02,-7.55553e-02,-1.92132e-01,-5.40253e-02,1.69332e-01,2.66458e-01,4.64254e-01,1.25771e-01,-1.14129e-01,-7.70662e-03,-7.70662e-03,-7.70662e-03,-1.62614e-01,-1.51261e-01,9.72692e-02,-1.46508e-01,-1.59651e-01,-7.33044e-02,-6.46464e-02,-9.49723e-02,-9.49723e-02,-9.49723e-02,-1.22909e-01,-7.02497e-02,-1.27824e-01,3.45461e-01,4.15518e-01,-4.13249e-02,-4.88356e-02,-3.98235e-02,-3.98235e-02,-3.98235e-02,-1.63815e-01,-1.46984e-01,8.65087e-02,3.81300e-02,2.07529e-02,4.68094e-03,3.96692e-03,2.99828e-02,2.99828e-02,2.99828e-02,9.86986e-02,4.04161e-02,-1.25013e-01,-6.86637e-02,-1.61336e-01,1.16768e-01,1.13634e-01,1.06124e-01,1.06124e-01,1.06124e-01,-2.85067e-02,-9.17394e-03,1.98840e-02,3.30609e-02,1.16945e-01,5.31537e-02,-4.15989e-02,7.17401e-02,6.75370e-02,6.75320e-02,9.24111e-02,1.35116e-01,-2.04979e-02,-1.31680e-01,-4.76436e-01,1.25771e-01,1.73289e-02,3.70748e-02,3.70748e-02,3.70748e-02,6.72884e-02,9.40228e-02,8.39809e-02,-1.71880e-02,-8.54475e-03,-7.33044e-02,-6.27118e-02,-1.05949e-01,-1.05949e-01,-1.05949e-01,-2.21480e-01,-8.64244e-03,-7.17658e-03,-5.28175e-02,-8.69999e-02,-4.13249e-02,-8.67121e-02,-1.19348e-01,-1.19348e-01,-1.19348e-01,-4.45225e-02,-3.11119e-02,-3.48035e-02,-6.40934e-02,-1.25387e-01,4.68094e-03,-3.43372e-02,-1.16635e-01,-1.16635e-01,-1.16635e-01,-9.62925e-02,-4.59693e-02,-3.38448e-02,5.79585e-03,5.68818e-02,1.16768e-01,9.52935e-02,-7.14719e-02,-7.14719e-02,-7.14719e-02,-3.73484e-02,-7.76544e-02,-6.34472e-02,-1.08416e-01,6.34583e-02,-4.51226e-03,-4.84475e-03,-6.96855e-06,2.35307e-01,3.16078e-02,-6.02521e-02,-2.86674e-02,-3.49567e-02,-3.53783e-02,-7.77683e-02,-8.21229e-02,-1.33397e-01,-7.01994e-02,-7.64755e-03,1.25771e-01,-1.14129e-01,-7.70662e-03,-7.70662e-03,-7.70662e-03,-1.62614e-01,-1.51261e-01,9.72692e-02,-1.46508e-01,-1.59651e-01,-7.33044e-02,-6.46464e-02,-9.49723e-02,-9.49723e-02,-9.49723e-02,-1.22909e-01,-7.02497e-02,-1.27824e-01,3.45461e-01,4.15518e-01,-4.13249e-02,-4.88356e-02,-3.98235e-02,-3.98235e-02,-3.98235e-02,-1.63815e-01,-1.46984e-01,8.65087e-02,3.81300e-02,2.07529e-02,4.68094e-03,3.96692e-03,2.99828e-02,2.99828e-02,2.99828e-02,9.86986e-02,4.04161e-02,-1.25013e-01,-6.86637e-02,-1.61336e-01,1.16768e-01,1.13634e-01,1.06124e-01,1.06124e-01,1.06124e-01,-2.85067e-02,-9.17394e-03,1.98840e-02,3.30609e-02,1.16945e-01,3.16078e-02,-1.10801e-02,1.33803e-02,1.37234e-02,1.37249e-02,4.61489e-02,8.99476e-02,6.91773e-02,-1.46678e-01,8.15977e-03,1.25771e-01,1.73289e-02,3.70748e-02,3.70748e-02,3.70748e-02,6.72884e-02,9.40228e-02,8.39809e-02,-1.71880e-02,-8.54475e-03,-7.33044e-02,-6.27118e-02,-1.05949e-01,-1.05949e-01,-1.05949e-01,-2.21480e-01,-8.64244e-03,-7.17658e-03,-5.28175e-02,-8.69999e-02,-4.13249e-02,-8.67121e-02,-1.19348e-01,-1.19348e-01,-1.19348e-01,-4.45225e-02,-3.11119e-02,-3.48035e-02,-6.40934e-02,-1.25387e-01,4.68094e-03,-3.43372e-02,-1.16635e-01,-1.16635e-01,-1.16635e-01,-9.62925e-02,-4.59693e-02,-3.38448e-02,5.79585e-03,5.68818e-02,1.16768e-01,9.52935e-02,-7.14719e-02,-7.14719e-02,-7.14719e-02,-3.73484e-02,-7.76544e-02,-6.34472e-02,-1.08416e-01,6.34583e-02,-6.96855e-06,-6.90941e-06,-6.90941e-06,2.35307e-01,2.18895e-02,-2.24461e-01,-1.50929e-01,-1.55670e-01,-1.52925e-01,-1.77139e-01,-2.12809e-01,-3.53845e-01,-3.77491e-01,-3.87783e-01,1.25771e-01,-1.14129e-01,-7.70662e-03,-7.70662e-03,-7.70662e-03,-1.62614e-01,-1.51261e-01,9.72692e-02,-1.46508e-01,-1.59651e-01,-7.33044e-02,-6.46464e-02,-9.49723e-02,-9.49723e-02,-9.49723e-02,-1.22909e-01,-7.02497e-02,-1.27824e-01,3.45461e-01,4.15518e-01,-4.13249e-02,-4.88356e-02,-3.98235e-02,-3.98235e-02,-3.98235e-02,-1.63815e-01,-1.46984e-01,8.65087e-02,3.81300e-02,2.07529e-02,4.68094e-03,3.96692e-03,2.99828e-02,2.99828e-02,2.99828e-02,9.86986e-02,4.04161e-02,-1.25013e-01,-6.86637e-02,-1.61336e-01,1.16768e-01,1.13634e-01,1.06124e-01,1.06124e-01,1.06124e-01,-2.85067e-02,-9.17394e-03,1.98840e-02,3.30609e-02,1.16945e-01,2.18895e-02,1.82390e-02,-2.65243e-02,-2.62785e-02,-2.62248e-02,1.29725e-03,-1.41943e-01,-8.02577e-02,-2.08207e-01,-3.90508e-02,1.25771e-01,1.73289e-02,3.70748e-02,3.70748e-02,3.70748e-02,6.72884e-02,9.40228e-02,8.39809e-02,-1.71880e-02,-8.54475e-03,-7.33044e-02,-6.27118e-02,-1.05949e-01,-1.05949e-01,-1.05949e-01,-2.21480e-01,-8.64244e-03,-7.17658e-03,-5.28175e-02,-8.69999e-02,-4.13249e-02,-8.67121e-02,-1.19348e-01,-1.19348e-01,-1.19348e-01,-4.45225e-02,-3.11119e-02,-3.48035e-02,-6.40934e-02,-1.25387e-01,4.68094e-03,-3.43372e-02,-1.16635e-01,-1.16635e-01,-1.16635e-01,-9.62925e-02,-4.59693e-02,-3.38448e-02,5.79585e-03,5.68818e-02,1.16768e-01,9.52935e-02,-7.14719e-02,-7.14719e-02,-7.14719e-02,-3.73484e-02,-7.76544e-02,-6.34472e-02,-1.08416e-01,6.34583e-02,-3.48886e-34,-3.48886e-34,-3.15623e-40,2.35307e-01,-8.64152e-02,-2.04248e-02,1.51234e-01,1.46376e-01,1.49429e-01,2.23422e-01,2.02169e-01,2.10360e-01,2.22693e-01,4.23848e-01,1.25771e-01,-1.14129e-01,-7.70662e-03,-7.70662e-03,-7.70662e-03,-1.62614e-01,-1.51261e-01,9.72692e-02,-1.46508e-01,-1.59651e-01,-7.33044e-02,-6.46464e-02,-9.49723e-02,-9.49723e-02,-9.49723e-02,-1.22909e-01,-7.02497e-02,-1.27824e-01,3.45461e-01,4.15518e-01,-4.13249e-02,-4.88356e-02,-3.98235e-02,-3.98235e-02,-3.98235e-02,-1.63815e-01,-1.46984e-01,8.65087e-02,3.81300e-02,2.07529e-02,4.68094e-03,3.96692e-03,2.99828e-02,2.99828e-02,2.99828e-02,9.86986e-02,4.04161e-02,-1.25013e-01,-6.86637e-02,-1.61336e-01,1.16768e-01,1.13634e-01,1.06124e-01,1.06124e-01,1.06124e-01,-2.85067e-02,-9.17394e-03,1.98840e-02,3.30609e-02,1.16945e-01,-8.64152e-02,-2.04459e-01,-2.48918e-01,-2.50494e-01,-2.50461e-01,-2.24660e-01,-5.79326e-02,-8.78245e-02,-2.37412e-01,-3.14279e-02,1.25771e-01,1.73289e-02,3.70748e-02,3.70748e-02,3.70748e-02,6.72884e-02,9.40228e-02,8.39809e-02,-1.71880e-02,-8.54475e-03,-7.33044e-02,-6.27118e-02,-1.05949e-01,-1.05949e-01,-1.05949e-01,-2.21480e-01,-8.64244e-03,-7.17658e-03,-5.28175e-02,-8.69999e-02,-4.13249e-02,-8.67121e-02,-1.19348e-01,-1.19348e-01,-1.19348e-01,-4.45225e-02,-3.11119e-02,-3.48035e-02,-6.40934e-02,-1.25387e-01,4.68094e-03,-3.43372e-02,-1.16635e-01,-1.16635e-01,-1.16635e-01,-9.62925e-02,-4.59693e-02,-3.38448e-02,5.79585e-03,5.68818e-02,1.16768e-01,9.52935e-02,-7.14719e-02,-7.14719e-02,-7.14719e-02,-3.73484e-02,-7.76544e-02,-6.34472e-02,-1.08416e-01,6.34583e-02,-3.07123e-40,-3.42107e-40,-3.15645e-40,2.35307e-01,1.73909e-01,1.02138e-01,5.23032e-02,5.44670e-02,5.60030e-02,1.93068e-02,-6.78869e-03,-1.10588e-01,-1.74081e-01,-1.17362e-01,1.83492e-01,6.11991e-03,1.27142e-01,1.27142e-01,1.27142e-01,-3.97909e-02,-3.15247e-02,8.71160e-02,-1.36182e-01,-1.70563e-01,1.22509e-02,-4.15643e-02,-1.21945e-01,-1.21945e-01,-1.21945e-01,-1.54219e-01,-1.26659e-01,-1.51939e-01,3.55890e-01,4.34778e-01,-1.45883e-01,-1.11417e-01,-8.41681e-02,-8.41681e-02,-8.41681e-02,-2.14019e-01,-2.01034e-01,4.66749e-02,-1.57106e-02,3.41040e-02,7.07814e-02,5.30006e-02,7.92328e-02,7.92328e-02,7.92328e-02,1.63615e-01,1.00416e-01,-9.44322e-02,2.83533e-02,-1.53967e-01,9.41550e-02,9.53648e-02,8.34328e-02,8.34328e-02,8.34328e-02,-5.95707e-02,-2.62066e-02,2.13161e-02,3.16084e-02,1.33073e-01,1.73909e-01,1.89277e-01,2.17434e-01,2.15364e-01,2.15373e-01,2.41515e-01,2.25516e-01,1.45712e-01,1.44175e-02,2.88726e-01,1.83492e-01,8.02032e-02,6.68845e-02,6.68845e-02,6.68845e-02,8.01258e-02,1.02809e-01,1.05019e-01,-7.50807e-03,-8.96032e-03,1.22509e-02,8.53156e-02,4.86493e-02,4.86493e-02,4.86493e-02,-1.56796e-02,5.52521e-02,4.58398e-02,3.19861e-02,2.73996e-02,-1.45883e-01,-1.72142e-01,-1.95164e-01,-1.95164e-01,-1.95164e-01,-1.19152e-01,-6.51487e-02,-8.11482e-02,-1.18400e-01,-1.29401e-01,7.07814e-02,1.29834e-02,-7.98267e-02,-7.98267e-02,-7.98267e-02,-7.19960e-02,-1.92247e-02,-8.88993e-03,2.11484e-02,5.17966e-02,9.41550e-02,4.16901e-02,-5.28375e-02,-5.28375e-02,-5.28375e-02,-5.36709e-02,-8.63961e-02,-6.55758e-02,-1.03573e-01,4.11669e-02,3.32569e-40,-3.21043e-40,-3.45824e-40,2.35307e-01,-1.32095e-01,7.75849e-02,9.61469e-02,9.90358e-02,9.91224e-02,1.13256e-01,1.63132e-01,6.28152e-02,9.59099e-03,2.35594e-02,2.02326e-01,-1.30995e-01,3.60866e-02,3.60866e-02,3.60866e-02,-2.17171e-01,-2.18085e-01,-1.81616e-01,-1.30403e-01,-1.88012e-01,-5.70207e-02,-1.14573e-01,-2.17464e-01,-2.17464e-01,-2.17464e-01,-2.38375e-01,-1.99542e-01,-2.34546e-01,-3.77430e-02,-1.98843e-02,-2.69432e-01,-2.25850e-01,-1.80763e-01,-1.80763e-01,-1.80763e-01,-3.23299e-01,-3.37300e-01,-6.46418e-02,-6.12115e-02,4.32643e-02,8.80369e-02,7.99299e-02,8.73884e-02,8.73884e-02,8.73884e-02,1.68381e-01,7.78753e-02,-1.29647e-01,3.85929e-02,-1.44646e-01,1.58081e-01,1.20991e-01,1.32884e-01,1.32884e-01,1.32884e-01,-3.76493e-02,-1.42526e-03,3.29714e-02,3.09415e-02,1.17231e-01,-1.32095e-01,-2.03272e-01,-1.93847e-01,-1.91952e-01,-1.91952e-01,-1.73877e-01,4.54967e-02,8.83862e-02,7.95589e-02,3.52059e-01,2.02326e-01,9.70051e-02,1.14982e-01,1.14982e-01,1.14982e-01,1.22145e-01,1.38889e-01,1.64757e-01,6.56242e-03,1.71285e-03,-5.70207e-02,7.97032e-02,9.08204e-03,9.08204e-03,9.08204e-03,-3.55045e-02,3.49548e-03,-8.68955e-03,1.34437e-02,3.57432e-02,-2.69432e-01,-2.60392e-01,-2.45240e-01,-2.45240e-01,-2.45240e-01,-1.77157e-01,-1.25479e-01,-1.21308e-01,-1.03242e-01,-1.09216e-01,8.80369e-02,2.52201e-02,-6.88043e-02,-6.88043e-02,-6.88043e-02,-7.16178e-02,-2.69732e-02,-9.36019e-03,6.01198e-05,3.91836e-02,1.58081e-01,9.01312e-02,-2.66389e-02,-2.66389e-02,-2.66389e-02,-2.26998e-02,-6.85905e-02,-6.06460e-02,-8.66992e-02,5.00552e-02,-3.09394e-40,-3.27642e-40,-3.30608e-40,2.35307e-01,-1.47713e-01,-1.11911e-01,1.41122e-01,1.33196e-01,1.33186e-01,1.17137e-01,1.01451e-01,1.26389e-01,1.90292e-01,3.37648e-01,2.28334e-01,-5.81149e-02,6.90882e-02,6.90882e-02,6.90882e-02,-2.26763e-01,-2.14524e-01,-1.91834e-01,-1.21045e-01,-2.05746e-01,-1.50373e-01,-8.91495e-02,-1.43135e-01,-1.43135e-01,-1.43135e-01,-1.53334e-01,-1.27486e-01,-1.95491e-01,-1.04143e-01,-1.33475e-02,-2.58235e-01,-2.11036e-01,-1.70863e-01,-1.70863e-01,-1.70863e-01,-3.52366e-01,-2.80878e-01,2.45205e-02,4.96890e-02,4.89508e-02,3.90392e-02,2.74576e-02,-2.77592e-02,-2.77592e-02,-2.77592e-02,6.31612e-02,8.04147e-02,-9.42424e-02,1.23514e-01,1.09283e-01,1.43500e-01,1.05639e-01,1.58661e-01,1.58661e-01,1.58661e-01,-3.54342e-02,-3.21944e-02,2.73272e-02,2.18805e-02,1.08192e-01,-1.47713e-01,-2.58898e-01,-2.60542e-01,-2.62179e-01,-2.62179e-01,-2.50971e-01,-1.12936e-01,-1.54943e-01,-2.42214e-01,-1.05653e-01,2.28334e-01,1.00828e-01,1.00818e-01,1.00818e-01,1.00818e-01,1.41077e-01,1.48653e-01,1.67253e-01,-1.47828e-02,7.73493e-03,-1.50373e-01,-1.44211e-02,-9.49065e-02,-9.49065e-02,-9.49065e-02,-2.23389e-01,-2.53246e-01,-2.48749e-01,-2.44124e-01,-2.10781e-01,-2.58235e-01,-2.14452e-01,-2.33102e-01,-2.33102e-01,-2.33102e-01,-1.81238e-01,-1.44904e-01,-1.45983e-01,-1.27917e-01,-1.00670e-01,3.90392e-02,4.43097e-02,-1.67331e-02,-1.67331e-02,-1.67331e-02,-2.44852e-02,5.56491e-03,2.67254e-02,7.39360e-02,7.17180e-02,1.43500e-01,5.92229e-02,-6.92212e-02,-6.92212e-02,-6.92212e-02,-6.57041e-02,-8.36044e-02,-7.01032e-02,-1.14023e-01,4.71728e-02,3.41492e-40,-3.14201e-40,3.45487e-40,2.35307e-01,-1.42397e-01,-1.81629e-01,1.22887e-01,1.30114e-01,1.31105e-01,1.29609e-01,1.66262e-01,1.19553e-01,1.10283e-01,1.19222e-01,6.35622e-02,-5.93783e-02,1.26158e-01,1.26158e-01,1.26158e-01,-3.55472e-01,-3.46149e-01,-1.84874e-01,9.58805e-03,-1.24995e-02,-2.85731e-02,-5.01822e-02,-1.14768e-01,-1.14768e-01,-1.14768e-01,-9.97387e-02,-9.07476e-02,-1.44491e-01,-2.13008e-02,-6.32749e-03,-1.94678e-01,-1.04461e-01,-6.56411e-02,-6.56411e-02,-6.56411e-02,-3.04624e-01,-2.82706e-01,4.76180e-01,5.34591e-01,-1.66183e-02,3.08069e-02,4.55368e-02,-2.69953e-02,-2.69953e-02,-2.69953e-02,4.59650e-02,4.19174e-02,-2.27082e-01,-3.69293e-02,-1.67377e-02,4.81686e-02,-6.51342e-04,1.24354e-01,1.24354e-01,1.24354e-01,-4.19762e-02,-4.40856e-02,2.52907e-02,7.31210e-03,-4.92608e-03,-1.42397e-01,-2.33479e-01,-2.84905e-01,-2.85160e-01,-2.85160e-01,-2.41864e-01,-2.77990e-01,-2.93893e-01,-2.98710e-01,-2.53152e-01,6.35622e-02,-1.59892e-01,-2.18204e-02,-2.18204e-02,-2.18204e-02,1.29535e-02,3.49990e-02,8.25468e-02,-7.01478e-02,-3.57597e-02,-2.85731e-02,8.02423e-02,5.56204e-02,5.56204e-02,5.56204e-02,1.53806e-01,1.64676e-02,3.67347e-02,5.82878e-02,7.37387e-02,-1.94678e-01,-2.00908e-01,-1.66671e-01,-1.66671e-01,-1.66671e-01,-5.82260e-02,2.09809e-02,3.03801e-02,3.44379e-02,7.94600e-02,3.08069e-02,2.93336e-02,2.23193e-03,2.23193e-03,2.23193e-03,-5.80908e-03,4.00258e-02,6.53734e-02,6.72466e-02,3.97598e-02,4.81686e-02,-1.09416e-01,-1.02410e-01,-1.02410e-01,-1.02410e-01,-1.09255e-01,-1.31427e-01,-1.15682e-01,-1.09874e-01,5.95814e-02,3.16210e-40,3.19006e-40,3.34292e-40,2.35307e-01,-7.53029e-02,-1.10824e-01,3.51250e-02,3.29753e-02,3.18385e-02,6.27450e-02,1.48738e-01,7.55590e-02,1.14995e-01,8.04242e-02,1.37583e-01,7.44633e-02,1.66011e-01,1.66011e-01,1.66011e-01,-4.23245e-01,-4.13754e-01,-1.97826e-01,-1.20315e-02,-1.39077e-02,-1.33133e-01,-1.27989e-01,-2.34396e-01,-2.34396e-01,-2.34396e-01,-1.78984e-01,-1.61294e-01,-1.33507e-01,-8.50854e-03,-2.30389e-03,-3.74858e-01,-2.39307e-01,-2.73001e-01,-2.73001e-01,-2.73001e-01,-1.55589e-01,-1.40729e-01,4.89358e-01,5.44220e-01,-2.22640e-03,-5.31733e-02,-5.01672e-02,-7.74061e-02,-7.74061e-02,-7.74061e-02,1.48103e-02,1.77830e-02,-1.97812e-01,-4.44230e-03,9.14350e-03,4.78988e-02,4.99128e-02,5.42571e-02,5.42571e-02,5.42571e-02,-2.18479e-01,-2.12667e-01,1.73382e-02,7.15140e-03,-1.36261e-03,-7.53029e-02,-1.15906e-01,-9.58879e-02,-9.56285e-02,-9.56285e-02,-5.38797e-02,7.27407e-03,-2.70489e-02,3.32525e-02,-4.58700e-02,1.37583e-01,-5.21751e-02,4.07011e-02,4.07011e-02,4.07011e-02,5.95680e-02,1.08764e-01,9.27930e-02,-2.94451e-02,-2.43217e-02,-1.33133e-01,-1.73456e-02,2.03228e-02,2.03228e-02,2.03228e-02,1.28185e-01,2.61000e-02,2.84422e-02,1.23739e-03,1.43671e-02,-3.74858e-01,-4.05111e-01,-2.03804e-01,-2.03804e-01,-2.03804e-01,-1.31892e-01,-1.05595e-02,1.06603e-03,1.15277e-02,2.98374e-03,-5.31733e-02,3.79584e-02,1.05601e-01,1.05601e-01,1.05601e-01,5.98780e-02,1.30267e-02,8.60693e-03,6.83057e-03,-4.36000e-03,4.78988e-02,-1.02587e-01,-2.24968e-02,-2.24968e-02,-2.24968e-02,-5.62530e-03,-1.62537e-02,1.28728e-03,5.33308e-03,1.03420e-03,-3.33440e-40,-3.19649e-40,3.39591e-40,2.35307e-01,-3.84790e-02,-9.71564e-04,1.22343e-01,1.22295e-01,1.23815e-01,1.30182e-01,2.17655e-01,4.67834e-02,4.25779e-02,1.53290e-01,-3.11535e-40,-3.26463e-40,3.08713e-40,-3.35388e-40,3.36162e-40,3.15317e-40,-3.47696e-40,3.31281e-40,3.06035e-40,-3.27558e-40,3.37211e-40,-3.32169e-40,-3.27036e-40,-3.47418e-40,3.17966e-40,3.13947e-40,-3.12590e-40,3.07005e-40,3.36885e-40,-3.36096e-40,-3.08401e-40,-3.14782e-40,-3.29944e-40,-3.46751e-40,-3.38879e-40,3.12129e-40,3.44725e-40,3.37301e-40,-3.43898e-40,3.40375e-40,3.40289e-40,-3.37657e-40,3.48919e-40,3.34424e-40,-3.46349e-40,-3.22805e-40,3.37679e-40,3.39088e-40,3.13948e-40,-3.19092e-40,-3.30472e-40,-3.11773e-40,-3.21001e-40,3.25313e-40,-3.16594e-40,3.37770e-40,3.09789e-40,3.11772e-40,-3.46834e-40,3.09185e-40,-3.84790e-02,-5.05359e-02,-7.57160e-02,-7.57832e-02,-7.57832e-02,-4.45859e-02,6.16787e-02,-6.83432e-03,5.19028e-02,-1.27962e-01,-3.10058e-40,-3.23892e-40,3.34191e-40,3.33393e-40,3.27370e-40,3.07207e-40,-3.25014e-40,-3.33019e-40,3.22060e-40,3.28746e-40,3.08758e-40,-3.44754e-40,-3.24765e-40,3.26738e-40,3.17468e-40,-3.26210e-40,-3.47550e-40,-3.07561e-40,3.34417e-40,-3.06412e-40,3.39020e-40,3.14910e-40,-3.47570e-40,3.42141e-40,3.27555e-40,3.27385e-40,3.25428e-40,3.41984e-40,-3.06572e-40,3.05974e-40,3.21796e-40,-3.42989e-40,-3.37249e-40,-3.33510e-40,-3.09017e-40,-3.44860e-40,3.43734e-40,-3.09999e-40,-3.29294e-40,3.35221e-40,-3.32967e-40,3.36344e-40,-3.31613e-40,3.16988e-40,3.47533e-40,3.35490e-40,3.44373e-40,3.40168e-40,-3.42343e-40,3.46995e-40,3.21437e-40,-3.37021e-40,-3.32301e-40,2.35307e-01,8.86037e-03,-8.15601e-03,1.43623e-01,1.45101e-01,1.44561e-01,9.57872e-02,3.81553e-02,6.47279e-02,7.99139e-02,1.80539e-01,-3.45176e-40,3.25091e-40,3.16501e-40,3.10840e-40,3.38167e-40,-3.33976e-40,-3.41070e-40,3.42273e-40,3.40345e-40,3.48036e-40,3.13982e-40,-3.10301e-40,-3.42801e-40,3.07507e-40,3.40364e-40,3.43066e-40,-3.18878e-40,3.29889e-40,3.22660e-40,3.32478e-40,3.16075e-40,-3.33056e-40,-3.26020e-40,-3.26050e-40,3.11974e-40,3.15481e-40,3.17481e-40,-3.09363e-40,-3.17929e-40,-3.15218e-40,3.37782e-40,-3.37232e-40,3.06957e-40,3.43063e-40,-3.41758e-40,3.47253e-40,3.35074e-40,3.06918e-40,3.44001e-40,-3.09510e-40,-3.27608e-40,-3.25045e-40,-3.11391e-40,-3.20768e-40,-3.10005e-40,3.33145e-40,3.17466e-40,3.36909e-40,3.12240e-40,-3.25576e-40,8.86037e-03,-5.84923e-02,-1.31579e-01,-1.31710e-01,-1.31710e-01,-1.05663e-01,-5.90787e-02,-7.89732e-02,-1.27185e-01,-5.56271e-02,-3.36953e-40,-3.36020e-40,-3.48908e-40,-3.48381e-40,-3.40364e-40,3.20833e-40,-3.39658e-40,-3.44033e-40,3.15415e-40,3.49971e-40,3.43764e-40,3.12134e-40,-3.22182e-40,3.45144e-40,3.07592e-40,-3.33386e-40,3.33651e-40,-3.26292e-40,3.15560e-40,3.33547e-40,-3.12830e-40,3.33522e-40,3.20008e-40,-3.13693e-40,3.08113e-40,3.24473e-40,-3.24660e-40,3.28410e-40,3.39144e-40,-3.34872e-40,-3.11835e-40,3.36073e-40,3.28410e-40,3.43545e-40,3.16455e-40,-3.10706e-40,-3.49865e-40,-3.36173e-40,-3.17770e-40,-3.33386e-40,3.27911e-40,3.06502e-40,-3.43342e-40,-3.10224e-40,3.15181e-40,-3.43252e-40,3.21091e-40,3.15504e-40,3.35710e-40,3.35349e-40,3.27918e-40,3.39448e-40,-3.13227e-40,2.35307e-01,5.21978e-02,-2.85028e-02,1.25012e-01,1.25371e-01,1.25704e-01,5.04888e-02,2.14784e-02,-9.24199e-03,-2.15137e-02,3.54880e-02,3.46446e-40,3.45791e-40,-3.30734e-40,3.18570e-40,3.49773e-40,3.33554e-40,3.07050e-40,-3.36565e-40,-3.22503e-40,3.21263e-40,-3.27793e-40,3.08433e-40,3.36268e-40,-3.42978e-40,3.40387e-40,3.24267e-40,3.47853e-40,-3.16563e-40,3.43055e-40,3.07652e-40,-3.49575e-40,-3.26134e-40,-3.06641e-40,-3.45555e-40,-3.05867e-40,3.13866e-40,3.18512e-40,3.48469e-40,3.16563e-40,-3.14352e-40,-3.34643e-40,3.25899e-40,3.25149e-40,-3.15465e-40,3.39425e-40,3.40182e-40,3.43425e-40,3.47610e-40,3.29073e-40,-3.24630e-40,3.30755e-40,-3.17136e-40,3.35150e-40,-3.08315e-40,-3.11006e-40,3.22900e-40,-3.09889e-40,-3.45480e-40,-3.40459e-40,3.35682e-40,5.21978e-02,-1.97052e-02,-2.99625e-02,-2.99623e-02,-2.99623e-02,-5.27672e-02,-5.43376e-03,-3.20702e-02,-4.78800e-02,-9.42775e-02,-3.27737e-40,-3.16769e-40,-3.31247e-40,-3.11862e-40,-3.22691e-40,-3.24909e-40,3.28292e-40,-3.39160e-40,3.27446e-40,3.40960e-40,3.12219e-40,-3.05923e-40,-3.09890e-40,3.47865e-40,3.44980e-40,3.48251e-40,3.21797e-40,-3.09515e-40,3.41892e-40,3.08150e-40,3.11493e-40,-3.22306e-40,3.42459e-40,3.42867e-40,-3.06970e-40,3.24350e-40,-3.27940e-40,-3.28656e-40,-3.49855e-40,3.29873e-40,3.42348e-40,3.39809e-40,-3.18442e-40,3.29173e-40,3.15795e-40,3.34379e-40,3.38011e-40,3.32476e-40,3.17031e-40,3.14356e-40,3.44548e-40,-3.28513e-40,3.43935e-40,-3.47455e-40,3.13665e-40,3.48981e-40,-3.47844e-40,3.36177e-40,-3.42346e-40,3.22039e-40,3.11951e-40,-3.14572e-40,3.46422e-40,2.35307e-01,2.08577e-01,8.15574e-02,1.08723e-01,1.08585e-01,1.08585e-01,1.36627e-02,8.15082e-03,3.68399e-02,4.83187e-02,5.34917e-02,3.14161e-40,3.44946e-40,3.18865e-40,3.08455e-40,-3.08492e-40,3.43475e-40,3.26381e-40,-3.23249e-40,-3.36715e-40,-3.19653e-40,-3.49091e-40,-3.06740e-40,3.09268e-40,3.23759e-40,3.20930e-40,-3.10148e-40,-3.45647e-40,-3.09271e-40,-3.32040e-40,-3.07547e-40,3.40765e-40,3.19995e-40,-3.13587e-40,3.42018e-40,3.36390e-40,-3.13934e-40,-3.38823e-40,-3.17550e-40,-3.42421e-40,-3.17855e-40,3.46348e-40,3.13542e-40,-3.40234e-40,3.49390e-40,-3.11433e-40,3.17990e-40,3.45538e-40,3.42082e-40,-3.22903e-40,-3.28836e-40,-3.23253e-40,3.21043e-40,-3.14726e-40,-3.24672e-40,-3.29211e-40,3.49024e-40,-3.10598e-40,-3.15249e-40,3.19404e-40,-3.15839e-40,2.08577e-01,1.99710e-01,1.94367e-01,1.94367e-01,1.94367e-01,1.65093e-01,9.51108e-02,7.36595e-02,-2.29058e-02,3.04753e-02,-3.37881e-40,3.14733e-40,-3.34152e-40,-3.30391e-40,-3.15257e-40,3.18987e-40,3.06107e-40,3.20316e-40,3.24577e-40,3.24375e-40,3.38070e-40,3.14617e-40,3.43086e-40,-3.43269e-40,3.45057e-40,3.37859e-40,3.39884e-40,3.17774e-40,-3.08999e-40,-3.31818e-40,-3.18714e-40,-3.07173e-40,3.46715e-40,-3.35929e-40,3.42522e-40,-3.30982e-40,3.06084e-40,3.08950e-40,3.38823e-40,3.27360e-40,-3.39451e-40,3.45358e-40,-3.11056e-40,-3.32272e-40,3.49871e-40,3.43441e-40,3.36547e-40,-3.43629e-40,-3.11671e-40,3.29138e-40,3.23509e-40,3.45983e-40,-3.38967e-40,-3.44980e-40,3.28834e-40,-3.35814e-40,-3.18249e-40,3.25108e-40,3.15784e-40,3.22067e-40,3.07898e-40,3.37430e-40,3.23502e-40,2.35307e-01,-3.46880e-40,-3.40883e-40,-3.24628e-40,-3.19950e-40,-3.23522e-40,-3.19804e-40,-3.09175e-40,-3.34934e-40,3.32373e-40,3.33803e-40,-3.10142e-40,-3.49225e-40,-3.32577e-40,-3.37703e-40,3.17047e-40,-3.13686e-40,-3.28068e-40,-3.22541e-40,3.25709e-40,3.15481e-40,3.33702e-40,3.27018e-40,3.22328e-40,3.31380e-40,-3.45280e-40,3.28938e-40,3.45434e-40,3.20742e-40,3.30227e-40,3.34250e-40,-3.29417e-40,3.41852e-40,-3.31790e-40,-3.31229e-40,3.15259e-40,-3.25209e-40,-3.29082e-40,-3.24598e-40,-3.12499e-40,3.32755e-40,-3.48488e-40,-3.21702e-40,-3.15996e-40,-3.13867e-40,-3.19782e-40,-3.17607e-40,3.16869e-40,3.35869e-40,-3.10138e-40,3.19722e-40,3.34382e-40,3.39682e-40,3.19133e-40,-3.45647e-40,-3.18287e-40,-3.10203e-40,3.16144e-40,3.07446e-40,3.19240e-40,-3.12446e-40,-3.34675e-40,3.38471e-40,3.18566e-40,3.40752e-40,3.27490e-40,-3.15495e-40,3.11858e-40,3.39784e-40,-3.19011e-40,3.37194e-40,3.12738e-40,3.26224e-40,3.26980e-40,3.20321e-40,-3.25859e-40,3.15638e-40,-3.06521e-40,3.45566e-40,3.33904e-40,-3.09589e-40,3.19032e-40,3.08759e-40,-3.18899e-40,3.09527e-40,3.43472e-40,3.32408e-40,-3.35626e-40,3.38157e-40,-3.07452e-40,3.47226e-40,-3.45092e-40,3.23202e-40,-3.46611e-40,-3.45308e-40,-3.15104e-40,-3.30938e-40,3.23736e-40,-3.42445e-40,-3.07051e-40,3.13037e-40,-3.46705e-40,3.26091e-40,3.23769e-40,3.23163e-40,3.38241e-40,-3.40989e-40,-3.10978e-40,3.18173e-40,-3.42009e-40,3.28128e-40,3.17083e-40,3.40308e-40,-3.43775e-40,3.32311e-40,-3.30999e-40,-3.06751e-40,3.22209e-40,3.43534e-40,-3.06516e-40,3.07945e-40,3.32703e-40,-3.11437e-40,-3.37468e-40,2.35307e-01,
1.07130e+00,-1.56616e-02,-4.57492e-01,-4.32029e-01,-4.19260e-01,-6.32756e-01,-5.86464e-01,-8.18613e-01,-1.07505e+00,-5.10121e-01,3.24316e-01,2.02509e-02,-9.05534e-02,-9.05534e-02,-9.05534e-02,2.26665e-02,6.07281e-02,-1.61289e-01,-4.58302e-02,8.80133e-02,3.75611e-01,9.14292e-02,-1.52725e-02,-1.52725e-02,-1.52725e-02,-5.16013e-02,-5.71992e-02,5.94071e-02,-2.17494e-01,-2.77311e-01,4.22158e-01,4.38930e-02,1.29648e-02,1.29648e-02,1.29648e-02,4.53399e-02,1.71041e-01,1.08461e-01,4.15749e-01,-2.65116e-01,8.85525e-01,2.92914e-01,2.99062e-01,2.99062e-01,2.99062e-01,1.96453e-01,2.61666e-01,2.69181e-01,-1.68250e-02,-2.22558e-01,4.22738e-01,-3.91725e-02,-2.41452e-02,-2.41452e-02,-2.41452e-02,7.00900e-02,7.40702e-02,5.76577e-02,-1.29429e-02,-2.04772e-01,1.07130e+00,-2.68953e-01,-6.22648e-01,-5.89063e-01,-5.76654e-01,-8.51030e-01,-8.80155e-01,-9.36547e-01,-1.21716e+00,-8.19049e-01,3.24316e-01,1.74426e-01,5.73952e-02,5.73952e-02,5.73952e-02,1.29702e-01,1.07906e-01,-6.34822e-02,-7.71183e-02,-2.52065e-01,3.75611e-01,-5.59534e-02,1.54779e-02,1.54779e-02,1.54779e-02,-3.92721e-03,-2.14259e-01,-2.24199e-01,-3.12080e-01,-2.84215e-01,4.22158e-01,-3.05310e-02,6.17149e-02,6.17149e-02,6.17149e-02,-3.97325e-02,-1.17527e-02,2.72552e-02,-8.91408e-02,-1.26615e-01,8.85525e-01,1.83656e-01,2.92962e-01,2.92962e-01,2.92962e-01,7.03231e-02,5.89987e-02,-3.89800e-02,-9.97901e-02,-1.53227e-01,4.22738e-01,6.75266e-02,1.05573e-02,1.05573e-02,1.05573e-02,-3.24758e-02,-8.75669e-02,-9.54304e-02,-3.48760e-02,-1.09855e-01,-1.73869e-01,-2.28359e-01,7.41227e-02,-2.22028e-01,8.23363e-01,-1.21509e-02,-1.78216e-01,-1.69102e-01,-1.69516e-01,-1.66731e-01,-1.34823e-01,-1.13382e-01,-4.17690e-01,-9.90066e-02,3.07838e-01,3.07616e-02,-1.43849e-01,-1.43849e-01,-1.43849e-01,1.06289e-02,2.58561e-03,-2.74438e-01,-6.16456e-02,7.41028e-02,3.24166e-01,1.01713e-01,-1.75926e-02,-1.75926e-02,-1.75926e-02,-1.20450e-02,-1.97045e-02,7.28405e-02,-1.85959e-01,-2.18414e-01,3.75733e-01,7.25893e-02,3.73678e-02,3.73678e-02,3.73678e-02,1.22095e-01,2.60156e-01,2.39485e-01,3.92235e-01,-9.15232e-03,4.42378e-01,3.41328e-02,2.28409e-02,2.28409e-02,2.28409e-02,2.35714e-02,1.05732e-01,1.01070e-01,2.70734e-02,-1.17777e-01,3.20600e-01,-4.15381e-02,-1.56459e-02,-1.56459e-02,-1.56459e-02,6.96675e-02,1.29153e-01,1.59251e-01,1.57307e-01,-3.73626e-02,8.23363e-01,1.72984e-01,2.58867e-02,3.64847e-02,4.17388e-02,8.04083e-03,-3.08623e-02,-2.88952e-01,-5.47261e-01,-5.53822e-01,3.07838e-01,1.98687e-01,7.84535e-02,7.84535e-02,7.84535e-02,1.17064e-01,9.76571e-02,1.08787e-02,-3.56772e-02,-1.39109e-01,3.24166e-01,-1.03276e-01,-1.32113e-02,-1.32113e-02,-1.32113e-02,-3.80339e-02,-1.93928e-01,-2.22213e-01,-3.25958e-01,-3.17670e-01,3.75733e-01,3.87522e-02,1.58998e-02,1.58998e-02,1.58998e-02,-2.82015e-02,-1.01302e-02,4.06076e-02,-5.80974e-02,-1.10336e-01,4.42378e-01,-5.72103e-02,2.53205e-02,2.53205e-02,2.53205e-02,-1.81202e-02,1.54999e-01,1.34553e-01,-3.69801e-02,-1.79532e-01,3.20600e-01,-1.04425e-02,-7.70535e-02,-7.70535e-02,-7.70535e-02,-6.35368e-02,-5.97253e-02,-2.34909e-02,3.87875e-02,-6.78709e-02,1.12350e-01,4.72595e-02,2.90763e-02,-2.22028e-01,3.67969e-01,-5.87200e-02,-2.19623e-01,-2.15170e-01,-2.16611e-01,-1.24609e-01,-8.14829e-02,-2.37738e-01,-2.03259e-01,-9.23889e-02,2.90373e-01,6.90889e-03,-1.51634e-01,-1.51634e-01,-1.51634e-01,4.34786e-02,2.75034e-02,-2.83927e-01,-7.39636e-02,8.08296e-02,3.09799e-01,1.38092e-01,-5.69917e-02,-5.69917e-02,-5.69917e-02,-1.49897e-02,6.45712e-03,3.55150e-02,-2.09008e-01,-2.12906e-01,3.42380e-01,1.18036e-01,4.48343e-02,4.48343e-02,4.48343e-02,1.44231e-01,3.41839e-01,3.92001e-01,4.41016e-01,-1.95634e-02,3.37098e-01,1.90424e-02,-8.74035e-02,-8.74035e-02,-8.74035e-02,-4.73620e-02,9.28170e-02,9.07698e-02,-6.44683e-02,-1.00580e-01,2.36210e-01,3.17812e-02,-6.45906e-02,-6.45906e-02,-6.45906e-02,2.08725e-02,2.63423e-02,3.65982e-02,7.60153e-02,-7.70525e-02,3.67969e-01,-1.11151e-01,-2.44059e-01,-2.35660e-01,-2.32587e-01,-1.27910e-01,-1.53753e-01,-2.95637e-01,-4.72637e-01,-3.84193e-01,2.90373e-01,2.28027e-01,7.33546e-02,7.33546e-02,7.33546e-02,6.84265e-02,4.01795e-02,-4.11224e-02,-6.25002e-02,-9.39494e-02,3.09799e-01,2.93213e-02,3.45339e-02,3.45339e-02,3.45339e-02,1.72350e-02,-1.64095e-01,-1.45438e-01,-2.22094e-01,-2.86723e-01,3.42380e-01,-8.01231e-03,1.14091e-02,1.14091e-02,1.14091e-02,-6.99252e-02,-5.62561e-02,-8.01283e-03,-9.66103e-02,-1.22831e-01,3.37098e-01,-4.49033e-02,-6.47306e-03,-6.47306e-03,-6.47306e-03,-2.91143e-02,1.26378e-01,8.21765e-02,-4.62097e-02,-2.44531e-01,2.36210e-01,2.80563e-03,-1.37054e-01,-1.37054e-01,-1.37054e-01,-1.06433e-01,-6.78297e-02,-1.75665e-01,3.78356e-02,-1.62187e-01,4.42588e-02,3.45153e-02,-1.35464e-01,-2.22028e-01,2.97617e-01,-8.80500e-02,-1.39250e-01,-1.36030e-01,-1.35525e-01,-4.72778e-02,-2.50663e-02,-7.21806e-02,2.22041e-02,3.09556e-01,1.41815e-01,-8.78575e-02,-1.98623e-01,-1.98623e-01,-1.98623e-01,3.95130e-02,2.65825e-02,-2.61027e-01,1.14647e-02,2.16837e-01,2.46579e-01,6.52147e-02,-5.10825e-02,-5.10825e-02,-5.10825e-02,-3.21921e-02,5.58995e-03,8.51444e-02,-2.06359e-01,-1.91132e-01,2.85416e-01,6.95835e-02,-2.87798e-02,-2.87798e-02,-2.87798e-02,1.20149e-01,1.32090e-01,2.27102e-02,3.46877e-02,-8.92987e-02,1.88937e-01,-3.45506e-02,-1.72518e-01,-1.72518e-01,-1.72518e-01,-1.40526e-01,-6.36797e-02,1.03685e-02,-1.15759e-01,5.03515e-02,1.78609e-01,-2.45745e-02,-1.21144e-01,-1.21144e-01,-1.21144e-01,8.51195e-03,-9.38380e-03,5.07221e-02,1.21973e-01,-6.29256e-02,2.97617e-01,-8.56547e-02,-1.06088e-01,-9.97858e-02,-9.74822e-02,-3.89651e-02,-9.92992e-02,-2.84884e-01,-3.37689e-01,9.33157e-02,1.41815e-01,1.29874e-01,-2.74711e-02,-2.74711e-02,-2.74711e-02,1.76351e-02,-2.00409e-03,-2.51696e-02,-7.94447e-02,-1.42160e-01,2.46579e-01,2.48990e-02,-9.15502e-03,-9.15502e-03,-9.15502e-03,3.67219e-02,-1.42369e-01,-1.07754e-01,-1.83615e-01,-2.67844e-01,2.85416e-01,5.37631e-02,-1.23250e-02,-1.23250e-02,-1.23250e-02,-5.30720e-02,-1.60874e-02,2.92831e-02,1.48990e-02,-1.25993e-02,1.88937e-01,-2.57957e-02,-5.62805e-02,-5.62805e-02,-5.62805e-02,2.83369e-03,8.75483e-02,9.66209e-02,2.24345e-02,-1.51349e-01,1.78609e-01,4.79909e-02,-5.08389e-02,-5.08389e-02,-5.08389e-02,-7.23693e-04,6.28749e-02,-7.73530e-02,4.17410e-02,-1.02568e-01,-1.86745e-01,-1.44090e-01,-1.90012e-01,-2.22028e-01,2.73340e-01,8.22383e-02,6.06621e-03,1.35699e-02,1.85868e-02,1.05914e-01,1.18524e-01,1.66242e-01,1.60995e-01,2.36978e-01,1.41815e-01,-8.78575e-02,-1.98623e-01,-1.98623e-01,-1.98623e-01,3.95130e-02,2.65825e-02,-2.61027e-01,1.14647e-02,2.16837e-01,2.46579e-01,6.52147e-02,-5.10825e-02,-5.10825e-02,-5.10825e-02,-3.21921e-02,5.58995e-03,8.51444e-02,-2.06359e-01,-1.91132e-01,2.85416e-01,6.95835e-02,-2.87798e-02,-2.87798e-02,-2.87798e-02,1.20149e-01,1.32090e-01,2.27102e-02,3.46877e-02,-8.92987e-02,1.88937e-01,-3.45506e-02,-1.72518e-01,-1.72518e-01,-1.72518e-01,-1.40526e-01,-6.36797e-02,1.03685e-02,-1.15759e-01,5.03515e-02,1.78609e-01,-2.45745e-02,-1.21144e-01,-1.21144e-01,-1.21144e-01,8.51195e-03,-9.38380e-03,5.07221e-02,1.21973e-01,-6.29256e-02,2.73340e-01,-1.49962e-02,-5.84092e-02,-6.41684e-02,-6.22215e-02,-1.42226e-02,-2.34920e-02,-1.75433e-01,-1.94898e-01,1.18215e-01,1.41815e-01,1.29874e-01,-2.74711e-02,-2.74711e-02,-2.74711e-02,1.76351e-02,-2.00409e-03,-2.51696e-02,-7.94447e-02,-1.42160e-01,2.46579e-01,2.48990e-02,-9.15502e-03,-9.15502e-03,-9.15502e-03,3.67219e-02,-1.42369e-01,-1.07754e-01,-1.83615e-01,-2.67844e-01,2.85416e-01,5.37631e-02,-1.23250e-02,-1.23250e-02,-1.23250e-02,-5.30720e-02,-1.60874e-02,2.92831e-02,1.48990e-02,-1.25993e-02,1.88937e-01,-2.57957e-02,-5.62805e-02,-5.62805e-02,-5.62805e-02,2.83369e-03,8.75483e-02,9.66209e-02,2.24345e-02,-1.51349e-01,1.78609e-01,4.79909e-02,-5.08389e-02,-5.08389e-02,-5.08389e-02,-7.23693e-04,6.28749e-02,-7.73530e-02,4.17410e-02,-1.02568e-01,-1.74837e-01,-1.80139e-01,-4.88135e-02,-2.22028e-01,2.65151e-01,3.61170e-02,7.80209e-02,8.53674e-02,8.66884e-02,2.11924e-01,1.26382e-01,1.67579e-01,1.28410e-01,1.51194e-01,1.41815e-01,-8.78575e-02,-1.98623e-01,-1.98623e-01,-1.98623e-01,3.95130e-02,2.65825e-02,-2.61027e-01,1.14647e-02,2.16837e-01,2.46579e-01,6.52147e-02,-5.10825e-02,-5.10825e-02,-5.10825e-02,-3.21921e-02,5.58995e-03,8.51444e-02,-2.06359e-01,-1.91132e-01,2.85416e-01,6.95835e-02,-2.87798e-02,-2.87798e-02,-2.87798e-02,1.20149e-01,1.32090e-01,2.27102e-02,3.46877e-02,-8.92987e-02,1.88937e-01,-3.45506e-02,-1.72518e-01,-1.72518e-01,-1.72518e-01,-1.40526e-01,-6.36797e-02,1.03685e-02,-1.15759e-01,5.03515e-02,1.78609e-01,-2.45745e-02,-1.21144e-01,-1.21144e-01,-1.21144e-01,8.51195e-03,-9.38380e-03,5.07221e-02,1.21973e-01,-6.29256e-02,2.65151e-01,-1.10438e-01,-2.02002e-01,-2.04821e-01,-2.03148e-01,-1.92542e-01,-2.20107e-01,-2.55721e-01,-3.17250e-01,3.66026e-02,1.41815e-01,1.29874e-01,-2.74711e-02,-2.74711e-02,-2.74711e-02,1.76351e-02,-2.00409e-03,-2.51696e-02,-7.94447e-02,-1.42160e-01,2.46579e-01,2.48990e-02,-9.15502e-03,-9.15502e-03,-9.15502e-03,3.67219e-02,-1.42369e-01,-1.07754e-01,-1.83615e-01,-2.67844e-01,2.85416e-01,5.37631e-02,-1.23250e-02,-1.23250e-02,-1.23250e-02,-5.30720e-02,-1.60874e-02,2.92831e-02,1.48990e-02,-1.25993e-02,1.88937e-01,-2.57957e-02,-5.62805e-02,-5.62805e-02,-5.62805e-02,2.83369e-03,8.75483e-02,9.66209e-02,2.24345e-02,-1.51349e-01,1.78609e-01,4.79909e-02,-5.08389e-02,-5.08389e-02,-5.08389e-02,-7.23693e-04,6.28749e-02,-7.73530e-02,4.17410e-02,-1.02568e-01,-1.38938e-02,-1.38367e-02,-6.38433e-03,-2.22028e-01,2.69639e-01,1.87989e-01,1.50827e-01,1.59560e-01,1.55624e-01,2.50084e-01,9.54203e-02,-2.12497e-02,-8.55498e-02,-3.35588e-01,1.41815e-01,-8.78575e-02,-1.98623e-01,-1.98623e-01,-1.98623e-01,3.95130e-02,2.65825e-02,-2.61027e-01,1.14647e-02,2.16837e-01,2.46579e-01,6.52147e-02,-5.10825e-02,-5.10825e-02,-5.10825e-02,-3.21921e-02,5.58995e-03,8.51444e-02,-2.06359e-01,-1.91132e-01,2.85416e-01,6.95835e-02,-2.87798e-02,-2.87798e-02,-2.87798e-02,1.20149e-01,1.32090e-01,2.27102e-02,3.46877e-02,-8.92987e-02,1.88937e-01,-3.45506e-02,-1.72518e-01,-1.72518e-01,-1.72518e-01,-1.40526e-01,-6.36797e-02,1.03685e-02,-1.15759e-01,5.03515e-02,1.78609e-01,-2.45745e-02,-1.21144e-01,-1.21144e-01,-1.21144e-01,8.51195e-03,-9.38380e-03,5.07221e-02,1.21973e-01,-6.29256e-02,2.69639e-01,-4.79252e-02,-2.76872e-01,-2.68405e-01,-2.67182e-01,-2.73385e-01,-3.00273e-01,-2.48297e-01,-4.87098e-02,4.73425e-01,1.41815e-01,1.29874e-01,-2.74711e-02,-2.74711e-02,-2.74711e-02,1.76351e-02,-2.00409e-03,-2.51696e-02,-7.94447e-02,-1.42160e-01,2.46579e-01,2.48990e-02,-9.15502e-03,-9.15502e-03,-9.15502e-03,3.67219e-02,-1.42369e-01,-1.07754e-01,-1.83615e-01,-2.67844e-01,2.85416e-01,5.37631e-02,-1.23250e-02,-1.23250e-02,-1.23250e-02,-5.30720e-02,-1.60874e-02,2.92831e-02,1.48990e-02,-1.25993e-02,1.88937e-01,-2.57957e-02,-5.62805e-02,-5.62805e-02,-5.62805e-02,2.83369e-03,8.75483e-02,9.66209e-02,2.24345e-02,-1.51349e-01,1.78609e-01,4.79909e-02,-5.08389e-02,-5.08389e-02,-5.08389e-02,-7.23693e-04,6.28749e-02,-7.73530e-02,4.17410e-02,-1.02568e-01,7.27822e-04,1.28410e-04,-1.19854e-05,-2.22028e-01,1.86728e-01,3.95834e-02,-1.38932e-01,-1.34966e-01,-1.37637e-01,-9.22490e-02,-8.80159e-02,1.67649e-01,1.86525e-01,1.27999e-01,1.41815e-01,-8.78575e-02,-1.98623e-01,-1.98623e-01,-1.98623e-01,3.95130e-02,2.65825e-02,-2.61027e-01,1.14647e-02,2.16837e-01,2.46579e-01,6.52147e-02,-5.10825e-02,-5.10825e-02,-5.10825e-02,-3.21921e-02,5.58995e-03,8.51444e-02,-2.06359e-01,-1.91132e-01,2.85416e-01,6.95835e-02,-2.87798e-02,-2.87798e-02,-2.87798e-02,1.20149e-01,1.32090e-01,2.27102e-02,3.46877e-02,-8.92987e-02,1.88937e-01,-3.45506e-02,-1.72518e-01,-1.72518e-01,-1.72518e-01,-1.40526e-01,-6.36797e-02,1.03685e-02,-1.15759e-01,5.03515e-02,1.78609e-01,-2.45745e-02,-1.21144e-01,-1.21144e-01,-1.21144e-01,8.51195e-03,-9.38380e-03,5.07221e-02,1.21973e-01,-6.29256e-02,1.86728e-01,-8.91669e-02,-1.98398e-01,-1.94381e-01,-1.93352e-01,-2.25789e-01,-2.83282e-01,-3.25949e-01,-9.55095e-02,4.21338e-02,1.41815e-01,1.29874e-01,-2.74711e-02,-2.74711e-02,-2.74711e-02,1.76351e-02,-2.00409e-03,-2.51696e-02,-7.94447e-02,-1.42160e-01,2.46579e-01,2.48990e-02,-9.15502e-03,-9.15502e-03,-9.15502e-03,3.67219e-02,-1.42369e-01,-1.07754e-01,-1.83615e-01,-2.67844e-01,2.85416e-01,5.37631e-02,-1.23250e-02,-1.23250e-02,-1.23250e-02,-5.30720e-02,-1.60874e-02,2.92831e-02,1.48990e-02,-1.25993e-02,1.88937e-01,-2.57957e-02,-5.62805e-02,-5.62805e-02,-5.62805e-02,2.83369e-03,8.75483e-02,9.66209e-02,2.24345e-02,-1.51349e-01,1.78609e-01,4.79909e-02,-5.08389e-02,-5.08389e-02,-5.08389e-02,-7.23693e-04,6.28749e-02,-7.73530e-02,4.17410e-02,-1.02568e-01,-1.19838e-05,-1.17119e-05,-1.17119e-05,-2.22028e-01,-3.08071e-02,-5.17868e-02,-7.65097e-02,-7.45340e-02,-7.91159e-02,-7.38200e-02,3.36478e-02,7.13314e-02,9.09833e-02,1.96864e-01,1.41815e-01,-8.78575e-02,-1.98623e-01,-1.98623e-01,-1.98623e-01,3.95130e-02,2.65825e-02,-2.61027e-01,1.14647e-02,2.16837e-01,2.46579e-01,6.52147e-02,-5.10825e-02,-5.10825e-02,-5.10825e-02,-3.21921e-02,5.58995e-03,8.51444e-02,-2.06359e-01,-1.91132e-01,2.85416e-01,6.95835e-02,-2.87798e-02,-2.87798e-02,-2.87798e-02,1.20149e-01,1.32090e-01,2.27102e-02,3.46877e-02,-8.92987e-02,1.88937e-01,-3.45506e-02,-1.72518e-01,-1.72518e-01,-1.72518e-01,-1.40526e-01,-6.36797e-02,1.03685e-02,-1.15759e-01,5.03515e-02,1.78609e-01,-2.45745e-02,-1.21144e-01,-1.21144e-01,-1.21144e-01,8.51195e-03,-9.38380e-03,5.07221e-02,1.21973e-01,-6.29256e-02,-3.08071e-02,-1.71827e-01,-2.00532e-01,-2.04246e-01,-2.03756e-01,-2.58657e-01,-8.31950e-02,-1.21210e-01,7.54210e-03,-6.39764e-02,1.41815e-01,1.29874e-01,-2.74711e-02,-2.74711e-02,-2.74711e-02,1.76351e-02,-2.00409e-03,-2.51696e-02,-7.94447e-02,-1.42160e-01,2.46579e-01,2.48990e-02,-9.15502e-03,-9.15502e-03,-9.15502e-03,3.67219e-02,-1.42369e-01,-1.07754e-01,-1.83615e-01,-2.67844e-01,2.85416e-01,5.37631e-02,-1.23250e-02,-1.23250e-02,-1.23250e-02,-5.30720e-02,-1.60874e-02,2.92831e-02,1.48990e-02,-1.25993e-02,1.88937e-01,-2.57957e-02,-5.62805e-02,-5.62805e-02,-5.62805e-02,2.83369e-03,8.75483e-02,9.66209e-02,2.24345e-02,-1.51349e-01,1.78609e-01,4.79909e-02,-5.08389e-02,-5.08389e-02,-5.08389e-02,-7.23693e-04,6.28749e-02,-7.73530e-02,4.17410e-02,-1.02568e-01,1.49657e-35,1.49657e-35,-3.28501e-40,-2.22028e-01,1.11216e-01,-3.84345e-02,-1.29076e-01,-1.20388e-01,-1.21768e-01,-1.29110e-01,-1.05156e-01,-6.79456e-02,-1.10936e-01,-2.30310e-01,1.41815e-01,-8.78575e-02,-1.98623e-01,-1.98623e-01,-1.98623e-01,3.95130e-02,2.65825e-02,-2.61027e-01,1.14647e-02,2.16837e-01,2.46579e-01,6.52147e-02,-5.10825e-02,-5.10825e-02,-5.10825e-02,-3.21921e-02,5.58995e-03,8.51444e-02,-2.06359e-01,-1.91132e-01,2.85416e-01,6.95835e-02,-2.87798e-02,-2.87798e-02,-2.87798e-02,1.20149e-01,1.32090e-01,2.27102e-02,3.46877e-02,-8.92987e-02,1.88937e-01,-3.45506e-02,-1.72518e-01,-1.72518e-01,-1.72518e-01,-1.40526e-01,-6.36797e-02,1.03685e-02,-1.15759e-01,5.03515e-02,1.78609e-01,-2.45745e-02,-1.21144e-01,-1.21144e-01,-1.21144e-01,8.51195e-03,-9.38380e-03,5.07221e-02,1.21973e-01,-6.29256e-02,1.11216e-01,-1.51882e-02,-1.07037e-01,-1.06194e-01,-1.05953e-01,-1.34541e-01,-2.42913e-01,-2.21319e-01,-9.39213e-02,-2.32887e-01,1.41815e-01,1.29874e-01,-2.74711e-02,-2.74711e-02,-2.74711e-02,1.76351e-02,-2.00409e-03,-2.51696e-02,-7.94447e-02,-1.42160e-01,2.46579e-01,2.48990e-02,-9.15502e-03,-9.15502e-03,-9.15502e-03,3.67219e-02,-1.42369e-01,-1.07754e-01,-1.83615e-01,-2.67844e-01,2.85416e-01,5.37631e-02,-1.23250e-02,-1.23250e-02,-1.23250e-02,-5.30720e-02,-1.60874e-02,2.92831e-02,1.48990e-02,-1.25993e-02,1.88937e-01,-2.57957e-02,-5.62805e-02,-5.62805e-02,-5.62805e-02,2.83369e-03,8.75483e-02,9.66209e-02,2.24345e-02,-1.51349e-01,1.78609e-01,4.79909e-02,-5.08389e-02,-5.08389e-02,-5.08389e-02,-7.23693e-04,6.28749e-02,-7.73530e-02,4.17410e-02,-1.02568e-01,-3.38251e-40,3.37462e-40,3.18966e-40,-2.22028e-01,2.69223e-02,3.10374e-02,4.49368e-02,4.94826e-02,4.83385e-02,1.30232e-01,1.42338e-01,1.03824e-01,1.53248e-01,1.55016e-01,4.59934e-02,-2.14828e-01,-3.34661e-01,-3.34661e-01,-3.34661e-01,-1.19702e-01,-1.20787e-01,-2.30251e-01,2.15571e-02,1.96715e-01,1.87722e-01,7.05398e-02,-6.62962e-02,-6.62962e-02,-6.62962e-02,-4.34547e-02,1.12820e-02,8.36759e-02,-1.82181e-01,-1.86612e-01,2.97054e-01,1.06252e-01,-6.64492e-03,-6.64492e-03,-6.64492e-03,1.59583e-01,1.46702e-01,-4.48909e-03,2.41765e-02,-1.10652e-01,1.58303e-01,-1.27318e-02,-1.53760e-01,-1.53760e-01,-1.53760e-01,-1.73734e-01,-3.85926e-02,1.31000e-01,-1.89318e-02,4.84851e-02,1.77682e-01,-6.92158e-02,-1.34322e-01,-1.34322e-01,-1.34322e-01,2.46778e-05,-5.42874e-02,-5.34227e-02,3.75296e-02,-7.06852e-02,2.69223e-02,-7.21232e-02,-1.68825e-01,-1.69157e-01,-1.69041e-01,-1.84959e-01,-1.52257e-01,-2.49283e-02,1.01172e-01,-4.34951e-02,4.59934e-02,5.03820e-02,-6.77984e-02,-6.77984e-02,-6.77984e-02,2.07940e-02,5.66202e-02,2.84542e-02,-2.85442e-02,-1.25296e-01,1.87722e-01,-6.81596e-02,-8.84822e-02,-8.84822e-02,-8.84822e-02,-7.04002e-02,-1.42506e-01,-1.22852e-01,-1.96338e-01,-2.83279e-01,2.97054e-01,7.96733e-02,-4.91112e-03,-4.91112e-03,-4.91112e-03,-3.86852e-02,-3.70494e-03,2.46767e-02,3.74777e-02,1.50363e-02,1.58303e-01,6.37826e-04,-9.45952e-02,-9.45952e-02,-9.45952e-02,-3.02180e-02,3.18229e-02,3.56172e-02,-3.37481e-02,-1.46274e-01,1.77682e-01,6.79842e-02,-3.80120e-02,-3.80120e-02,-3.80120e-02,-9.58314e-03,3.13553e-02,-1.16492e-01,1.81988e-02,-1.01359e-01,-3.40125e-40,-3.11893e-40,3.45084e-40,-2.22028e-01,1.50320e-01,3.27561e-02,-2.54069e-01,-2.57685e-01,-2.58174e-01,-1.40711e-01,-1.01129e-01,-2.31876e-01,-2.26509e-01,-1.56905e-01,1.11762e-01,-1.47275e-01,-2.62392e-01,-2.62392e-01,-2.62392e-01,1.30267e-02,1.40390e-02,-7.61428e-02,-2.05236e-02,1.63266e-01,1.13430e-01,3.65563e-02,-1.39700e-01,-1.39700e-01,-1.39700e-01,-1.26642e-01,-9.04199e-02,4.35829e-02,-3.18312e-02,-8.63807e-02,3.42448e-01,1.69469e-01,7.02353e-02,7.02353e-02,7.02353e-02,2.33886e-01,1.88804e-01,6.29207e-02,6.66594e-02,-8.15393e-02,2.09350e-01,2.53695e-02,-3.08817e-02,-3.08817e-02,-3.08817e-02,-4.14804e-02,-2.95649e-02,1.92130e-01,3.28981e-03,5.40154e-02,9.33544e-02,-7.73397e-02,-1.40027e-01,-1.40027e-01,-1.40027e-01,-1.28116e-02,-4.00744e-02,-1.26822e-02,6.07695e-02,-4.17330e-02,1.50320e-01,2.16643e-01,3.91039e-01,3.83485e-01,3.83515e-01,3.85395e-01,3.17291e-01,3.17593e-01,3.26243e-01,3.15663e-01,1.11762e-01,5.17778e-02,-7.67082e-02,-7.67082e-02,-7.67082e-02,3.14670e-02,8.20710e-02,4.73472e-02,-6.58493e-02,-1.04008e-01,1.13430e-01,-1.05904e-01,-6.85107e-02,-6.85107e-02,-6.85107e-02,-4.36614e-02,-1.40443e-01,-1.02700e-01,-1.68712e-01,-2.82528e-01,3.42448e-01,1.24892e-01,2.22717e-02,2.22717e-02,2.22717e-02,2.33372e-03,4.17832e-02,7.18949e-02,1.27432e-02,-1.47857e-03,2.09350e-01,6.96904e-02,-9.85862e-02,-9.85862e-02,-9.85862e-02,-1.34939e-02,4.59889e-02,1.90195e-02,-4.29039e-02,-1.45760e-01,9.33544e-02,-2.55256e-02,-1.07276e-01,-1.07276e-01,-1.07276e-01,-4.66895e-02,1.87892e-04,-1.48562e-01,-1.96241e-02,-1.25346e-01,-3.46521e-40,3.41857e-40,-3.42283e-40,-2.22028e-01,1.87199e-01,9.94309e-02,-1.96964e-01,-1.90695e-01,-1.93626e-01,-1.22773e-01,-3.40959e-02,-2.41652e-02,-5.17652e-02,-2.29064e-01,8.81472e-02,-2.00718e-01,-3.09437e-01,-3.09437e-01,-3.09437e-01,-1.92100e-02,2.84265e-02,-4.82223e-02,4.24488e-02,1.92915e-01,1.78139e-01,1.37703e-02,-1.91661e-01,-1.91661e-01,-1.91661e-01,-2.14324e-01,-2.18049e-01,-5.97208e-02,-2.96567e-02,-1.14055e-01,2.20460e-01,7.50332e-02,-3.28764e-02,-3.28764e-02,-3.28764e-02,1.37147e-01,7.76625e-02,-6.04076e-02,-1.93081e-02,-4.47085e-02,2.10352e-01,1.21033e-01,-1.61151e-02,-1.61151e-02,-1.61151e-02,-3.43175e-02,-1.31183e-01,7.09477e-02,-2.01531e-01,-1.56427e-01,3.54402e-02,-8.10830e-02,-1.61666e-01,-1.61666e-01,-1.61666e-01,-7.54094e-02,-4.04290e-02,-1.92355e-02,4.09676e-02,-2.03615e-02,1.87199e-01,3.49231e-01,4.42113e-01,4.42990e-01,4.42990e-01,4.09266e-01,2.76027e-01,2.88531e-01,2.76655e-01,1.41722e-01,8.81472e-02,-1.72638e-02,-6.48322e-02,-6.48322e-02,-6.48322e-02,-7.91714e-05,3.35053e-02,9.09211e-03,-6.45802e-02,-9.71513e-02,1.78139e-01,5.78739e-03,-2.74701e-04,-2.74701e-04,-2.74701e-04,8.54194e-02,-2.27720e-02,3.18957e-02,-1.41681e-02,-9.14951e-02,2.20460e-01,9.26050e-02,-2.48689e-02,-2.48689e-02,-2.48689e-02,-5.92628e-02,-5.11820e-02,-9.72388e-03,-3.79606e-02,-4.37227e-02,2.10352e-01,3.03304e-02,-1.00743e-01,-1.00743e-01,-1.00743e-01,-2.75709e-02,-1.54853e-02,-3.76428e-02,-1.14644e-01,-1.07563e-01,3.54402e-02,-3.16960e-02,-8.03419e-02,-8.03419e-02,-8.03419e-02,2.52814e-03,3.64019e-02,-8.27818e-02,8.16727e-03,-9.23140e-02,3.48024e-40,3.22603e-40,3.26479e-40,-2.22028e-01,2.15255e-01,2.05694e-01,-7.82165e-02,-7.45852e-02,-7.48070e-02,-2.41782e-02,1.70225e-02,1.09140e-01,6.85037e-02,-3.18115e-02,4.15926e-02,-2.41041e-01,-4.65781e-01,-4.65781e-01,-4.65781e-01,-8.95624e-02,-4.98767e-02,-2.10526e-01,-8.97204e-02,-5.42590e-02,6.30625e-03,-4.81587e-02,-2.56799e-01,-2.56799e-01,-2.56799e-01,-2.85359e-01,-2.81332e-01,-1.20306e-01,-4.22265e-02,-4.87232e-02,2.01547e-01,-8.42727e-02,-1.28787e-01,-1.28787e-01,-1.28787e-01,6.60256e-02,8.21957e-02,-1.44512e-01,-1.16237e-01,-1.32037e-02,2.27911e-02,-1.12465e-01,-1.08836e-01,-1.08836e-01,-1.08836e-01,-1.42781e-01,-1.03942e-01,1.38036e-01,-3.70951e-03,-1.34762e-02,1.00625e-02,-9.53346e-02,-3.14603e-01,-3.14603e-01,-3.14603e-01,-9.54323e-02,-7.44407e-02,-5.94237e-02,-5.02412e-02,-2.24554e-02,2.15255e-01,3.20039e-01,3.51659e-01,3.58510e-01,3.58510e-01,3.10139e-01,3.14248e-01,2.80105e-01,2.90682e-01,2.51664e-01,4.15926e-02,1.44156e-01,7.34098e-03,7.34098e-03,7.34098e-03,5.92694e-02,5.79430e-02,1.35308e-03,-2.19215e-02,-4.72767e-02,6.30625e-03,-1.49700e-01,-1.15188e-01,-1.15188e-01,-1.15188e-01,-1.46668e-01,-9.56327e-02,-1.07132e-01,-7.57921e-02,-1.42798e-01,2.01547e-01,1.34064e-01,4.24610e-02,4.24610e-02,4.24610e-02,-3.48589e-02,-2.66813e-05,5.15196e-03,-3.02116e-02,-2.06000e-02,2.27911e-02,-1.12263e-01,-1.95135e-01,-1.95135e-01,-1.95135e-01,-1.47539e-01,-1.14779e-01,-1.31763e-01,-1.31836e-01,-8.73151e-02,1.00625e-02,5.02005e-02,-2.55323e-02,-2.55323e-02,-2.55323e-02,2.79252e-02,6.69712e-02,-4.92153e-02,-2.32175e-02,-6.85981e-02,-3.37643e-40,-3.29873e-40,-3.26836e-40,-2.22028e-01,2.42541e-01,1.57202e-01,5.66761e-02,5.72129e-02,5.80003e-02,1.49188e-01,6.32000e-02,1.62708e-01,9.85575e-02,1.33973e-01,-1.79807e-01,-4.99532e-01,-5.03391e-01,-5.03391e-01,-5.03391e-01,-9.41954e-02,-6.86298e-02,-2.02960e-01,-6.45273e-02,-3.50680e-02,-4.93119e-03,-5.23028e-02,-9.55965e-02,-9.55965e-02,-9.55965e-02,-1.24337e-01,-9.82981e-02,-9.20440e-02,-1.19679e-03,-5.09137e-03,2.46845e-01,4.41327e-02,9.07717e-02,9.07717e-02,9.07717e-02,5.69699e-02,6.62415e-02,-1.62851e-01,-1.15412e-01,1.64631e-04,2.66572e-02,-9.22957e-02,-1.02738e-01,-1.02738e-01,-1.02738e-01,-7.96246e-02,-6.05551e-02,9.48303e-02,-4.52849e-02,-2.76633e-02,-2.98039e-01,-3.33655e-01,-2.97765e-01,-2.97765e-01,-2.97765e-01,-6.62863e-02,-7.13995e-02,-1.39214e-02,-1.60122e-02,-1.63873e-02,2.42541e-01,2.93316e-01,2.29847e-01,2.29310e-01,2.29310e-01,1.80115e-01,8.51269e-02,9.80174e-02,1.39692e-02,1.92083e-02,-1.79807e-01,1.11222e-02,-1.18726e-01,-1.18726e-01,-1.18726e-01,-8.93070e-02,-8.70662e-02,-8.07975e-02,-2.00044e-02,2.49176e-04,-4.93119e-03,-6.60006e-02,-9.51319e-02,-9.51319e-02,-9.51319e-02,-1.82130e-01,-8.01603e-02,-8.67459e-02,-2.78784e-02,-4.25692e-02,2.46845e-01,2.07729e-01,1.27484e-01,1.27484e-01,1.27484e-01,1.13845e-02,-4.55140e-02,-3.01171e-02,-4.75782e-02,-1.50437e-02,2.66572e-02,1.70481e-02,7.94163e-02,7.94163e-02,7.94163e-02,8.65422e-02,-4.85899e-02,-4.48595e-02,-2.84068e-02,-9.94532e-03,-2.98039e-01,-5.78011e-02,-1.00291e-01,-1.00291e-01,-1.00291e-01,-7.70965e-02,-4.84421e-02,-3.53771e-02,-2.09872e-02,-1.22507e-02,3.33533e-40,3.36557e-40,-3.39193e-40,-2.22028e-01,2.05866e-01,1.08906e-01,-3.70042e-02,-3.57291e-02,-3.74992e-02,4.80052e-02,-3.24829e-02,1.42845e-01,1.61571e-02,3.08672e-02,-3.45152e-40,-3.10898e-40,3.31200e-40,3.12418e-40,-3.47177e-40,-3.27319e-40,3.29279e-40,3.43419e-40,3.17555e-40,-3.47072e-40,-3.41653e-40,3.35646e-40,-3.47275e-40,-3.37591e-40,-3.23777e-40,3.21644e-40,3.45692e-40,-3.28215e-40,3.44548e-40,3.40986e-40,-3.13759e-40,-3.33987e-40,3.32195e-40,3.06234e-40,3.28474e-40,3.37553e-40,-3.45011e-40,-3.45504e-40,-3.40942e-40,3.32019e-40,-3.40370e-40,3.26098e-40,3.25142e-40,-3.41942e-40,-3.43419e-40,3.35511e-40,3.26633e-40,3.11307e-40,-3.37637e-40,3.44321e-40,3.07975e-40,3.08396e-40,3.12782e-40,3.45978e-40,3.16287e-40,3.45371e-40,3.16941e-40,3.18905e-40,3.36076e-40,-3.25501e-40,2.05866e-01,1.35564e-01,1.78345e-01,1.78380e-01,1.78380e-01,1.35183e-01,7.91871e-02,9.28608e-02,2.58394e-03,1.70530e-01,3.06404e-40,-3.25971e-40,3.26500e-40,3.14072e-40,-3.11055e-40,3.44463e-40,-3.34738e-40,-3.20484e-40,-3.40485e-40,3.40168e-40,3.34462e-40,-3.23598e-40,3.26790e-40,-3.35891e-40,3.12958e-40,3.42945e-40,3.45983e-40,-3.48579e-40,3.07491e-40,-3.16378e-40,-3.25593e-40,3.23347e-40,3.40338e-40,-3.15431e-40,-3.40370e-40,3.22201e-40,-3.42008e-40,3.44233e-40,-3.07204e-40,-3.29898e-40,3.17424e-40,-3.29245e-40,-3.40025e-40,3.47696e-40,-3.14634e-40,-3.13356e-40,3.14034e-40,-3.26078e-40,-3.46578e-40,3.36502e-40,-3.22555e-40,-3.07309e-40,-3.21999e-40,3.12317e-40,3.22520e-40,3.23344e-40,3.14641e-40,3.36883e-40,-3.36774e-40,3.33564e-40,3.40035e-40,3.49553e-40,3.47813e-40,-2.22028e-01,3.85759e-02,-6.25116e-02,-9.56696e-02,-9.64475e-02,-9.61964e-02,1.19108e-01,1.74275e-01,5.97168e-02,-2.88884e-02,-2.29590e-02,3.48307e-40,-3.44539e-40,3.07736e-40,3.40720e-40,-3.48963e-40,3.18386e-40,3.48436e-40,-3.43100e-40,-3.18187e-40,3.46160e-40,-3.09012e-40,-3.26717e-40,-3.29454e-40,3.33931e-40,3.10156e-40,3.19485e-40,-3.27006e-40,-3.12101e-40,-3.37703e-40,3.48696e-40,-3.25575e-40,3.42232e-40,-3.10575e-40,-3.07295e-40,3.06842e-40,-3.21112e-40,3.20976e-40,-3.20310e-40,3.39411e-40,-3.23825e-40,3.22894e-40,3.20340e-40,-3.08186e-40,-3.13077e-40,-3.31671e-40,-3.15955e-40,3.44411e-40,3.32424e-40,3.42646e-40,3.32457e-40,3.43545e-40,-3.13101e-40,3.44527e-40,-3.41087e-40,-3.42524e-40,-3.12089e-40,-3.38806e-40,-3.42281e-40,-3.39979e-40,3.37063e-40,3.85759e-02,6.24689e-02,1.90746e-01,1.91017e-01,1.91017e-01,1.75045e-01,1.95712e-01,1.64842e-01,1.93276e-01,2.13944e-01,-3.47844e-40,-3.08349e-40,3.38764e-40,3.47596e-40,3.29651e-40,-3.07707e-40,-3.21309e-40,-3.29475e-40,3.11052e-40,3.18843e-40,3.13669e-40,-3.18843e-40,-3.41665e-40,3.47752e-40,3.44319e-40,3.40345e-40,3.28700e-40,-3.49417e-40,3.06835e-40,3.30380e-40,3.36661e-40,-3.41984e-40,3.38415e-40,-3.30437e-40,-3.49960e-40,-3.37871e-40,3.41980e-40,-3.16862e-40,-3.16175e-40,-3.30194e-40,3.46984e-40,-3.45353e-40,-3.19317e-40,-3.17216e-40,-3.16689e-40,-3.10023e-40,3.46807e-40,-3.43540e-40,3.26256e-40,-3.41852e-40,3.27803e-40,-3.34372e-40,-3.14987e-40,3.37570e-40,3.35202e-40,-3.24368e-40,3.23770e-40,-3.17150e-40,-3.48817e-40,3.40507e-40,3.15715e-40,3.08338e-40,-3.37804e-40,-2.22028e-01,-3.38503e-02,6.82299e-02,-7.75757e-02,-7.70312e-02,-7.55873e-02,1.21503e-01,8.55887e-02,2.81571e-02,9.40551e-02,2.31053e-02,3.43013e-40,-3.19531e-40,-3.20684e-40,-3.38807e-40,-3.46779e-40,-3.17681e-40,-3.26741e-40,-3.28562e-40,-3.39659e-40,-3.20191e-40,-3.24598e-40,-3.27670e-40,-3.11500e-40,3.22597e-40,3.41824e-40,3.20462e-40,-3.42895e-40,3.18711e-40,3.23231e-40,3.08109e-40,3.15954e-40,3.11471e-40,-3.37538e-40,3.12599e-40,3.13007e-40,3.43420e-40,3.38999e-40,3.41121e-40,-3.36547e-40,3.21136e-40,-3.42367e-40,3.41908e-40,-3.07626e-40,-3.31858e-40,3.39089e-40,3.20759e-40,3.23102e-40,-3.26582e-40,3.30949e-40,-3.15324e-40,-3.15919e-40,3.47180e-40,-3.30917e-40,3.33096e-40,3.22869e-40,3.07424e-40,3.45884e-40,3.46498e-40,3.18409e-40,-3.42742e-40,-3.38503e-02,6.80507e-02,1.28042e-02,1.28037e-02,1.28037e-02,5.95538e-02,2.43395e-02,2.54258e-03,2.41064e-02,2.02119e-01,-3.42119e-40,3.30173e-40,3.13002e-40,3.12823e-40,3.19422e-40,-3.49798e-40,-3.06615e-40,-3.11112e-40,-3.08116e-40,-3.37412e-40,3.07659e-40,3.28450e-40,-3.30254e-40,-3.33674e-40,-3.12188e-40,-3.39385e-40,-3.43642e-40,3.05707e-40,-3.23781e-40,-3.13152e-40,-3.48954e-40,3.19378e-40,3.45641e-40,-3.46907e-40,3.15075e-40,-3.28455e-40,-3.12558e-40,3.35387e-40,-3.11291e-40,3.19768e-40,-3.10156e-40,-3.33595e-40,3.11974e-40,3.16179e-40,-3.17396e-40,3.26634e-40,-3.45577e-40,3.19074e-40,3.20289e-40,3.45726e-40,3.34731e-40,3.17410e-40,3.37803e-40,-3.23432e-40,-3.21001e-40,-3.44784e-40,3.24322e-40,-3.27664e-40,3.33788e-40,-3.43413e-40,3.35325e-40,-3.40168e-40,-3.13131e-40,-2.22028e-01,-2.03766e-01,-2.65853e-02,-2.62565e-02,-2.58576e-02,-2.58576e-02,1.51772e-01,8.44900e-02,-2.87367e-02,4.78337e-02,6.28042e-03,-3.07274e-40,-3.39921e-40,-3.31201e-40,3.19607e-40,-3.28106e-40,-3.43118e-40,3.15574e-40,-3.39379e-40,-3.14470e-40,-3.11671e-40,-3.29508e-40,3.36871e-40,3.44111e-40,3.16291e-40,3.31480e-40,-3.10943e-40,3.28533e-40,-3.08438e-40,-3.44111e-40,3.10417e-40,3.15436e-40,-3.23914e-40,-3.27545e-40,3.20260e-40,3.26214e-40,3.11893e-40,3.42396e-40,3.40392e-40,-3.34809e-40,3.43811e-40,3.33613e-40,3.14241e-40,-3.21836e-40,3.45084e-40,-3.48518e-40,3.45717e-40,-3.39022e-40,-3.21737e-40,3.39809e-40,-3.34021e-40,-3.25426e-40,3.24734e-40,-3.33796e-40,3.25524e-40,3.19996e-40,-3.30393e-40,3.08820e-40,3.08535e-40,-3.44425e-40,3.15075e-40,-2.03766e-01,-1.48376e-01,-2.43640e-01,-2.43640e-01,-2.43640e-01,-1.90641e-01,-1.47445e-01,-1.86625e-01,-6.26715e-02,-1.98611e-01,-3.10694e-40,3.36906e-40,3.15955e-40,3.16525e-40,-3.25026e-40,3.31239e-40,-3.12654e-40,-3.13748e-40,-3.32580e-40,-3.33904e-40,-3.15916e-40,-3.29144e-40,